{"symbol": "AAPL", "timeframe": "1h", "weights": [[0.005097653116729671, 0.017471214443062398, 0.039971722443214154, 0.043178175542903166, 0.0054895132522135995, 0.043178175542903166, 0.06315329018839948, 0.039971722443213946, 0.04317817554290329, -0.015665868936834217, -0.02023780759686355, -0.0035055432010580056, -0.00636789288326813, -0.007433574378746321, -0.007269189441802079, -0.010766853183419911, -0.02506736367036578, 0.17390415171488205, 0.12551467553089002, -0.02765719107496698, 0.3822155548680926, 0.029914183966993288, 0.05405442487869219, 0.0197704754473624, 0.0024346339056668296, 0.03700980754514615, -0.006710984582782192, -0.01639301330695577, -0.009027558157023483, -0.05080913567953586, -0.11559588830245285, 0.006485126371345934, -0.3654088778149699, -0.16069073723991803, 0.2913207096672683, 0.23125759163858953, -0.1898232693186795, 0.331407013041478, -0.3537386616509132, 0.15409193970788354, -0.011378603488034295, 0.20742020953203988, 0.0884117482036484, 0.027410126221384546, -0.08693336827361468], [-0.013209235898796017, -0.0316577628658255, -0.07652680252640824, -0.06880737244240273, -0.013290034406180597, -0.06880737244240273, -0.02694590012109461, -0.076526802526408, -0.06880737244240286, 0.002216411389952714, 0.013303774289688264, 0.006090715040185715, 0.012946944996001086, 0.00620553960307756, 0.005704607995930348, 0.00965374046390553, 0.07961233903514213, -0.09848365154910813, -0.10967823414792284, 0.059530144808996904, -0.13450695033537288, -0.06378666850225095, 0.04368080887149639, 0.10191189005660922, -0.001452264775933303, -0.00783902691717582, -0.0043600923443259595, -0.01219820661569679, 0.023247516730312664, 0.03280686087442011, 0.039987564610515995, -0.018532045406174046, 0.16375945945617545, 0.1373426892096715, -0.171831216624129, -0.09100382961684078, 0.1836427781365388, -0.2145929388909727, 0.2670703549870693, -0.03743695106959558, 0.06200686214520969, -0.1526217615340416, -0.14978271599259313, -0.028437302537993762, 0.001280148259624837], [0.00811158278206635, 0.014186548422763167, 0.036555080083194094, 0.025629196899499586, 0.0078005211539669585, 0.025629196899499586, -0.03620739006730491, 0.036555080083194136, 0.025629196899499593, 0.013449457546881526, 0.006934033307175319, -0.002585171839127699, -0.006579052112732968, 0.001228034775668758, 0.0015645814458717304, 0.0011131127195143705, -0.0545449753647764, -0.07542050016577423, -0.015836441382967074, -0.03187295373402985, -0.24770860453271987, 0.03387248453525776, -0.09773523375018853, -0.1216823655039718, -0.0009823691297335103, -0.029170780627970242, 0.011071076927108165, 0.028591219922652646, -0.014219958573289204, 0.018002274805115546, 0.07560832369193662, 0.012046919034828097, 0.20164941835879438, 0.023348048030246586, -0.11948949304313956, -0.14025376202174844, 0.006180491182140747, -0.1168140741505056, 0.08666830666384415, -0.11665498863828809, -0.05062825865717537, -0.054798447997998184, 0.06137096778894467, 0.001027176316609312, 0.08565322001398988]], "biases": [0.9880035423371024, -0.23352911877236718, -0.7544744235647349], "feat_mean": [0.00037719497412534703, 0.0012471104379357543, 0.0020985783964925673, 0.004228574245799462, 0.0003591640132599519, 0.004228574245799462, 0.007513188740510467, 0.0020985783964925656, 0.004228574245799458, 0.0002514456483584852, 0.004918811313966155, 0.005308200018662957, 0.005621737602530979, 0.004852593294868102, 0.004921115393648983, 0.007270862580968126, 0.038532877850629234, 0.5730507255991679, 0.0029883231932493473, 405524.0690296913, 630625.1257717876, 1.0164419407890448, 0.12220771075327538, 54.29756622490964, 0.006951609269156544, 0.5061044878135155, 7.762087128281343e-05, 0.28457796315247086, 0.27344865579402455, -0.3223004884651967, 0.0006674792644447277, -0.00015827443707597515, -0.1251811060724994, 0.4870981328285758, 0.3824124358323484, 3.7427388810150983, 0.49279202749972606, -0.085342059213676, -0.061526726845765156, 1.1752313086775363, 0.9979797979797981, 0.8929292929292924, 0.4862091177076386, 1.196094638493904, 0.7221963772494249], "feat_var": [1.0178497010009877, 1.0466821307107441, 1.0768950143596858, 1.1431156324733573, 1.0177542504625667, 1.1431156324733573, 1.233557990422112, 1.0768950143596863, 1.1431156324733573, 1.036591789737375, 1.0065604261283536, 1.0045962697083686, 1.002965319041208, 1.0004246325786093, 1.000426293499581, 1.001112550375876, 1.0989586479724263, 50.596053688464806, 512.1733624452578, 1449554873314742.0, 459520545492871.6, 214.82023019795056, 90.00110412871197, 179095.2482405485, 1.0089026963403362, 44.70293593267212, 1.0048591451407933, 23.210024814969568, 21.487470730163377, 79664.74486444693, 8.146143062726699, 1.0055151110728746, 270.7187203905935, 75.80492394170216, 1127.852435548777, 7350.79894618827, 1.985685581466952, 21.267110361032383, 31.857617158633058, 53.90921220629139, 933.9979797979793, 720.3252525252523, 1015.4594723007607, 2908.4129133250467, 91.05198400635776], "count": 495}