{"w1": [[-0.40696997432683907, -0.500899862852206, -0.9732169875427187, 0.8362262926369356, 0.6884957618833056, -0.3103425640251564], [0.9392890183832318, 0.10732991317871063, -0.42952208791258834, -0.28137138539070644, 0.015023898856596255, -0.9819695695327109], [1.2960638067045926, -0.7588557361091613, -1.1140740255160633, -0.38736146659767584, 0.11769769200861109, 0.3500574165991852], [0.010567295353510746, 0.5124002872882497, 0.6883868993048589, -0.9829003288566504, -1.0845788832902472, -0.03775084744491199], [0.06081764942974144, -0.16666744050623858, -1.2481631924273402, 0.2318627854602587, -0.22889875722471006, -0.23011749754071006], [-0.24095199647436058, 0.020107933847901428, -0.0836025165189406, 0.21683533721385548, 0.28383125388416, 0.4897670467830505], [0.3852924715995039, 0.6277486431265431, 0.18538038069984691, 0.034473960146107895, -0.10374079694685932, 0.084624490594802], [0.8036283260222812, -0.06766270958738689, 0.038469473442572726, 0.5548610176515419, -0.591069539779319, -0.6943815298946889], [0.1275120942310176, 0.878373020750668, -0.25042888868235047, -0.5804941083164903, -0.2781548549656106, 1.4953885968309408], [0.0028280404657958502, 0.43036846455530653, -0.8316306964566453, -0.1977501720237251, -0.9931122907104275, 0.4672034207492623], [-0.39743831599823887, -0.3178191810522864, 0.7376027216079801, -0.2869447137788173, 0.14600521684638768, 0.4081014998425452], [0.10686815969936321, 0.16670791852037656, 0.18925580494929267, -0.8449565489410364, -0.85625028434933, 0.1509102710943802]], "b1": [[-0.025526507626134648], [0.026416865984150148], [-0.0010840474024862445], [-0.04881154268803144], [0.009614183699755034], [0.0014037395020103775], [-0.010255194663764192], [0.00011181450156193444], [0.007672464367411635], [0.0025105657304556554], [0.001428818589326146], [0.004361494624173897]], "w2": [[-0.2806108162797272, 0.11590439441474312, 0.35656740673376924, -0.2718423311800366, 0.19012708804333575, -0.6715555884449955, -0.12874992257559048, 0.16790000457623352, 0.7115696292142519, 0.5962178809264491, -0.2675591918410994, -0.1086510193980989], [-0.541392503031957, 0.6093497798531995, -0.18862727652510308, -0.15862236316470069, 0.10975649911123532, 0.33275052145208245, 0.06344234866524857, -0.0530586151647985, -0.021941936706296447, -0.06439314541934145, 0.4987785359369301, 0.192869822601069], [0.5755601652387117, 0.3033329706823515, 0.4994636919142851, 0.42252954300561324, -0.06309380482064231, 0.22974484268917125, 0.3574634630042576, -0.5256427161699061, 0.4131941431622706, 0.12136740547013755, 0.2272548715210573, 0.44957465870746327]], "b2": [[0.035010977078146904], [0.04737319186391486], [-0.013945389315303978]], "epsilon": 0.92274469442792}