{"symbol": "AAPL", "timeframe": "1d", "weights": [[0.06832099514058343, 0.05918506695039809, 0.053736793396682386, 0.02791291086984321, 0.06530527156601013, 0.02791291086984321, 0.0152566739751866, 0.053736793396682456, 0.02791291086984321, 0.05349031927783045, 0.03817967884505904, -0.007465952435488308, -0.005335260387689296, -0.006687532446646676, -0.007146656863243792, 0.002372759765469073, 0.03611836165395774, 0.010948835663978081, -0.13479147941412706, -0.07596143366134889, -0.2051098323474709, 0.13491096865473368, 0.17393308163988236, -0.059445116465269475, 0.02525943913328345, -0.028619283489275685, 0.011694426269628739, -0.007155939466911589, -0.10300461447283103, -0.24241011771732593, 0.21814781156611826, 0.0851615780144814, 0.22678007325343424, -0.06234487388097286, -0.005998998228962739, -0.09455446831474887, 0.038504891971546946, 0.2657855777728741, 0.17465039596781987, 0.02128377595491173, 0.23463767749260298, 0.10416796347481372, 0.09505326760634795, 0.10797388965891597, -0.02060164718532706], [-0.0813737602357889, -0.14582402815561388, -0.11144182584589098, -0.11085190468451268, -0.07714481878856261, -0.11085190468451268, -0.04571378320066365, -0.11144182584589092, -0.11085190468451261, -0.07123737929584126, 0.045645983317580505, 0.04493039315112816, -0.045429420601094526, -0.03349950598241457, -0.02693591389912211, -0.0015232434441841075, -0.18387107349748577, 0.1729774833957923, 0.31200645470418176, -0.045899778099625706, 0.32704133385296463, 0.14201099866328842, -0.15487687953044707, -0.18885074579934757, -0.007847320809412623, -0.13698071165145467, 0.029754075979448343, -0.06650481461232091, 0.02287931165949464, 0.12092557313997723, -0.08171839416006073, 0.09292177813131253, -0.38312909663339634, 0.2959093981354732, 0.1943634146714968, -0.13543771801888538, -0.1444786970325848, -0.591595980711472, 0.10981268083720858, 0.08201372890213315, -0.1320376734261756, -0.05475982629148808, -0.12473509312099729, -0.2744377247567724, 0.15742078039729995], [0.013052765095205667, 0.08663896120521591, 0.05770503244920866, 0.08293899381466927, 0.011839547222552442, 0.08293899381466927, 0.03045710922547702, 0.057705032449208674, 0.08293899381466928, 0.017747060018010907, -0.0838256621626396, -0.03746444071563983, 0.05076468098878381, 0.04018703842906129, 0.03408257076236591, -0.0008495163212849785, 0.14775271184352837, -0.18392631905977008, -0.17721497529005428, 0.12186121176097477, -0.12193150150549358, -0.27692196731802204, -0.01905620210943509, 0.24829586226461706, -0.01741211832387081, 0.16559999514073032, -0.041448502249077056, 0.07366075407923245, 0.0801253028133362, 0.1214845445773488, -0.13642941740605763, -0.17808335614579401, 0.15634902337996248, -0.23356452425450003, -0.18836441644253418, 0.22999218633363427, 0.10597380506103776, 0.3258104029385978, -0.28446307680502886, -0.10329750485704496, -0.10260000406642739, -0.04940813718332539, 0.029681825514649315, 0.16646383509785617, -0.13681913321197306]], "biases": [-0.18698883693162915, 0.48044066315303435, -0.2934518262214049], "feat_mean": [0.0011091946126863576, 0.0033501174631253667, 0.005515679464033339, 0.0122471859041288, 0.0009517073243234512, 0.0122471859041288, 0.02019805254009475, 0.005515679464033343, 0.012247185904128804, -0.0004634060015483063, 0.01434779599671027, 0.015349698157690744, 0.016046619034814007, 0.014023083114026579, 0.014094321723218953, 0.023188003510167924, 0.11713559965138208, 0.5741659329503107, 0.019782156268410626, 4889302.747474752, 22369049.896811254, 1.0002399379741775, 0.025574730779206044, 58.389993233638414, 0.021167959678235888, 0.5351986419871588, -0.00017098705750191498, 0.2837118257708566, 0.28949100945714773, -0.043293219450846285, -2.674975539037445e-05, -0.00041865541568456775, -0.14114872666544506, 0.4829010731905181, -0.002934964068076994, 1.2248103088202333, 0.5306503983937157, 0.022383706643850542, -0.06844623348883738, 1.3108266513738793, 1.1838383838383837, 0.8484848484848484, 0.44366332534731173, 1.0186273038650608, 0.6247654503642279], "feat_var": [1.1568796890096704, 1.5042726396525439, 1.8244879436704653, 2.47516255604846, 1.1547945570540472, 2.47516255604846, 3.2792132551162783, 1.8244879436704655, 2.4751625560484607, 1.3131572480452642, 1.0525126148217046, 1.0426350763939212, 1.03305115676453, 1.013699792628126, 1.0107591891173267, 1.0349549778026443, 2.367381458680435, 51.32461971341217, 520.178701234433, 2.202656428350488e+17, 7.225295422387058e+16, 90.7574452090187, 58.89711546431831, 117575.82773900195, 1.0841572444572525, 39.114790708198065, 1.066165472163696, 20.524339725453093, 24.026137065644793, 79055.78501874085, 42.715119476378824, 1.0477520644037828, 293.25423913867024, 74.8453963876074, 354.66263527194576, 1647.5229113951546, 2.0309775347555807, 28.330938197735417, 40.74750082376757, 46.11986620004123, 1139.2707070707074, 836.6363636363639, 1000.0687890634986, 2242.8356358356327, 93.21123152569207], "count": 495}