{"symbol": "AAPL", "timeframe": "4h", "weights": [[0.013080663689354208, 0.007004917449404783, 0.024299554551855118, -0.0033234609953540868, 0.013113649555802636, -0.0033234609953540868, 0.03451621303327218, 0.02429955455185503, -0.003323460995354118, -0.010467269177853783, -0.005841416866911064, -0.004375808736926777, -0.0005394817367530737, -0.0002350358102431304, -0.0006995129772062734, -0.0029022160226543537, 0.04188313690681724, 0.14920559150632381, 0.09068357763082538, 0.12278699059750772, 0.022317839261171184, 0.06168649430224314, 0.15622732673109435, 0.06830678083902741, 0.0015209731549130825, -0.15132127799218056, 0.0072671776694192974, 0.16079274061881804, -0.10067843447368868, 0.16997167172707658, 0.11418393183312257, 0.003258714451689227, -0.05301446132724516, 0.2259568213029067, 0.13875013406958378, 0.034654033119750786, 0.0331513109253281, 0.0018117401996575596, -0.1076389863709413, 0.032687942953325215, 0.1475704902964004, -0.03123232150967845, 0.14463928828674547, 0.06194544892295193, 0.14533144617055574], [-0.014864073468502147, -0.011235286414757156, -0.02114620540496072, 0.019723613824484953, -0.014867400570604077, 0.019723613824484953, 0.03282780614993906, -0.021146205404960677, 0.01972361382448495, -0.0023400997440363768, 0.00399351094702803, 0.005425014130451302, 0.0015597178606688079, 0.0008041207923110418, 0.001058396407029994, 0.0038050550284683023, -0.03632206564047274, -0.030478861149197733, 0.010776572194999771, -0.06343669621189447, -0.030942228396518577, -0.008936121610351126, 0.04100094945813409, 0.038202777904312736, 0.0008051961200101704, 0.20798178950176033, -0.012000078199775353, -0.1725959467926417, 0.05125596790568691, -0.32035197588896114, -0.12900519998824217, -0.004284402502314204, 0.08484323811422634, -0.3670461513219166, 0.063483821636493, 0.16915815947542437, -0.07555118595535627, 0.05803717890179141, 0.10587794360509362, 0.1762736323177331, -0.10171860567160812, 0.02130307582766334, -0.013079038816820444, 0.12131902376046477, -0.1834008173401313], [0.0017834097791479336, 0.004230368965352362, -0.0031533491468943974, -0.01640015282913089, 0.0017537510148014415, -0.01640015282913089, -0.06734401918321122, -0.003153349146894362, -0.01640015282913085, 0.01280736892189016, 0.0018479059198830362, -0.0010492053935245245, -0.001020236123915733, -0.0005690849820679117, -0.0003588834298237218, -0.0009028390058139483, -0.005561071266344481, -0.11872673035712604, -0.10146014982582514, -0.05935029438561339, 0.008624389135347207, -0.05275037269189202, -0.19722827618922859, -0.10650955874334012, -0.002326169274923253, -0.05666051150957987, 0.00473290053035605, 0.011803206173823593, 0.04942246656800175, 0.15038030416188455, 0.01482126815511963, 0.0010256880506249748, -0.03182877678698108, 0.14108933001900997, -0.20223395570607675, -0.2038121925951752, 0.0423998750300281, -0.059848919101448954, 0.0017610427658476518, -0.2089615752710583, -0.04585188462479235, 0.009929245682015204, -0.131560249469925, -0.1832644726834168, 0.03806937116957565]], "biases": [0.02501863270826382, 0.13983804631968944, -0.16485667902795317], "feat_mean": [0.0013919755856600451, 0.004152993109633923, 0.006409635622025106, 0.012985755631260748, 0.0013371269045268932, 0.012985755631260748, 0.019513610240525205, 0.006409635622025105, 0.012985755631260754, 0.0008742051577393837, 0.009797271517858657, 0.010282974840302436, 0.010378962485340404, 0.009017412714967489, 0.009215460565244743, 0.014357686098391456, 0.06796829640262007, 0.6536207383415763, -0.03781458237400827, 2230200.970434782, 687527.598502679, 1.00615829050634, 0.07681787659728335, 52.30079609037338, 0.013202091874843525, 0.5458558290779191, 0.00027413132505250905, 0.2701123202142041, 0.28062134328526567, 2.0075632486534754, -0.002479119884330862, -7.596097716572691e-05, -0.03217340929448466, 0.6618629239791409, 0.22133204768261713, 1.2055120339303342, 0.4543855136720215, -0.17303005119257897, -0.15287139888018525, 1.0964003568995593, 1.2782608695652171, 0.6173913043478262, 0.6436327186123616, 1.1789011490012018, 0.8122189127734144], "feat_var": [1.0124646284870709, 1.0301601468630812, 1.0454619522509077, 1.0711177817266224, 1.0123746665515085, 1.0711177817266224, 1.250032217780821, 1.0454619522509077, 1.0711177817266224, 1.0186763168074215, 1.0023427375880294, 1.0009593309650273, 1.0004392916901248, 1.000057098683456, 1.0000985447607644, 1.000284270968469, 1.0526670527721274, 10.556008795653854, 113.60099589190894, 2402218620063819.0, 448221747551756.2, 26.027268154704856, 22.881876152900958, 48294.34452709264, 1.0053535666407136, 10.36432369859582, 1.0040657090759006, 5.375299852778584, 5.741502693409415, 11445.805705574292, 6.2100870929619765, 1.0032851399799558, 10.416443164526756, 15.45807730637728, 66.87252930141305, 415.5697121910979, 1.3652986649475094, 6.110613141474472, 8.476854351465786, 31.24728048319134, 310.09565217391304, 88.16521739130434, 246.41739746812718, 815.9037537407382, 27.85029145744904], "count": 115}