{"w1": [[0.4432160958674575, -0.369982755370652, 1.2252760701966312, 0.05741726091536301, 0.6493191899277377, -0.31604882936558265], [-0.37773684708554917, -0.543509871935751, -0.16123806424074305, -0.1323282562497165, 0.12876017956417748, -0.4116722764074326], [0.10205095144522952, -0.4776870284338388, 0.2620935385867424, -0.4498699017449272, 0.405833186608426, 0.30357873185540146], [-0.07778593619682676, 0.7450970900172257, -0.5879941742083447, 1.0105495661617265, 0.7092144376606974, -0.4998329799007344], [-0.10209010462770178, 0.5082576214801001, -0.9291088881201899, 1.2989903574374613, 0.22013799315826296, 0.7988301087944728], [0.8306105766092263, 0.584812341196963, -0.13268767305597853, 0.6030686171088324, -0.3224474978784028, -0.07696152307780026], [-0.7517033269959479, 0.024871687657535134, -0.08377314607063714, 0.1465945624787948, 0.6810909741628023, 0.47590192286524274], [0.3594069496603099, 0.15739206997068717, 0.06852630396741374, -1.2672005757887668, 0.009156808568406838, 1.059092846088512], [1.1123673287803006, 0.5348274586000364, -1.0122594519688195, -0.13118359324263962, -0.06419130386238729, -0.40464155137292607], [0.08446774417147829, 0.4146258854908393, 0.6641444995421976, 0.3557698703701893, -0.17480952264153377, 0.9729761282134803], [-0.23790820358324413, 0.5684762089117921, 0.5837179865390851, -0.06006964532946154, -1.2422228407998215, -0.2787180888133302], [0.6356171305591579, 0.6005828681765876, 0.6173243325899274, -0.370893577095911, 0.29876286036653693, 0.10688659781328068]], "b1": [[-0.026420646742924048], [0.0372358039785448], [0.006566816422830638], [0.08587549733401051], [0.025246858542518485], [0.03424721589527382], [-0.020148926691448122], [-0.07870647208501769], [-0.01417037646186257], [-0.056876131341837916], [-0.011381467489539455], [-0.008101799873289376]], "w2": [[0.5044840585544332, 0.5167786259881615, -0.5145183880236631, -0.46761092340304566, 0.32777523382821283, 0.950778053395231, -0.2902285116286107, -0.26849043976311265, 0.2626287923194191, 0.513437594677975, 0.03735730407984834, 0.2096903056771914], [-0.17668937235729945, 0.5685540938807404, 0.08014152432032695, 0.17520627142652517, 0.059242769184005006, 0.49081542397657985, -0.12011448070341761, -0.24860687179676555, 0.2940058166729405, 0.1561336758991563, -0.9483334103918989, 0.11916247169513743], [-0.11789856123697137, 0.01792819720092118, 0.5145361462221164, 0.4761578747645006, 0.1693404589623778, 0.04448768884577637, 0.08994351549377393, -0.12670612203607604, -0.1740424993835778, -0.4089122686213337, 0.527404020256493, -0.02712355605327167]], "b2": [[0.04317958150422822], [0.09591760790779583], [0.1155557343730451]], "epsilon": 0.92274469442792}