{"w1": [[-1.2035766098093612, -0.673133839859947, 0.23947579799489882, 0.30445544016466425, -0.2588676680164314, -1.1050089114774282], [-0.2908874214385092, -0.015014536894897205, -0.42319390231849957, -0.28519327206633016, 0.04548001223035593, -0.3149134037985645], [-0.5486698208427012, 0.05087103919021399, -0.7226419946371937, -0.4275338662336144, 0.8842166226932343, -0.7697519475104125], [-0.13959631142792472, -0.9216419624426857, 0.42405962282597265, 0.28574893672940577, -0.1993858959452764, 0.2340296630882218], [0.3242643298858976, -0.7288984491903708, -0.30022255599006537, -1.4672907720403465, 0.1417342631840025, 0.511209634088383], [-0.4732967732710492, -0.14917616058322195, -0.34257575227717646, 0.04309701382933812, -0.04940900776926533, 0.1377521330736332], [-0.5052845612497225, -0.05301208483141245, -0.296056935566186, 0.381237058255812, -0.11352104482113547, -0.004756911809588291], [-0.3977953591941921, -0.023664427302535616, -0.5433571886109204, 0.3267435165195325, -0.1634703221332469, 0.28752690018298593], [0.6191551152863211, 0.8529478173683686, -0.5645601299767979, 0.08300917715864342, -0.19206040982157976, 0.32043783484860877], [0.49104304939764104, -0.04608321917085296, 0.1340729625277976, -0.4669034920082505, 0.3033645847340817, 0.18079081315124887], [0.55299963569305, 1.1474851987845862, 1.1082156329267934, -0.9726621117158715, -0.8299461185945514, -0.3345908632991805], [0.32283513961715343, 0.004306303929002975, -0.18676395112713687, -0.987204762866738, 0.4121534878417756, 0.23029014333931733]], "b1": [[0.01815262121770799], [-0.06002778469152524], [-0.07044498920536424], [-0.0014408618796750373], [0.05389144444210425], [-0.014711672762883007], [0.08825429811400254], [-0.025905721714164397], [0.022623235558837596], [0.03794429936556171], [-0.14281033472659221], [-0.003002602155978521]], "w2": [[-0.06200291940663396, -0.3772408358222042, -0.4992672366896856, 0.4571539445666187, 0.00576734992362981, -0.29315213725021577, 0.5623979111276627, -0.4069123776907597, 0.016200651757387025, 0.45532592702887165, -0.3055579436819483, 0.140752810782555], [0.10290089769671801, -0.21318827642218938, 0.09716778624911096, 0.7193183733071928, 0.2975756549863691, 0.3694051556607253, -0.33264647929068625, 0.007238284177036258, 0.24091920556198582, -0.07566252352933951, -0.33735024733888036, 0.095621406087825], [0.35788308967606886, -0.29841174156654615, -0.07373984851762795, -0.37994421596060063, 0.5466326098769639, 0.6998400540556754, 0.06710317597454835, 0.6518457744035596, -0.1361516043532856, -0.3350885211152992, 0.6034621553741832, -0.4919991098550569]], "b2": [[0.2079912090836026], [0.08057808794248528], [0.10856272871810203]], "epsilon": 0.92274469442792}