{"w1": [[-0.6338546934990174, 0.3962693800280625, 0.7940781388293557, -0.14520390675457895, -1.3380667049109254, -0.38251553826229334], [-1.1557305376946916, 0.6017578793119212, -0.1676980623950818, 0.021278194395636142, -0.44511158107208443, 0.6205694406325696], [-0.2209877142171, -0.5072599548285135, 0.04361305021691203, -0.978575562502315, -0.34873327283300287, -1.5201827660454446], [-0.8557606673132024, 0.30596031577816923, 0.582713058388836, -0.6344511673952878, 0.7982070640770506, 1.4146646948720145], [0.693807544983198, -0.580320227994933, 1.223838271797797, 0.2592623983842728, 0.7166185845390372, -1.0979396637775451], [-0.6855610517228141, 0.5413983691699875, -0.3625128435008152, 0.3742655997094145, -0.1546670206993648, 0.6688699092865243], [-0.4121373435745966, 0.55226863099752, 0.24575767503718474, 0.2755142368819915, -0.5770882947745296, -0.03168750073060886], [-0.18325577788806172, 0.1063780135875697, -1.605051758371604, -0.4950901475526436, 1.5756655206737766, -0.7571013627496165], [0.6618832909370228, -0.005301308940813245, 1.1828474043090271, -0.31883136977896176, -0.4151214023016827, -0.2010771394150545], [0.8078825041361677, -0.06053119320916234, -0.3458157773302065, -0.08434667478141093, -0.8368280471467389, -0.26298172293668254], [0.25403647912624183, -0.4381925840979309, 0.9302681970905294, 0.24391071583955154, -0.4411513316007735, 0.7070506552879211], [-0.07037465894366904, -0.3964995979797788, 0.5249577723963211, 0.48219171108251635, 0.1962216892822018, -0.3288206405888615]], "b1": [[0.026670502271764072], [-0.16729743422132354], [-0.12980197158012421], [0.10571364125178784], [-0.008031156835308102], [-0.040192040678259246], [0.10980653192185422], [-0.03949606618416694], [-0.028463477673657703], [-0.0786106847755959], [-0.10733972996223817], [0.10389980739168268]], "w2": [[0.46750223935655355, -0.3417382564944988, -0.23880545334003886, 0.45428835934030715, 0.3083436555178873, -0.45409417446061057, 0.23395500281098267, -0.2711441313169119, -0.24358803494813122, -0.02755678823946727, -0.3576882519157564, 0.34773361660800345], [-0.38285019676747795, 0.29191425212256256, 0.17454068317309981, 0.4074086919050064, -0.3698969942061503, 0.2252008409945089, -0.12430846308984839, -0.0988957849217748, -0.40738384944274453, 0.4278691764261329, 0.8700515435074024, -0.6864009557476717], [-0.19714794037097494, -0.3517768522148289, -0.35532271617377265, -0.0751213868526505, -0.03300478119943533, 0.3932326945878254, 0.19554300974164596, 0.34688273781684614, 0.5581705355538369, -0.2652934702375765, -0.1930497546925597, 0.42878670649245487]], "b2": [[0.20813953996848053], [0.08030652568648967], [0.19090938995633422]], "epsilon": 0.92274469442792}