{"symbol": "AAPL", "timeframe": "15m", "weights": [[-0.002854532178117302, -0.008036795211749492, -0.001729716721652943, -0.03554656434938222, -0.0027617264966462544, -0.03554656434938222, -0.03474247756131968, -0.001729716721652896, -0.03554656434938215, -0.0019386845366483243, -0.011977539992744701, -0.015736539214503555, -0.021517324391333418, -0.008111008371098025, -0.008757340788707161, -0.01679422588630345, -0.16063332145915057, 0.20860377993369136, -0.13039523440523448, -0.17495162928854535, 0.9121193556602347, 0.0039028305618471516, 0.012346983528578567, 0.2817682214406756, -0.005261860845503012, -0.016100272062541044, -0.0052198762769969575, 0.022554946514920054, -0.08528049578897524, -0.008738446569156, -0.03402371913476136, 0.014188260933239863, -0.23810456717356243, -0.22572282114407785, 0.07315409740369351, -0.07699573316710888, 0.025945605953493833, 0.07479695678682742, 0.2963097947056769, 0.6281886215693085, 0.0511786153711064, 0.041164774514952644, -0.030403656996425603, -0.027003512380103213, -0.2214535734663273], [0.0018544646939699337, 0.003536735929481955, -0.00010044246661402739, 0.01603776950464628, 0.0018130898521231105, 0.01603776950464628, 0.01717362372006415, -0.00010044246661407421, 0.016037769504646273, 0.0010271407784104775, 0.005610253492692837, 0.007693827974291253, 0.01070928034245175, 0.004057265149906452, 0.00441204399367857, 0.008426680605844504, 0.08377907262460543, -0.12754354873853965, 0.14694506763899723, 0.08701221192962588, -0.46253664477816775, 0.02015398748122336, 0.004257798491068468, -0.16232344447628072, 0.0014368785887992482, 0.034740327927403766, 0.0029221180507135193, -0.02461026109420123, 0.0777809675584344, 0.04685293118605906, 0.02129423711884487, -0.007728322579021856, 0.12771962532836684, 0.09378888603300495, -0.0012451749894316683, -0.01164550098647075, -0.006657032978828077, -0.07781440972306432, -0.16877082333194088, -0.30224670549960697, -0.012893294455483892, 0.008881713543297361, 0.0023545154412687626, 0.0096853185984689, 0.10767712511430315], [0.0010000674841473686, 0.004500059282267531, 0.0018301591882669834, 0.019508794844735926, 0.0009486366445231449, 0.019508794844735926, 0.017568853841255602, 0.0018301591882669808, 0.01950879484473584, 0.0009115437582378502, 0.006367286500051871, 0.008042711240212322, 0.010808044048881638, 0.004053743221191573, 0.004345296795028585, 0.008367545280458914, 0.07685424883454522, -0.08106023119515122, -0.0165498332337627, 0.08793941735892005, -0.4495827108820674, -0.024056818043070496, -0.016604782019647116, -0.11944477696439446, 0.0038249822567037743, -0.018640055864862694, 0.002297758226283431, 0.0020553145792811143, 0.007499528230540817, -0.03811448461690301, 0.012729482015916461, -0.006459938354218021, 0.11038494184519501, 0.13193393511107274, -0.07190892241426172, 0.0886412341535795, -0.01928857297466578, 0.0030174529362369537, -0.1275389713737361, -0.32594191606970296, -0.038285320915622485, -0.05004648805825002, 0.028049141555156934, 0.017318193781634295, 0.11377644835202426]], "biases": [1.2030710459271594, -0.5520036080082231, -0.6510674379189378], "feat_mean": [0.0002592828395980859, 0.0008054056830195675, 0.0012087798398362714, 0.002935125132460741, 0.00025453468246103636, 0.002935125132460741, 0.0055430357906558125, 0.0012087798398362696, 0.0029351251324607436, 2.334039858706782e-07, 0.0022158827861599372, 0.0024440363683891466, 0.0027163984038210743, 0.0023922906378969202, 0.0024129025150556285, 0.003526370030128188, 0.018859710782076048, 0.6170719123029561, 0.02152359734368611, 168854.85008876637, 630944.2065928319, 1.0181148249606653, 0.14490225379771612, 53.4404042096978, 0.0033365674397437565, 0.5365609596328025, 7.105464864451248e-05, 0.25618228188831965, 0.2981440734438885, -0.27911647515388305, 0.0004727708136524723, -0.00029108881973323924, -0.08762223193690612, 0.5069389445158451, 0.4318287671166789, 2.831963079054142, 0.5112669222599469, -0.013115119301391682, -0.07209474959193463, 1.2256784531706317, 1.1131313131313139, 0.8505050505050505, 0.652726829370469, 1.8125926711072704, 0.7004869677828159], "feat_var": [1.0047134781688243, 1.013857150964314, 1.0216407993555996, 1.0411700915757685, 1.00464600439334, 1.0411700915757685, 1.0688402312844651, 1.0216407993555996, 1.0411700915757685, 1.0074534244102162, 1.0024491568501044, 1.0022032087273571, 1.0022895661812496, 1.0003451811124977, 1.0003844579789276, 1.0010840769770772, 1.093354554204703, 46.55883833409371, 563.6281133442096, 289747704482246.1, 10373149121025.217, 407.73878480094567, 85.58781859120728, 173862.36421045414, 1.0027571895037144, 50.0853850386619, 1.001653523922377, 21.922870852317928, 25.218715440704173, 79492.21743267844, 3.1578596004951343, 1.002180988014845, 148.8027032464217, 69.89871818788345, 828.1216494019687, 6698.971942588592, 2.590672286470961, 27.02663892456844, 34.38549710589655, 55.57006996772128, 976.664646464646, 693.937373737374, 829.6928580811378, 1704.44565574807, 100.53640212389568], "count": 495}