{"w1": [[-0.23694408866570996, 0.3795250283855601, -0.2880225509385865, -0.2023542660660695, -0.6131835961671785, -0.5631100320727584], [0.40001520487477993, -0.02820764067516927, 0.07034725391058215, 0.11088523842306211, 0.05652364022862039, -0.22967470123309994], [0.7874485495196112, 1.136195012043708, -0.4218040740677206, 0.7326779666153793, 0.44858261663039906, -0.7278428650089714], [0.32952367577617714, 0.08181179597873942, -0.3864780970637718, 0.023131491369896846, 0.45356416300229957, -0.4198808871537948], [0.46189235450553223, 0.11312395912122257, 0.26866628333083376, -0.1623395353338427, 1.1298620906269756, -0.25893668911100476], [-0.3537434999798224, -0.1827837655062872, 0.022906833505832815, -0.3794996709854723, -0.06706529611055215, -0.1815999562837316], [-1.0554895148999668, 0.018062250213980103, -0.8618208496558696, 0.24940591419196592, -0.0012292833969931335, 0.0021060452441193345], [-0.12828610967404877, 0.10993779402226155, 0.023451381604234482, -0.806303630322425, -1.1669637114498952, -0.14029226271531695], [-0.6456976405178638, 0.1945763581098602, -0.23723729123698895, -1.2289184113062042, -0.6867850785869861, 0.7122178169779853], [0.0748363472448496, 0.2667269327735938, -0.1030552415208613, 0.6760313476768015, 0.46896205717248757, 0.5358186797159145], [0.13395906772043636, 1.4426505206878955, -0.061084892886818266, -0.3534922247072114, -0.12044629538794371, -0.35129469083124415], [1.5418643727413242, -0.5618518154700718, -0.3220330010148729, 0.6203000889969577, 0.5813828733625106, 0.855015723048293]], "b1": [[-0.041515427762175816], [0.06633193375577666], [0.07832801141779663], [0.0040101327651262215], [0.08676344957200176], [-0.029966106954148544], [0.03800064918928424], [0.024697463453129655], [-0.056309288004529764], [0.060825192163813664], [-0.07777440993963784], [-0.07394169532803738]], "w2": [[-0.017052592761794716, 0.3614618591112288, 0.7828788323719822, -0.025786354180700338, 0.3139005394884206, -0.3207457097224256, 0.09006090388050683, 0.18073376130694377, -0.18445785974323153, 0.2652440656677987, -0.39188276043579917, -0.17284029058713893], [0.14898228389298523, 0.5095021515694053, -0.13246939680134692, -0.43394326008408274, 0.8667096289366126, -0.23776130801888143, 0.7843250125877068, -0.03998756237189394, -0.3234518272189739, -0.12552879439806572, 0.6029699539235848, -0.4859039261112178], [-0.27946885454294246, 1.0944136406664653, 0.3540310516682324, 0.22191089283866575, 0.8748228742928801, 0.043673107883790696, 0.2721422496067016, 0.2730247037215934, -0.43643544441821536, 0.4530889377788575, -0.4264852314214822, 0.015645228337972675]], "b2": [[0.10695369792809108], [0.05581913663094993], [0.08169108185567693]], "epsilon": 0.92274469442792}