{"w1": [[-0.26669016993955547, -0.0038600489072304887, -0.8056326451184395, 1.0634478025757759, 0.1799299881162978, -1.1610458415987397], [-1.1520703290258332, -0.8220681378454237, -0.35610868527275436, -0.23226936178580598, 0.03893248557916471, 0.7887587646816907], [-0.34955623929190505, -0.7943333304587017, 0.28951311043241784, 1.0964206262347334, -0.15937400550511077, 0.3845349922900907], [-0.575220231396449, 0.4380743400650204, 0.5323002498452803, -0.1859158741862561, -0.04042284201748671, -0.3721304069497728], [0.012467771358070898, -0.34097594823150207, 0.2378291373598556, -0.032697705892232976, -0.38359237615664304, -0.013942457403913623], [0.9141662150290858, 0.1729602450742756, -0.27842253180297294, -0.8700015612890992, -0.03101434058600318, -0.10787219469502471], [0.057534005674255956, -0.7158786077342025, 1.353086047504865, -0.7869746677761555, -0.19259461133934888, -0.17749947501740143], [0.04347258988652479, 0.7852828325925284, 0.3323030227499394, 1.2507644252917536, 0.8178352485647997, -0.47418709964145667], [-0.5377862863794938, 0.8691354475167961, -0.8375202273599869, 0.1887290212027825, 0.37238515938307315, 0.8538204642417435], [-0.9971207077694464, -0.0881998431918301, 0.1498028493755645, 0.7737018128714126, 0.2242225136704447, 0.3461575613943557], [0.051905869010194984, 0.8220281127100255, 0.3409252735509398, -0.39122325934175206, 0.1751991577844698, -0.05975945749263034], [0.3065409539566548, 1.2939682499420808, -0.32629647037737786, 0.6077530724879283, 0.2851340662534565, -0.0709428335484211]], "b1": [[0.11518037635233419], [0.04826349940605842], [-0.08404511935569906], [0.07937003044523071], [-0.07602696513456673], [0.03485479804587769], [0.13197595399074502], [0.1141827222691702], [-0.07525797658917587], [-0.058582725901191166], [0.09932212553451888], [-0.11402097052688137]], "w2": [[0.35339782702183953, 0.1116627472615422, 0.48464899877156814, 0.2778649509264561, -0.5521338624112981, 0.11455197219926552, 0.07625042815245035, 0.6872284704813932, -0.12173493662970472, -0.5934982818911672, 0.340511839959521, -0.6641707702536884], [0.7506873748148738, 0.2652905883280737, -1.2580774597613154, -0.17116385591652755, -0.17127747090150974, -0.03223048460348266, 0.35419618807342385, 0.1050750533372032, 0.9528379828368901, 0.04607991361398421, 0.152511863479208, -0.3523497773166239], [0.6562536313279965, -0.3727335362882218, 0.346026297376204, 0.22727808601178423, 0.16682476440821983, -0.21496443407827928, 0.32320653321293635, 0.5713005515592459, 0.30778931153360145, -0.11193782872534366, -0.3043422955887902, -0.07359577470059354]], "b2": [[0.11716505544339186], [0.1177758501361144], [0.07293640939114725]], "epsilon": 0.92274469442792}