{"w1": [[0.8907680802074429, -0.30555748762180895, 0.30986736287941175, 0.009817019280550128, 0.9967537716817529, -0.054218134392406934], [0.2635926308283057, -1.3218381386054017, 0.21116856644218476, 1.0730741770142243, -0.5707195329750799, -0.06418295719186257], [0.0882707244001174, 0.37676319070045916, 0.5024660164450453, 0.41769873127119295, 0.02998492558843706, 0.4688802048566091], [-0.20232922282175073, -0.09871596358728137, -0.502745166338832, 0.8060502036006615, -0.5451750920501791, 0.17612509135564258], [0.2246847928785701, -0.29401012120757, 0.5594343083855409, 0.17161006049643604, 0.00366467147774818, 0.017025828145042877], [0.1191329225544116, 0.0070805684719182325, 0.26148284005246236, 0.03472598910035901, -0.25655849529198993, 0.077699003253367], [-0.12544526394644864, 0.09876997310475397, -0.22958083224144987, 0.7131655775189163, 0.08196829732175313, 0.14820124085806916], [-0.44187828775821475, -0.3079529426923296, -1.0508833353307987, 0.8372348045272313, 0.06325064646850731, 0.38223508379553445], [0.1643313944077024, -0.1866301030470777, 0.18914507982556522, 0.448472654283968, -0.19061110360710867, -0.2972217478798314], [0.5445214938826799, 0.2242259299762496, -0.06730387646539687, -0.41580458679435406, 0.7193784774276191, -0.49987684454612663], [-0.6296772681025544, -0.8479592962364176, 0.14650485731165194, -0.8655657919189303, -0.8901327817650432, 0.8007607610197646], [-0.23433860957699837, -0.07745624190055711, -0.25624672506435003, -0.23615005322504373, 0.49649875261222537, -1.030965279504708]], "b1": [[-0.08587664335484209], [0.09008826580323144], [-0.03182076789381624], [-0.10996747724384687], [-0.031338973661227634], [-0.07410189841315012], [0.04780301047677534], [0.10475521393924249], [-0.11626337668726863], [-0.16752318604621969], [0.0216679364944086], [-0.04980486622903787]], "w2": [[-0.16740420826778513, 0.3034527135297002, -0.2525357087552348, -0.49993176759781016, 0.37479210400583435, 0.17382941053715145, 0.5652708651970458, 0.017163041753402664, 0.3884437656263096, -1.018310911289676, 0.4969396030394302, -0.14320848306110995], [0.050234088773268445, 0.674398210765404, 0.5524872056980947, -0.49165637329851125, 0.015074899370148524, 0.05557209229728332, -0.08764351283889467, 0.9229083682852314, -0.5325327647954766, -0.2128494165754175, -0.24597127309984154, -0.02764023425740552], [-0.20862755564978044, 0.37099959416437606, 0.10823452452890617, -0.261249583536599, 0.005176618470464335, -0.18972802586078855, -0.2402268024370115, 0.3945464359998875, -0.43666037226872106, 0.897667310351412, 0.12755972430435353, -0.5862313801422224]], "b2": [[0.11185304559343781], [0.0932113068969146], [0.0993868990136765]], "epsilon": 0.92274469442792}