{"symbol": "AMZN", "timeframe": "1d", "weights": [[0.03501952071274958, 0.003013149921132714, -0.04186654655600437, -0.0419535408457886, 0.031399370138089834, -0.0419535408457886, 0.014214334753809591, -0.0418665465560046, -0.041953540845788576, 0.017716151894139248, 0.04571891968120464, 0.03810266140887211, 0.022263732500135476, 0.026697747243946697, 0.025686578015639394, 0.039386294131161924, 0.0409054469862727, 0.01639523660425598, -0.17885434087695792, 0.10022081228924103, -0.21129459951284152, -0.00889475301171487, 0.02300044408391505, 0.1357108354758427, 0.019094894292094863, -0.24179288924633283, 0.050502159511545415, -0.18476032431133022, -0.11144160987975593, -0.2710996127693792, 0.14815718620172955, -0.03346265447515914, -0.14183365177704904, -0.24598644311810058, 0.29443834351973486, 0.04679001256375125, 0.09412468533485759, -0.08646274949103992, -0.17280797654886118, -0.07265629380874455, 0.17325716308664305, -0.018177062439461877, -0.15113427483235592, -0.1527019242774794, -0.0943297443695156], [0.035698526922444705, 0.028248851534697222, 0.11857381006138089, 0.10542726525509472, 0.03879121870990202, 0.10542726525509472, -0.05165219858602604, 0.1185738100613811, 0.10542726525509494, 0.09919166504517664, -0.07567151921627274, -0.03084026487302058, -0.016361794145491736, -0.03207335342431805, -0.03135295027200531, -0.03977057048903702, 0.07716675603158551, 0.2831751728192509, 0.009589698382729285, -0.0649298297215093, -0.08660056262539463, -0.15855847794397884, 0.029156698292090544, -0.2006796063587644, -0.03907608450093657, 0.11634307035684718, 0.053279214241528275, 0.07080621690217552, 0.29937271085072603, 0.13587732396289603, -0.0665397913287446, 0.1526466627588449, 0.29025624305570463, 0.5390925082406373, -0.1013886840352613, 0.17848429544468902, 0.1809062606039612, 0.2916382374599267, 0.5344572445387402, -0.02637949645247678, -0.10253874959395766, 0.15125838984154352, 0.264005355562453, 0.2124121577294063, -0.1962147465877317], [-0.07071804763519432, -0.031262001455829684, -0.076707263505377, -0.06347372440930615, -0.0701905888479919, -0.06347372440930615, 0.037437863832216284, -0.07670726350537675, -0.06347372440930639, -0.11690781693931589, 0.029952599535068104, -0.007262396535851571, -0.005901938354643731, 0.005375606180371363, 0.005666372256365924, 0.00038427635787512804, -0.11807220301785826, -0.2995704094235069, 0.1692646424942285, -0.03529098256773155, 0.2978951621382365, 0.16745323095569384, -0.05215714237600574, 0.06496877088292201, 0.019981190208841686, 0.12544981888948586, -0.10378137375307381, 0.1139541074091548, -0.1879311009709701, 0.13522228880648335, -0.08161739487298474, -0.11918400828368568, -0.14842259127865592, -0.29310606512253645, -0.1930496594844734, -0.22527430800844034, -0.2750309459388191, -0.20517548796888704, -0.361649267989879, 0.09903579026122128, -0.07071841349268523, -0.13308132740208212, -0.11287108073009691, -0.05971023345192676, 0.290544490957247]], "biases": [0.020800462400947416, 0.2489391998274244, -0.26973966222837154], "feat_mean": [0.000964006889308663, 0.0029961905365731996, 0.00528807282757431, 0.010242423730052599, 0.0007563728621895175, 0.010242423730052599, 0.02175282944797901, 0.005288072827574312, 0.010242423730052588, 0.00022631546105697362, 0.017816897636552934, 0.018764137823629626, 0.01939604714683449, 0.015323941387891196, 0.015430571244986853, 0.026823406644473358, 0.1370544314970581, 0.5843113412329818, 0.025069081591300158, 2926342.8344046525, 1404397.222506473, 1.010197630330429, -0.01653821948827588, 52.515539183264394, 0.02361074963700368, 0.5287828459925159, 0.0008072301967333267, 0.24397265535431664, 0.2992008213786689, -0.12168585260551909, 0.0014330911870474574, 5.329217238254129e-05, -0.09121461006113211, 0.5063854085464367, -0.06266744991657275, 1.2302244477598534, 0.5104796171336586, -0.04402702720916623, 0.004072194461417045, 1.3163437710138621, 1.0747474747474757, 0.8646464646464647, 0.35652451593808887, 0.7814677891692902, 0.628389278425376], "feat_var": [1.205648023059316, 1.6190921519780168, 2.0205347812784797, 3.0171715387837432, 1.2051070627163007, 3.0171715387837432, 4.838527920607455, 2.020534781278479, 3.0171715387837423, 1.4175459956498124, 1.0490308141757847, 1.0321533655672557, 1.0206907438422834, 1.0111555732528579, 1.010129881468281, 1.0407346456411364, 3.051128183696798, 56.18626988719554, 537.0616310669225, 1.5957043612094826e+17, 2.5592250551416996e+16, 84.59835044851431, 75.08112012965795, 109154.36182297034, 1.0775426929627174, 42.5953817664846, 1.1274669673779634, 19.4748081321094, 20.816870155812687, 64827.567508865264, 49.66306321750163, 1.0779895156641888, 120.03360471691423, 69.34744519219456, 417.54398060647986, 2723.9401303957297, 2.3355649942284358, 25.34060761096075, 35.92342220212405, 49.5762396686888, 923.2343434343438, 848.9313131313128, 981.3406553870541, 2123.1309441440576, 81.105735037261], "count": 495}