{"w1": [[0.2690363942342885, 0.3660352133956248, 0.43084281538977803, -0.04092115083483428, -0.834533270252416, -0.38501368568269717], [-1.426697332377749, -0.6570121254022439, -0.48397871285636485, -0.7458311688138499, -0.8975369714529357, 0.11626393398095462], [-0.20459195946286768, -0.7867044219596413, 0.5493434901627481, 0.14088537937497592, 0.11900293059641873, 0.14993220664857507], [-0.6562561226268161, 0.02914216642950433, 0.3386836554636519, -0.12124274894732173, 0.3107607203704286, 0.3557250424272846], [-0.12989560952381327, 0.6740781450635841, -1.0003582090303158, -0.04440284476703635, -0.30686630703486095, 0.14389948866339605], [-0.537865142073045, 0.688072679769501, -0.1930915845661149, -1.1317230376375915, -0.47590488497909184, -0.0949884114346284], [0.42017450973053316, -0.3340838144438116, 0.42338375393712985, -0.10854830923906687, -0.02715154391002786, 0.23278331977603225], [-0.7326667928629769, -0.2587217324225624, -0.013203194505227705, 0.501126870031059, -0.7479242092826316, 0.37872109871484716], [0.14263781736320333, 0.6514932599008697, 1.0152398091756085, -0.13855494925927525, -1.0168604788887978, -0.5868256879469579], [-0.4524065210680589, -0.18668292656069388, 0.4388650005648966, 0.4409707919267176, 0.47127956028033935, -0.5129016665461593], [-0.19104661325309083, -0.7876986969952824, 0.13870026030805466, -0.24120011865234112, -0.22588556837472584, -0.05541554877280948], [0.18849742301548078, 0.6033999723889527, 0.19756008541471218, 0.40884559966684286, 0.013053210496707632, 1.0936859468839062]], "b1": [[-0.031502105537488195], [0.02161223541807066], [-0.051598899904486226], [0.001841528788995383], [-0.011556436163911651], [-0.03275243857292427], [-0.04946094009220052], [-0.0011609969266720465], [-0.0288483922362486], [-0.0020816401628592136], [0.02929691591350378], [-0.02867015196912308]], "w2": [[-0.16035884396938332, -0.10051885163533193, 0.028898584552801438, 0.2858223832927342, 0.023514437761363794, -0.4157273823084323, -0.34623415559053017, -0.045771551916061755, -0.11568165271169205, 0.21801859311921024, 0.5440065221586151, -0.48352820106729877], [-0.6430651732548404, 0.30002668862359916, -1.28453123869528, -0.19693519216114622, -0.5109397292502407, -0.2389137519521386, -0.2049163281553783, 0.32686200501764506, -0.9058069819664715, 0.28575265652922666, 0.054345864309393636, -0.027201025097044505], [0.28666082519107877, 0.027018683281906736, -0.31598303005793266, 0.4372606785649091, 0.08985386395898119, 0.7491232841724419, -0.39370869323396257, -0.5349088148028919, -0.3083344619535776, -0.33053905828946595, 0.20833682876621584, -0.1491332843310949]], "b2": [[0.01873747626000986], [0.04050448906110014], [0.028883557960795215]], "epsilon": 0.92274469442792}