{"symbol": "AMZN", "timeframe": "1h", "weights": [[0.02215931756005148, 0.07198496444689911, 0.08521510955905028, 0.06720549830074411, 0.021677613295992465, 0.06720549830074411, 0.18336374650299928, 0.08521510955905034, 0.06720549830074408, 0.028087677018808863, 0.01821356216644226, 0.015517462444788677, 0.012162003751247619, -0.0033842936154192863, -0.0017710363824187754, -0.0006263522409866822, 0.1470723355765164, 0.1774319265209744, 0.36475687349268693, 0.31356377078994563, 0.48818671353844584, 0.24393805284346634, 0.2235186613143934, -0.023184401901293637, 0.0043996239982062, 0.029113846680286066, -0.0032852248326241083, 0.1271568340615621, 0.02415364226062871, -0.04367905478358719, 0.008230358607170814, 0.057623056986623754, -0.0289817362851015, -0.16570341332878527, -0.08544875591363806, 0.10401546414237507, 0.08551443184707279, 0.2983300642602877, -0.10317845154123123, 0.04793192377973374, 0.09700476977725761, 0.2001296115781835, 0.11820645514615011, -0.009955194470902816, -0.08229012372683286], [-0.019765445100171256, -0.04267340691653185, -0.04621025105621886, -0.08740555201031663, -0.019536272737056912, -0.08740555201031663, -0.10025629977498837, -0.046210251056218836, -0.08740555201031674, -0.032404121213070645, 0.005366204665325382, 0.007509536457375399, 0.0036413374817110865, 0.007392919986742177, 0.004183629258740664, 0.009093800438544923, -0.0024135115942237706, -0.16056756382693627, -0.19082339667698134, -0.37686356334414567, -0.21985759959373027, -0.07326684885304398, -0.133233741942031, -0.11786634302428824, 0.013912190583797019, 0.04534897478561659, 0.005015230599851302, -0.0888310567772088, 0.1054964147688068, -0.00028739649455439015, -0.08898653993168587, -0.03002309598460023, -0.06345447283343758, -0.002213487083673294, 0.004013580031037528, 0.050808510732608114, -0.03139994797001301, -0.10682468395637025, 0.17941335706975275, -0.07810654187389887, -0.001244526742840406, -0.21436921094297764, -0.1611667257033278, -0.15883542299468903, 0.1677332218924125], [-0.0023938724598802233, -0.029311557530367318, -0.03900485850283142, 0.02020005370957259, -0.002141340558935527, 0.02020005370957259, -0.08310744672801111, -0.03900485850283148, 0.020200053709572625, 0.004316444194261787, -0.023579766831767646, -0.023026998902164097, -0.01580334123295869, -0.004008626371322884, -0.0024125928763218847, -0.008467448197558246, -0.14465882398229266, -0.01686436269403815, -0.17393347681570684, 0.0632997925542004, -0.2683291139447148, -0.17067120399042224, -0.09028491937236273, 0.14105074492558184, -0.01831181458200322, -0.07446282146590266, -0.001730005767227188, -0.03832577728435332, -0.12965005702943558, 0.04396645127814147, 0.08075618132451526, -0.02759996100202354, 0.09243620911853898, 0.1679169004124583, 0.08143517588260075, -0.15482397487498314, -0.05411448387705961, -0.19150538030391792, -0.07623490552852184, 0.030174618094165263, -0.09576024303441717, 0.01423959936479405, 0.04296027055717777, 0.16879061746559204, -0.08544309816557968]], "biases": [0.3966574250567264, -0.04778122524073046, -0.34887619981599655], "feat_mean": [0.0006208950641840585, 0.0019202975623917715, 0.00326208988726786, 0.006967577910335359, 0.0005956505871697041, 0.006967577910335359, 0.012717134756472704, 0.0032620898872678587, 0.00696757791033536, 0.0001297631594528095, 0.006097694283633768, 0.0065776447355941885, 0.006846595858929545, 0.005826129407193866, 0.005935233902710245, 0.0087810829215899, 0.049497675862788096, 0.5749456053696628, -0.018672037287463885, 240506.42649525535, 1756251.0561591634, 1.0076979452474375, 0.10833240143499556, 53.97091524638511, 0.008266546670650183, 0.5183831656597482, 0.00011689023975304892, 0.2946665378270905, 0.2872189158080427, -0.203462660598134, 0.00015775553151099492, -7.492761347765862e-05, -0.20235599794339154, 0.5198478690339321, 0.3876276696045435, 4.0089954269360275, 0.5075379493134641, -0.0265742802704454, -0.02181855071508407, 1.1079940609867416, 1.072727272727272, 0.933333333333333, 0.5969209513775207, 1.5596651568296411, 0.7418059265120504], "feat_var": [1.0249143229404312, 1.0753142560763655, 1.1283798508153917, 1.2574993058624717, 1.0247618448634241, 1.2574993058624717, 1.4698037515826352, 1.1283798508153917, 1.2574993058624724, 1.052547128105576, 1.006336342889655, 1.0035334111717082, 1.0018845514746415, 1.0008354155332282, 1.0005753275149356, 1.0012852654768765, 1.2703097551848823, 46.97159752168066, 468.3128325425668, 2183084383766466.5, 1026655273919857.5, 174.13696067157224, 91.07012560754238, 114319.20140942663, 1.0147511570653678, 45.64767597145973, 1.010764007881232, 24.019169305814337, 24.335091836107203, 84691.32604258202, 8.21466253345725, 1.0092529666096612, 772.3212157850479, 76.48694826553752, 1025.5900410816234, 4552.339609978512, 1.7884486079519444, 14.479669036254057, 29.738507712633353, 48.66330081225386, 970.3818181818193, 869.8000000000001, 1246.9734532548503, 3484.3039123029293, 188.18368299558156], "count": 495}