{"symbol": "AMZN", "timeframe": "15m", "weights": [[-0.0079581395305181, -0.020501306546585066, -0.009658525914036884, -0.024297974015054295, -0.00798344090194345, -0.024297974015054295, 0.02545464413864844, -0.00965852591403688, -0.02429797401505422, -0.00337320936880649, -0.00017586245551167264, -0.001677827058815689, -0.008491277784875352, -0.0030912098382777425, -0.0014231273479995586, -0.004522774636704868, 0.019558434276499587, 0.18539562149586536, -0.13185845759025625, 0.03948584734112929, -0.3515979009795602, 0.07270584649392409, -0.09002717330903862, 0.24948817727909434, 0.006777675245282356, -0.0968446678574365, -0.005575861281135063, 0.08839234658767048, 0.03107786831853252, -0.09315198073788675, -0.07508552598670679, 0.024396426727231746, -0.07428677144417048, -0.3937539805587998, -0.34736291015784404, 0.223509447277919, 0.5007262964313183, 0.1966478452114609, -0.23348775149546439, 0.6075359128161125, 0.09594527758319146, -0.03656180950356137, -0.042342902038083226, -0.13129564031182586, -0.10208539749935581], [0.0011349609049296065, 0.0025851969608006358, -0.0007303626358447016, 0.014445943410818032, 0.0011329135102647304, 0.014445943410818032, -0.010417235595068157, -0.000730362635844748, 0.014445943410818065, -0.000822413707232384, 0.0011813897064882819, 0.002045867434801757, 0.006133337174351907, 0.002475366858704162, 0.001521841186512264, 0.00313719622797457, -0.007519664732100291, -0.06094102234187312, 0.04494544414268039, 0.011978633699416843, 0.16042630584359782, -0.0637627508542977, 0.010792195629201314, -0.054058463366277044, -0.0035311264279474, 0.002791396075306947, 0.0013257456495040336, 0.007499906980917088, -0.06462820444832239, 0.08207666747442989, 0.011053115435692118, -0.012549141563338941, -0.0007030319987970371, 0.2394908613268199, 0.10632394455286955, -0.02827905949736369, -0.3049266144137554, -0.028969660078284328, 0.18683495646501788, -0.35577486138020714, -0.012144822455607092, 0.02924299659780898, 0.021170805320139645, 0.08328491582139359, 0.11538348664707244], [0.0068231786255885, 0.01791610958578441, 0.010388888549881571, 0.009852030604236221, 0.006850527391678727, 0.009852030604236221, -0.015037408543580303, 0.01038888854988164, 0.00985203060423613, 0.004195623076038872, -0.0010055272509766143, -0.0003680403759860695, 0.0023579406105234436, 0.0006158429795735742, -9.871383851271052e-05, 0.0013855784087302982, -0.012038769544399246, -0.12445459915399175, 0.08691301344757578, -0.05146448104054599, 0.1911715951359628, -0.008943095639626416, 0.07923497767983731, -0.1954297139128171, -0.0032465488173349577, 0.09405327178212963, 0.004250115631631027, -0.09589225356858745, 0.03355033612978985, 0.011075313263457167, 0.0640324105510147, -0.011847285163892787, 0.07498980344296734, 0.1542631192319797, 0.2410389656049743, -0.19523038778055532, -0.19579968201756207, -0.16767818513317648, 0.046652795030447086, -0.25176105143590594, -0.08380045512758433, 0.007318812905752364, 0.021172096717943532, 0.048010724490432144, -0.013298089147716612]], "biases": [1.3707515358762823, -0.6680984530525306, -0.7026530828237524], "feat_mean": [7.291940035259312e-05, 0.00025376628776414595, 0.00036530583842292165, 0.0009292458858004476, 6.755188160258159e-05, 0.0009292458858004476, 0.001210429085382703, 0.00036530583842291986, 0.0009292458858004477, -8.848236351275315e-05, 0.0026381877745495453, 0.0028517365896361625, 0.0030843397737040073, 0.00281639928954972, 0.00281989217143763, 0.004169380646099629, 0.021622957101183175, 0.5098594117623558, -0.006441183321965221, -24696.321971227353, 58391.261886052285, 1.0195199422853254, 0.003928981767433436, 50.68419281136461, 0.0039890539227728245, 0.5155796600532006, -6.2446910405406e-05, 0.2604992863938472, 0.2795853803629083, -0.2079335322129876, 0.0003913197920032997, -0.00015667864394645087, -0.1482366551316072, 0.49760451622928276, -0.20116945626486174, 3.4174128635119705, 0.5195077809325785, -0.025437527721362523, 0.01671003561761494, 1.1952601173042552, 1.0828282828282823, 0.9919191919191909, 0.07963722300031477, 0.20600414873201162, 0.6757458639991053], "feat_var": [1.005310591315352, 1.0157043405834567, 1.025472120912617, 1.0561798562427611, 1.0053120344159725, 1.0561798562427611, 1.103891824469287, 1.025472120912617, 1.0561798562427618, 1.0099912595548088, 1.0019498836260528, 1.0013645819338446, 1.0008811579405161, 1.0002597485452427, 1.0002041337268794, 1.0008158272334622, 1.071477361237797, 55.05805635101251, 617.679902891375, 400906441186512.25, 6768789159464.25, 471.4296557596987, 96.63014059649035, 200019.55750771446, 1.0032786907751556, 48.56266063109186, 1.0010056172904656, 22.583780387834793, 24.236610077182878, 82210.91517859393, 3.1118365496707185, 1.0028848876307688, 278.012521896658, 68.62099789248836, 1180.5990648770662, 8438.957994969514, 2.384555957710413, 26.97850835698893, 51.899240756256965, 57.76374078021256, 1264.6040404040407, 930.9676767676772, 1120.0535484705065, 2661.6350666029157, 99.09457847440986], "count": 495}