{"symbol": "AMZN", "timeframe": "4h", "weights": [[0.02563085789673252, 0.03064366640500852, 0.017214204751565487, -0.009604129010185748, 0.025662122849942313, -0.009604129010185748, 0.011355881564467952, 0.017214204751565456, -0.009604129010185713, 0.023955599451333243, -0.0023555604188479086, -0.00714399862993532, -0.006812294801789072, -7.805624888207094e-05, 0.00015760851866631132, -0.0027453821341598384, -0.010324339377801302, -0.03280592861382587, 0.018156780934021868, 0.074841441366607, 0.25660047156812177, -0.009755411978890783, -0.007060665545656517, 0.10942050174746784, -0.01836300841159893, 0.16825862914725312, -0.0009162478105121782, 0.1312791457920266, 0.05754686567056428, 0.05231783707357882, 0.18469982755977415, -0.005427391308326138, 0.17898407486352533, 0.06901353397944356, -0.07162142328711164, -0.08763389569456148, -0.014801129360080217, 0.12244348389778226, 0.17728605117962576, 0.12915752659357835, 0.2002363369363669, -0.11884688360972592, 0.07488251039270231, 0.13034484215051068, 0.11569285655032124], [-0.02738773081484795, -0.038130764988238676, -0.023664748183478055, -0.003275866907701848, -0.027433161759509685, -0.003275866907701848, -0.03817108005868035, -0.023664748183478027, -0.003275866907701879, -0.017048674096419116, 0.0010154914557914958, 0.00820605415463692, 0.005566748487883113, -0.002750291280442482, -0.0024877282998499073, 0.0023265649117498216, 0.0026060661828848294, -0.0756079587848951, 0.07736999341805592, -0.08486662020478818, -0.006413705780054155, 0.0901482280002609, 0.04438761255482079, -0.09713624073751269, 0.02061278593522042, -0.050185527437334336, -0.005043261277525727, -0.1670661640215885, 0.00013066688962895187, -0.16844436198185292, -0.17971050947365225, 0.007396724729876749, -0.12455974978692241, -0.025774683088312645, 0.014329407594023076, 0.2721354184521882, 0.04476331265606743, 0.03757217561734324, -0.02388267042862765, 0.04892694589921084, -0.2610038525906915, 0.10693349813807465, -0.07771660307882351, -0.044189313644111744, -0.18546908906323278], [0.0017568729181154203, 0.007487098583230146, 0.006450543431912568, 0.012879995917887594, 0.0017710389095673676, 0.012879995917887594, 0.026815198494212402, 0.0064505434319125695, 0.012879995917887601, -0.006906925354914132, 0.0013400689630564103, -0.0010620555247016045, 0.0012455463139059524, 0.002828347529324553, 0.0023301197811835955, 0.00041881722241001736, 0.007718273194916442, 0.108413887398721, -0.09552677435207783, 0.010025178838181204, -0.25018676578806753, -0.08039281602137004, -0.037326947009164335, -0.01228426100995524, -0.0022497775236214944, -0.1180731017099188, 0.005959509088037903, 0.03578701822956189, -0.05767753256019325, 0.116126524908274, -0.004989318086121919, -0.001969333421550614, -0.05442432507660302, -0.043238850891130935, 0.05729201569308856, -0.18450152275762652, -0.02996218329598721, -0.16001565951512545, -0.15340338075099802, -0.1780844724927892, 0.06076751565432455, 0.01191338547165121, 0.002834092686121125, -0.08615552850639892, 0.06977623251291158]], "biases": [0.17868562065520283, 0.06386676211442364, -0.24255238276962646], "feat_mean": [0.0018044798605567184, 0.0059802047010223975, 0.008932690759339572, 0.017811274827171642, 0.001718664919921555, 0.017811274827171642, 0.03747066199008487, 0.008932690759339562, 0.017811274827171642, -0.0003010835261847792, 0.01177042031032204, 0.0122594774230855, 0.01230698310116667, 0.011254000188828401, 0.011428979002867408, 0.017587529367096563, 0.09705224684973021, 0.626519322269208, -0.09436845632799362, 1492089.9537285909, 3469341.1974954456, 0.9679088814543716, 0.13958054140289478, 56.73700494813885, 0.016039561440517772, 0.5304994385010932, 0.0009508328512052718, 0.2764634739210829, 0.28172451621784966, 0.8981910786047842, -0.002794459690892092, -0.00024727926487421847, -0.055982365094318726, 0.49403146717089785, 0.37211812182857845, 0.2599472162699676, 0.530982600453094, -0.02248304793315732, -0.15940058750895925, 1.1574058130727276, 1.0434782608695654, 0.8173913043478261, 0.7320633096336827, 1.865033052813553, 0.8997798444437146], "feat_var": [1.0195636114077231, 1.0636649834656686, 1.1091448622458333, 1.246744688205299, 1.0193002364426462, 1.246744688205299, 1.6776681138302267, 1.1091448622458335, 1.246744688205299, 1.0288484339351032, 1.002933637828395, 1.0016756221394918, 1.0013990036597218, 1.0004928856311905, 1.0003640401555565, 1.0004747308970627, 1.4427016556638317, 10.634356578091815, 116.03307408783917, 4163585618680223.0, 1562390229191693.2, 24.080792724672072, 16.127068585169937, 28225.903115277222, 1.0101418258468298, 10.815502180585801, 1.0096681779274854, 5.568618035178464, 5.6511982498263285, 12532.267512687673, 6.547145334686958, 1.0095901179532905, 9.768697338671668, 19.55524043627005, 49.67019345218675, 104.28464215091843, 1.1439608329852553, 2.572091574599744, 10.255336595450313, 34.95208890222028, 193.78260869565216, 136.16521739130437, 344.6946508665924, 952.03317664537, 60.26892704643467], "count": 115}