{"symbol": "BTCUSDT", "timeframe": "15m", "weights": [[-0.004042864469770499, 0.019555489151839748, 0.00920024602580702, 0.006160831499162511, -0.004072384914990406, 0.006160831499162511, 0.03351992690052112, 0.009200246025807062, 0.006160831499162712, 0.00835780104347712, 0.007383274284561922, 0.006108928007859641, 0.0050454056800349955, -0.0006642673709916143, -0.0013541915223426804, 0.008499267074630824, 0.040947925288187616, -0.16951325381428367, 0.03794483705021683, -0.025042613193604745, -0.23654358322505492, 0.014757276824137544, 0.00615535182247348, -0.04098255202001225, 0.00048328154773440477, -0.009536069458901002, 1.1808501078810332e-05, -0.02659698335711558, 0.014518084845801603, -0.17457490202724324, 0.07414014714765829, 0.0011223350194686284, 0.07149450726978249, 0.352248583230968, 0.11534804818867353, 0.10547489926074219, 0.06848601204092954, -0.019891747031894412, 0.01779566633276025, 0.17152574010364063, 0.00046927454691325605, -0.011492349166959747, 0.035631225318476206, -0.07685830974792582, -0.11546767125617577], [0.0014808269111967198, -0.010239456543379757, -0.005227395103230015, -6.018362799388388e-05, 0.0014958169369210215, -6.018362799388388e-05, -0.015197051795610388, -0.005227395103230128, -6.0183627994066474e-05, -0.004684518943052046, -0.00386374376970115, -0.003265637470097411, -0.0029143892031050123, -0.0049928885849536055, -0.005482981347685166, -0.0065150400765124, -0.022724771794244994, 0.10579130711896416, -0.04020831258933837, 0.019500683829094312, 0.08842266809279815, -0.020613499404979644, -0.006444466215663776, 0.008625092412227715, 0.0004751308155204041, -0.024138259665330675, -6.370315138908498e-06, 0.0027606675713824384, -0.024788690901574748, 0.08698259504304787, -0.04956469652231606, -0.00017953220108382273, -0.027563509121355387, -0.18422499680852775, -0.05744318976362623, -0.07391367430245625, -0.03056892706923165, 0.034230972117122734, -0.009756703751138253, -0.07020288995104061, -0.015425100634397726, 0.004871244734395972, 0.006998140986282462, 0.0612877607475875, 0.08951912721487236], [0.002562037558573787, -0.009316032608459982, -0.003972850922576975, -0.006100647871168593, 0.0025765679780693886, -0.006100647871168593, -0.018322875104910676, -0.003972850922576943, -0.006100647871168636, -0.0036732821004250714, -0.0035195305148607763, -0.002843290537762217, -0.002131016476929982, 0.0056571559559451985, 0.006837172870027899, -0.001984226998118412, -0.018223153493942604, 0.0637219466953196, 0.00226347553912165, 0.005541929364510424, 0.1481209151322556, 0.005856222580842186, 0.00028911439319030143, 0.03235745960778457, -0.0009584123632548319, 0.03367432912423172, -5.43818593990189e-06, 0.023836315785733152, 0.01027060605577309, 0.08759230698419541, -0.024575450625342256, -0.0009428028183847995, -0.04393099814842702, -0.16802358642244006, -0.05790485842504775, -0.03156122495828571, -0.03791708497169795, -0.01433922508522852, -0.008038962581622388, -0.10132285015260128, 0.014955826087484381, 0.006621104432563806, -0.04262936630475887, 0.015570549000338385, 0.0259485440413036]], "biases": [2.8582457455456454, -1.4103061313767395, -1.4479396141689043], "feat_mean": [6.665443488701028e-06, 2.8771499927147215e-05, 4.572071018611409e-05, 9.528981469473351e-05, 5.2372188470753104e-06, 9.528981469473351e-05, 0.00038335310812407156, 4.5720710186112124e-05, 9.528981469473382e-05, 3.828865824673958e-05, 0.001391729071694177, 0.0014987026519848907, 0.0015762416420976168, 0.010246746038301266, 0.011960686944277453, 0.006592957089925613, 0.010179106187611068, 0.5219895305905807, 0.0072634817799679665, -0.2502233674523004, -0.06769230479897745, 1.0139920304682173, -0.035628088970656516, 46.9487598827232, 0.006547554089681766, 0.4869727650586069, 4.3738472098033305e-07, 0.29812486525500737, 0.271084521111152, 0.6318069362097688, 0.036277132660258414, 3.0829963147085455e-05, -0.1955850030843498, 0.5193598093230631, 0.06791003582483404, 2.425485807455559, 0.5167120819875537, -0.09846996043044882, 0.012983015344308783, 1.239298314959911, 0.9319865319865316, 0.9191919191919191, 0.005088344767514751, 0.004522087611344934, 0.40795305938660364], "feat_var": [1.0042451712733653, 1.010976381604282, 1.0177188469441483, 1.0342235410369536, 1.0042401067582958, 1.0342235410369536, 1.0670331761162781, 1.017718846944148, 1.034223541036954, 1.0084004121743166, 1.0015881444977401, 1.0011002346099984, 1.0006795041720657, 1.142535584256978, 1.1996731224693367, 1.0548600763203912, 1.0444479355866536, 166.34003756717414, 1575.1931984977566, 21350.907595391393, 57.17698256080424, 615.659223269642, 140.51408414283668, 298132.14193483815, 1.643116366837555, 165.83884927430657, 1.0000002210417365, 105.43652555104535, 104.37220174526772, 239447.19969925718, 140553.60717299732, 1.0019638996712348, 750.1834325648821, 214.03704820149773, 2284.9076389323327, 15758.615656751319, 3.840409095969713, 64.34229467898005, 96.9202338438072, 171.7319636431013, 2315.130639730636, 2289.3030303030305, 1737.6683373641247, 5580.247617365111, 221.19578621387615], "count": 1485}