{"symbol": "BTCUSDT", "timeframe": "1h", "weights": [[-0.00239440591170886, -0.025444742360040334, -0.016919758488055863, 0.013754706936313185, -0.002573404271731535, 0.013754706936313185, 0.010289783075122075, -0.01691975848805546, 0.01375470693631299, -0.014800882933833632, 0.00918458225621748, -0.00044339643465162316, -0.006956365560824424, 0.010629891026996796, 0.010420430225692154, 0.04256552735461223, 0.03782548273716865, 0.10179926601307644, 0.08340459783720078, 0.10163807191058234, -0.16327339801722085, 0.03360607607849935, -0.4102014357806498, -0.06166292783411379, 0.08829508098469525, 0.07199212345381709, 0.0006945625458565859, 0.05358886577391989, -0.10795886855095106, -0.0741830220973151, 0.048592223308941467, 0.03357441670395859, 0.040929352667673585, -0.06508440877592224, 0.06553370150580472, 0.1861876928926714, -0.3547293653288975, 0.018615114852798154, -0.017416581310635244, 0.05801697108592715, 0.11863447662374423, 0.030665039671585924, 0.003783066213975772, -0.006198060908153177, 0.008614900833798634], [0.0012549999971866999, 0.010538724029997055, 0.007671947566396167, -0.005236155170999456, 0.0013267699374502505, -0.005236155170999456, -0.01785854810012227, 0.007671947566395987, -0.0052361551709993225, 0.010922993860989189, -0.0033282212277829923, 0.005370867031861881, 0.0025783867871167388, 0.05754113721204979, 0.06599808133652015, 0.033932970463460735, -0.028711886272883392, -0.008037348062481308, -0.0184844119203024, -0.09856114361070503, -0.17108112115176285, -0.03447516359637633, 0.10871325182854082, 0.17054733339598682, 0.003124388174202488, -0.10492657299896607, -0.0003519977231197531, 0.08816424927679573, 0.018238193129002645, 0.07856172237465774, -0.028252471796811597, -0.015818765369180723, -0.16706792705188048, 0.10304370111156637, -0.15265082001544847, -0.036124475363815564, 0.04152790071968492, 0.047790205537409446, -0.05925741273355002, -0.07491021812195003, -0.1551547224207159, 0.06583804519890968, 0.016561818395797234, -0.07981305703183834, 0.04816582704080882], [0.0011394059145221343, 0.01490601833004328, 0.009247810921659683, -0.008518551765313732, 0.001246634334281281, -0.008518551765313732, 0.007568765025000199, 0.009247810921659489, -0.008518551765313654, 0.003877889072844425, -0.005856361028434481, -0.004927470597210265, 0.004377978773707662, -0.06817102823904654, -0.07641851156221224, -0.07649849781807298, -0.009113596464285346, -0.09376191795059498, -0.06492018591689869, -0.0030769282998774376, 0.3343545191689831, 0.0008690875178768917, 0.3014881839521092, -0.10888440556187308, -0.09141946915889812, 0.0329344495451487, -0.00034256482273683234, -0.1417531150507151, 0.08972067542194831, -0.00437870027734266, -0.020339751512130032, -0.017755651334777856, 0.12613857438420764, -0.03795929233564455, 0.08711711850964389, -0.15006321752885524, 0.3132014646092127, -0.06640532039020744, 0.07667399404418546, 0.01689324703602276, 0.03652024579697178, -0.09650308487049526, -0.020344884609773017, 0.08601111793999165, -0.05678072787460747]], "biases": [2.546712939933541, -1.2823191188347842, -1.2643938210987529], "feat_mean": [-0.00012655029239955377, -0.0003809847102380466, -0.0006628981744628939, -0.001440340092304956, -0.00013220107528772647, -0.001440340092304956, -0.0027015207017642936, -0.0006628981744628985, -0.001440340092304955, -3.4124033251170064e-07, 0.002812558738869424, 0.002970358407313047, 0.0030977163045665993, 0.035880994505530256, 0.042177590546625794, 0.031194717363838255, 0.020048608443128613, 0.46572906586415, -0.00453713826829035, 1.875123951075373, 2.0605399051225124, 1.0298940584916563, 0.023130028351518252, 44.40543914202386, 0.030606358631066928, 0.5473676351082166, 1.4727685338404394e-05, 0.31081487497520927, 0.4039525353855512, -0.23196803679623784, 0.08054889448586773, -3.076293593794413e-05, -0.10028438483968904, 0.5217374485610136, -0.07076156107349517, 1.7810656047068727, 0.48972559871336585, -0.0567532047638609, -0.018549891433361287, 1.2669655351556326, 0.8299319727891136, 0.9614512471655329, -0.09130509327247123, -0.26976306655623594, 0.1648196683372075], "feat_var": [1.0149253051776208, 1.0413448939177383, 1.062373273803162, 1.1156692914493918, 1.0149318654374015, 1.1156692914493918, 1.2224439517732573, 1.062373273803162, 1.1156692914493918, 1.0267995123621234, 1.0048814595713438, 1.003332670573146, 1.0020540998395422, 1.6072067389867275, 1.8439161325895015, 1.8201251227428943, 1.1523487303077133, 144.57929660995364, 1623.6140408618019, 1268121.46442007, 5455.484294937992, 579.9069538122126, 175.2902818104198, 192500.1592672081, 5.227030795204445, 127.02615800922115, 1.0001327485901839, 94.51187428850677, 136.77082430006575, 186867.21905273796, 523463.8042444505, 1.0055181518117104, 409.72313455539694, 182.57984836748537, 1513.394510479251, 12053.317289429197, 5.180860546474624, 78.37967896786579, 118.73261404034719, 157.20081944468916, 1483.734693877552, 2006.0340136054451, 256.12263684948203, 898.649429456598, 92.8107606896251], "count": 1323}