{"symbol": "BTCUSDT", "timeframe": "4h", "weights": [[-0.004144882384715852, -0.005385783005513224, 0.0077264385849960815, -0.004701894833299671, -0.00421276339063544, -0.004701894833299671, -0.018388424910467813, 0.007726438584996031, -0.0047018948332996895, 0.006903776663331272, 0.005620487729437346, 0.005252290874505966, 0.00408851099440605, -0.0427619763250532, -0.0503194941566809, -0.008173440889653636, 0.0195373883622631, -0.11977234180910484, 0.0025780715217306634, 0.013703216418222662, -0.11989073333810016, 0.003229492756525336, -0.0887132519520765, 0.032773828877579306, 0.018419098984891802, -0.07589964716126918, 2.2473320283608722e-06, 0.07698923887839638, -0.06960690187906086, 0.03376987815367157, 0.012493731854881715, 0.0010970686613108753, 0.11410559709417435, 0.09530120706072955, -0.16365787516690833, 0.061827975107538194, -0.05435916959283895, 0.03058227451593489, -0.1473993536536384, 0.23247049132891756, 0.010186180086935783, 0.08788334363003088, -0.049013984121994744, -0.07074286612147485, 0.031069005116548996], [-0.00030084752834121434, 0.000623842580435935, -0.0002206279412953721, 0.004290684468500425, -0.0002830142045371436, 0.004290684468500425, 0.005825061299497884, -0.00022062794129535702, 0.004290684468500423, -0.0014810065505017588, -0.0016284451958237284, -0.0017502982767284734, -0.0010765949638124339, 0.0066016348402739055, 0.007919022302711652, 0.000749125724137393, -0.005063540680257308, 0.0504724672503864, -0.015561495951861373, 0.01564857046982986, 0.041132279291234815, -0.025392303973292972, 0.07908452603826506, -0.0374356345642199, -0.016582541992790786, 0.0009961752369450501, -2.8386890628256224e-06, -0.009043183937860499, -0.00047626165820067274, -0.00032869526344522456, -0.015912883595306914, 0.0001489103617502202, -0.05107153748342831, -0.03535599473414312, 0.04437136970362842, -0.017193275837969854, 0.00996991660154226, -0.0170273082226333, 0.0179547878401583, -0.0952711283469114, 0.0012506888629200258, -0.010244006510697443, 0.021627269727821297, 0.03197282360231824, -0.006097182045803309], [0.0044457299130570595, 0.004761940425077283, -0.00750581064370071, 0.00041121036479923776, 0.004495777595172581, 0.00041121036479923776, 0.01256336361096994, -0.007505810643700681, 0.00041121036479925684, -0.005422770112829517, -0.003992042533613622, -0.003501992597777492, -0.003011916030593614, 0.03616034148477924, 0.042400471853969286, 0.0074243151655162525, -0.014473847682005792, 0.06929987455871836, 0.01298342443013066, -0.02935178688805247, 0.07875845404686538, 0.022162811216767636, 0.009628725913811479, 0.00466180568664065, -0.0018365569921010003, 0.07490347192432413, 5.913570344647453e-07, -0.06794605494053585, 0.0700831635372615, -0.033441182890226406, 0.003419151740425177, -0.0012459790230610985, -0.06303405961074622, -0.0599452123265866, 0.1192865054632799, -0.04463469926956823, 0.0443892529912967, -0.01355496629330162, 0.12944456581347996, -0.13719936298200625, -0.011436868949855836, -0.07763933711933334, 0.02738671439417345, 0.0387700425191565, -0.024971823070745695]], "biases": [1.3201844287708804, -0.7144913961329862, -0.6056930326378939], "feat_mean": [-0.0005126030608310905, -0.0015214340600401594, -0.004067645015295444, -0.0072019364105117434, -0.0005342430012387015, -0.0072019364105117434, -0.010316324218779316, -0.0040676450152954385, -0.007201936410511738, 0.0001985562242590259, 0.006098246737911833, 0.006373790669142793, 0.006517728964498873, 0.07682654972062551, 0.09036187253989356, 0.08347973936329058, 0.03605906359196185, 0.44863543898211494, -0.1901125201609939, 27.693060991055937, -2.6476241504121885, 0.8869926523802738, -0.025607752634602174, 50.94466802570142, 0.0797747170708187, 0.6365152839181649, 2.518221984417931e-07, 0.2604180309604701, 0.5560560665144899, -0.191968722188142, -0.31232177806979083, -0.00028951640681489815, -0.39126856040960667, 0.42457139381568015, -0.31096988538627707, 1.3777730078613595, 0.4796467412422916, -0.19327825575994662, -0.002987255411020617, 1.052183167248388, 0.8722466960352421, 0.8546255506607929, -0.06728550417273196, -0.16949129359047477, 0.061058930781597666], "feat_var": [1.0097497007509628, 1.0244388598793808, 1.0441483754646455, 1.0490411828951485, 1.0097677041477129, 1.0490411828951485, 1.0556727408227882, 1.0441483754646455, 1.0490411828951482, 1.0200519546616982, 1.0018693770998293, 1.0012183694329055, 1.0005846776059961, 1.1272124202863545, 1.1765351623623566, 1.1724150043174075, 1.033694444112584, 19.1129832029649, 179.493432607888, 3020037.797032563, 9895.166633303941, 55.85378635164698, 27.020174795505763, 28444.717050985368, 2.5072726567708425, 22.436430470147542, 1.0000001391819127, 16.117661700765318, 25.72228457567955, 32726.963964815444, 357603.61473118945, 1.0015932927926838, 188.32800941281033, 36.45705681521674, 171.42963554902767, 1100.02246718782, 1.3593218357251378, 6.957955903538115, 49.77356219610255, 81.25427062910579, 292.295154185022, 299.2026431718062, 4.917823224648717, 8.076901574251979, 1.565058870366607], "count": 227}