{"symbol": "ETHUSDT", "timeframe": "1h", "weights": [[0.011271046580941996, 0.0013308327848373194, 0.0032959361281729707, -0.004377642972366149, 0.010768722401418926, -0.004377642972366149, 0.008619224007597914, 0.003295936128172648, -0.004377642972366344, -0.011695249470903835, 0.008646268811107874, 0.013803706022829078, 0.012235413108725147, 0.003112037629257384, 0.00037408696674410657, 0.03057278061186639, 0.085404301418842, 0.14404154885833645, -0.15995792523245664, -0.14300546919994386, -0.5341795257978212, 0.004223745717426924, -0.2040047744749704, -0.1188417830655528, 0.03917255642487083, 0.046449572372894175, 0.0007326093708244033, -0.017751285830304813, -0.0890221148691839, -0.024197874481963984, 0.038167297570946536, 0.026121389191517783, -0.11181972782265433, -0.03251770938847886, 0.3709169873731349, 0.07171127712369417, -0.032989983149543614, -0.18935744417994274, 0.13803872639948314, 0.4643368348547996, 0.12649778379764667, 0.13910992157818208, -0.12119943297041452, -0.12915555037228227, -0.25022466485013234], [-0.01697074043045819, -0.018026886321918113, -0.008898203350104633, 0.00573135544346911, -0.016584953157269884, 0.00573135544346911, -0.02600605321428301, -0.008898203350104565, 0.005731355443469191, -0.00042842247815224536, -0.01359648484456485, -0.008811439829000253, -0.004698769211076541, 0.0016007193962831333, 0.0032898294928933435, -0.015597218781246362, -0.033862046819937396, -0.05108432605309115, -0.0028830086145830336, 0.014255956344822093, 0.36529372148315525, -0.054674273441990426, 0.12797915811524557, 0.03572377274730251, -0.03213569788246744, -0.10781074570602142, 0.000125035614580401, 0.08824423470651674, 0.03985564032654272, -0.02586669618284145, -0.13855904483183404, -0.020779851583141263, -0.05351818161519612, 0.15223020330800086, -0.22325629602115518, -0.1324135375279887, 0.06953706684724671, 0.09319659027150945, -0.11254739807146034, -0.25841973333518414, -0.018807797908300814, -0.030676068821655394, -0.012890535235724988, -0.016440824871479832, 0.38804110708127526], [0.005699693849516215, 0.01669605353708081, 0.005602267221931684, -0.0013537124711029509, 0.005816230755850973, -0.0013537124711029509, 0.017386829206685002, 0.005602267221931937, -0.0013537124711028563, 0.012123671949056072, 0.004950216033456986, -0.004992266193828821, -0.007536643897648593, -0.004712757025540522, -0.003663916459637452, -0.01497556183062005, -0.05154225459890457, -0.09295722280524535, 0.16284093384703963, 0.12874951285512193, 0.1688858043146658, 0.05045052772456356, 0.07602561635972475, 0.0831180103182502, -0.007036858542403363, 0.0613611733331271, -0.0008576449854048045, -0.07049294887621188, 0.04916647454264125, 0.05006457066480529, 0.10039174726088744, -0.005341537608376511, 0.16533790943785037, -0.11971249391952218, -0.1476606913519797, 0.06070226040429484, -0.03654708369770309, 0.09616085390843368, -0.025491328328022336, -0.20591710151961568, -0.10768998588934572, -0.10843385275652687, 0.1340899682061392, 0.14559637524376232, -0.1378164422311425]], "biases": [0.7919087788369643, -0.5665937900751464, -0.2253149887618175], "feat_mean": [-0.00026702619454448817, -0.0007269824418723896, -0.0011764170616984629, -0.0023564832993501245, -0.00027802910546424156, -0.0023564832993501245, -0.004952753405988946, -0.0011764170616984637, -0.0023564832993501266, 1.3539068455389164e-05, 0.0039022866296346027, 0.004182054960436812, 0.004387623236975965, 0.008880691445824186, 0.009773335474478836, 0.008448254759157389, 0.028185070561361096, 0.4537900803885806, 0.02292203600287349, 0.5055666899295953, -35.99632385719941, 1.017266773182531, -0.14416432179140126, 48.564453762223756, 0.008472733764168383, 0.5014590281400212, 9.094993071981056e-06, 0.27686058431761906, 0.2864518833663827, -0.14628203998873077, 0.0027374439394513253, -4.91494624781241e-05, -0.16485622434365707, 0.5039664485620002, -0.2936767291129735, 2.6440619535763212, 0.4969086209834544, -0.08446874280858875, -0.09666549154922101, 1.2056611655828982, 0.949494949494949, 0.8949494949494947, -0.29731549903890064, -0.7534358960515157, 0.5328017289048806], "feat_var": [1.0108561735560517, 1.0300448656996068, 1.046958077289543, 1.0864656936483383, 1.0108558028251542, 1.0864656936483383, 1.1502981649628028, 1.046958077289543, 1.0864656936483381, 1.0205201987696966, 1.003768527479496, 1.0025254606072667, 1.0015182796913278, 1.0603203914098878, 1.0862464550747146, 1.0275189005913978, 1.1129269453120854, 53.34048013617847, 579.5390456245173, 8850448.486685427, 622349.7300776403, 148.1996084261087, 52.20494694857824, 96598.48342102753, 1.2011373976716286, 42.8716507457132, 1.0000093810896018, 23.239361667541733, 26.535980641201736, 81865.00393310729, 287.5923188081878, 1.0044261217753914, 249.49118252253783, 74.05967193165543, 785.1884319885434, 5159.619964239747, 2.505797128942153, 28.265241732920046, 38.90995936655277, 57.58143442701234, 824.7373737373738, 725.5373737373737, 733.6078735128635, 1952.0935704390101, 102.65875839798764], "count": 495}