{"w1": [[-0.15886439357636326, -0.4597014704282532, 0.7913822136794492, 0.48054233013041986, 0.2178372837575496, 0.13207675806462013], [-0.5256277831516313, 0.04661665010036361, -0.2139002649712365, -0.09730539753953982, 0.08608361840280067, -0.4655867094750374], [0.43756195065942244, 0.683975586103128, 1.230843031945839, -0.43177408973606024, 0.17791169299800563, -0.24738460788527827], [0.41678054537756226, 0.19330202110008263, -1.224669672201833, -0.26599899267856186, -0.537522014052192, -0.766731670648674], [0.34226492755459226, 0.10391895830589089, -0.11407696657911194, 0.2681821296796469, 0.5686086914906212, 0.5110221729308475], [-0.2881481365529144, 0.6398292396089713, 0.3461599044467104, 0.3817199007631314, 0.22745969704597174, 0.5900754084350344], [-0.3311309522740085, 0.792332458449858, 0.28831914356701493, 0.006294534998508722, -0.2512658840285942, -0.2055377912749403], [-1.1131318995270767, -0.19788897310395953, -0.16916591811199813, 0.10557960353072879, 0.08846174032765418, -0.022548283893041567], [0.18414802790935006, 0.3799814897532344, 0.980989680052698, -0.052296100987698796, -0.00029736977305911576, 0.6865072925827924], [-0.20635599703699398, 0.4296073899333371, 0.8592738472133291, 0.46521516107961947, 0.47731518919725513, -0.05792193603089296], [0.1330038786080816, 0.8124692522683046, 0.04111496050148895, -0.7472078597344641, 0.21433883410545532, 0.20134569853409112], [0.018943294014354482, 1.046635733261248, 1.3195271985976564, -1.0641048879375006, -0.5561208319805891, -0.22912374483291723]], "b1": [[-0.04598530638538838], [0.03450009755537863], [0.013776683884804552], [-0.0662743838640692], [0.03820899039681177], [-0.026760860884257155], [0.014334344717157315], [-0.17839313275713037], [0.0885945242918221], [-0.007699057465821398], [-0.005228381700213329], [-0.03716711033639803]], "w2": [[0.5098111517131677, 0.6028212782797874, 0.24920820936447455, -0.6367692309552705, 0.5668468132514956, -0.03491426830730698, 0.08088470054349899, -0.10275582794710088, 0.968102878434619, -0.20152587266538885, -0.05636993418290216, -0.22493391680905414], [-0.4669625221018317, 0.0034411275068033237, 0.4394418042399537, -0.3903867188350305, -0.3328635695373431, -0.03724632767963987, 0.29502284417196684, -0.24849516609299765, 0.017987946422900792, 0.3638090383397683, 0.18742098454548928, -0.40455647005750095], [0.5217567313987421, -0.08974243122166992, -0.9970292858237851, 0.06200156416521093, -0.06399747529912367, -0.07925383947738333, 0.012662783502316734, -0.5266784763058708, 0.2102333617708413, 0.7567770400533635, 0.28056971226852173, 0.34368973352416765]], "b2": [[0.06456704334740386], [0.1249111911074116], [0.12404227620411101]], "epsilon": 0.92274469442792}