{"symbol": "ETHUSDT", "timeframe": "15m", "weights": [[-0.004167081830856545, -0.010605342492590986, -0.002079101965596474, -0.001102966030423536, -0.004205146465019177, -0.001102966030423536, 0.008547370472947865, -0.0020791019655965345, -0.0011029660304235276, 0.0019340617390321082, 0.008031737703107205, 0.006592511628224767, 0.003971462880873785, 0.004092930597039621, 0.003973832448195172, 0.006822919407783131, 0.04625567665936996, -0.19716227663187672, 0.10065342333288728, -0.22013839802926313, -0.7985811422519347, 0.07572069064761829, -0.05078304476408431, -0.0887752223291513, 0.011230627282383394, -0.019192812981436946, -0.00033817264298372017, -0.0721194827579782, 0.012445569865420846, 0.031561803146802125, -0.050149995760777014, 0.005940938220041926, 0.023864306755815797, 0.08404961779194109, 0.24059341344924795, 0.18634422561519165, 0.06267991098296956, 0.04000471602596084, 0.18540790039764346, 0.5112847216012716, 0.04499915049249513, 0.14078873064207909, 0.36301468261030445, 0.3706762521430522, 0.1543037674797009], [0.00195418361242514, 0.0035817881869295593, 0.0006688842935470261, -0.001439726176015993, 0.0019686329278525852, -0.001439726176015993, -0.0009502594614384534, 0.0006688842935470628, -0.0014397261760159567, -0.00028436240905717184, -0.003506318022195124, -0.002683741720046369, -0.002401439798416611, -0.0024217366914714073, -0.002353684186973805, -0.003244002535466187, -0.01706049138795636, 0.12494000765829089, -0.001028134909109633, 0.013366301384229019, 0.46332356034167854, -0.017691176973540314, 0.024484305528205397, 0.06517930670245409, -0.004656699852005663, 0.01469822249727163, -1.1426347335065817e-07, 0.012482448869640308, -0.02876139811270051, -0.024551103219124352, 0.02847037558101223, 5.123440461760023e-05, 0.004198020077330608, -0.09404914336518151, -0.08864890175418114, -0.06192871873929655, -0.02685659286843878, -0.038130847988309055, -0.13044899402253324, -0.2792412300618176, -0.04671280389048057, -0.048562647976834815, -0.16800843609774732, -0.1448257183155214, -0.1579343888319322], [0.002212898218431407, 0.007023554305661443, 0.0014102176720494476, 0.0025426922064395348, 0.002236513537166588, 0.0025426922064395348, -0.0075971110115093925, 0.0014102176720494762, 0.0025426922064394936, -0.0016496993299749396, -0.004525419680912077, -0.003908769908178401, -0.0015700230824571798, -0.0016711939055682123, -0.001620148261221369, -0.0035789168723169397, -0.02919518527141357, 0.07222226897358565, -0.09962528842377759, 0.20677209664503404, 0.3352575819102555, -0.05802951367407792, 0.02629873923587891, 0.023595915626697033, -0.006573927430377726, 0.00449459048416537, 0.000338286906457071, 0.05963703388833803, 0.0163158282472796, -0.007010699927677699, 0.02167962017976468, -0.005992172624659522, -0.0280623268331464, 0.009999525573240109, -0.15194451169506665, -0.12441550687589505, -0.035823318114530725, -0.0018738680376518433, -0.0549589063751102, -0.23204349153945467, 0.0017136533979854847, -0.09222608266524426, -0.19500624651255713, -0.22585053382753073, 0.0036306213522316628]], "biases": [1.2389118068753149, -0.6676169286065786, -0.5712948782687386], "feat_mean": [-9.654447275863552e-05, -0.0003020023167734582, -0.0005434692487666033, -0.0010911141946581427, -9.954709107937614e-05, -0.0010911141946581427, -0.0021225295120847207, -0.0005434692487666031, -0.0010911141946581414, -4.169048296829666e-05, 0.0020461005759133304, 0.0021680370865900076, 0.002258235356624482, 0.002280535180149065, 0.002263475873670168, 0.003049099715517441, 0.014086624407776522, 0.4732893460680665, -0.018850635266037467, -5.746619483318021, -5.424802553549956, 1.0193763140563705, -0.07336040620605613, 46.35080741388679, 0.0030422291428494393, 0.4931086917898948, 8.176599413592745e-06, 0.2407169481178913, 0.24193971946578147, -0.13962659315011478, -0.0005619717321204621, 8.783653972562801e-06, -0.15844476936273644, 0.4625053088410562, -0.19503692909572368, 2.015255998485695, 0.5078544185009097, -0.06756733509805993, -0.06796828519077448, 1.2669665932514933, 0.8686868686868687, 0.9737373737373731, -0.2858652372971434, -0.8094161718235483, 0.584558356073471], "feat_var": [1.0029652087456988, 1.0078927878391506, 1.0119323053307496, 1.0229739266325077, 1.0029691064507766, 1.0229739266325077, 1.0426641037609865, 1.0119323053307498, 1.0229739266325077, 1.005677896632536, 1.0010297865509394, 1.0007075695481171, 1.0004758785103172, 1.0004868477104851, 1.0005042642725843, 1.0006781805766145, 1.036935879826476, 51.191912889321344, 548.6413650949303, 681956.4711486126, 12309.738471204968, 134.19215631976016, 44.00008669225142, 109418.4760616689, 1.0039247314351074, 54.8547771999425, 1.0000322867069964, 23.123231130962004, 26.04388409455832, 66757.46940712794, 73.24988532654582, 1.001438168403639, 298.56690445354417, 70.85993160081422, 597.0469606335212, 3810.9590313719414, 2.1159859665130623, 21.677179830050132, 34.20897522411428, 53.970780150278, 773.4646464646468, 741.6585858585855, 870.4999563914637, 2117.523286640249, 88.89227046928478], "count": 495}