{"w1": [[0.05281311527114578, 0.11400507373697333, 0.6853933545276649, 1.6361936966557407, -0.14610944909111923, 0.7749196057753435], [-0.3117246593512259, 0.0643495931661737, 0.020549721921671336, -1.0187882456282114, 0.06493381443625794, -0.5416764208455784], [-0.4791119000362095, 0.690943083923938, -0.0038028556763803276, 0.7147322552701444, -1.272283024237024, 0.3677318177497457], [0.12487468502440954, -0.08002973727674648, -0.9940979616214813, 0.6092729840797262, -0.4332197989834189, -0.6233098350510718], [-0.4754404343338473, 0.4408763956144892, -0.23727228435456976, -1.1861411113385605, -0.1482806147632826, -0.06367641303080541], [0.543547424215829, 0.2423110989469816, 0.13346867173790464, 0.22516564706260447, -0.6204746539105535, -0.27975185315955786], [0.294050284586699, 0.6007077623146433, 0.1367953048648735, 0.06262644657198946, -0.05419853453863602, 0.08916046850880699], [-0.44534484931729845, -1.3831407421319841, -0.44797760686437704, -0.25412468740402716, -0.4505491845916085, -0.5122450059192946], [-0.9045051604313796, -0.6253606055892068, 0.4505835436301327, -1.171386506648608, 0.08614485308980979, -0.9577424542334296], [1.3571682255208355, -0.11800351893059906, -0.4759949782686476, 0.7592867696365635, 0.6599017008499276, -0.2852898058411234], [0.22737768499145955, -0.09146844547156761, 1.0634904605972706, 0.03884978981667092, -0.07273246735288257, -0.31507429953108484], [-0.1340116190867209, 0.24980799098493192, 0.9066669389156626, 0.46223846009761677, -0.37333533057961726, 0.15399612444396746]], "b1": [[0.04130790166330928], [-0.06486823539416295], [0.05702336625250592], [-0.015308868616941768], [-0.08861970359702741], [0.05771914453350165], [0.034160427392320336], [0.0631173289252167], [-0.002977545438231418], [-0.11357452259234975], [-0.1594612504636691], [0.06866535966809802]], "w2": [[0.23030100927848868, -0.9836869516350699, 0.16239544470058384, 0.9127803727611257, -0.502542698267995, 0.19149106985953532, 0.07532958664633026, 0.115269986294323, 0.3218293129918332, -0.08671538376254694, -0.5415534418908056, 0.09813962466747683], [0.06589875294255383, 0.07598128617150504, -0.1572418139834032, -0.388330742639628, 0.04790936678612394, 0.6107475788398727, -0.0977216172766328, 0.5032221915560101, -0.35655240401670996, -0.28900426009043984, 0.7323786238030034, 0.22079238682994426], [-0.41632686525661744, 0.04303947729145515, 0.06352501448614752, -0.42939021046609954, -0.5021092868866419, -0.14189880181832346, 0.27423054858170215, 0.06986864490806784, -0.022545105058167994, -0.13441610637449677, -0.5555581243692868, 0.6259502525391256]], "b2": [[0.12487232275979715], [-0.014006967631273232], [0.1111697153448127]], "epsilon": 0.92274469442792}