{"symbol": "ETHUSDT", "timeframe": "4h", "weights": [[-0.06569472423725578, -0.10096588869333684, -0.08208101971001308, -0.03182551677175893, -0.06597925887591824, -0.03182551677175893, -0.09555345994682571, -0.08208101971001319, -0.031825516771758974, -0.05840089785131655, 0.0022393282998104677, -0.01082719460500084, -0.0005561464685977925, 0.0013642779626205563, 0.0031302892136047464, -0.003752572152979962, 0.10636950950852016, -0.026881119247838377, 0.17635116463241388, -0.1231100579814313, 0.2072915015174297, 0.17048327398499946, -0.22099395228620727, 0.021610787050189584, 0.050400161263401064, -0.04495494919886353, 0.0013649991420758643, -0.08438041503122205, -0.037454176168746606, -0.12430471232838579, -0.31644076173236435, -0.002578565651497786, -0.26272285728831823, -0.010384157061986112, -0.31332962479390364, 0.234487675957494, -0.015604453939925288, 0.07609764687626433, 0.012974409336248412, 0.135406406601946, 0.09446082646321771, -0.12762737369488714, -0.056952245421154304, -0.1628650492377966, 0.07727220940838306], [0.008122479056387435, 0.012163682949545633, 0.009288812053714927, -0.0027683911639589547, 0.008142419909728348, -0.0027683911639589547, 0.068005898857403, 0.009288812053714852, -0.00276839116395903, -0.01050430721474437, -0.002303896137990093, 0.0017717068876615268, 0.004482129475033642, 0.006902684655802484, 0.00715461477856307, 0.0054259688047247, 0.04506493997372839, -0.009441504704164076, -0.0037423048629420543, 0.12367599010405998, -0.5233311107729586, 0.0351890767993256, 0.07225108837889171, -0.06562812144772733, -0.0014179545308452477, -0.019791269029122253, -0.0006644372558650066, -0.04758788496944511, 0.04166201370176385, 0.074985480120548, 0.1293433314611845, -0.006632329721302575, 0.06394712557525714, 0.02617305953848452, 0.1522769471221144, 0.14327127663536354, 0.12027422112776841, 0.12728528865079003, -0.2166508312472182, -0.17565056987093985, -0.0017712069549818796, -0.008915441398536074, -0.06606114302413756, 0.0910154566535505, 0.06402207144473923], [0.05757224518086831, 0.08880220574379118, 0.0727922076562982, 0.034593907935717885, 0.05783683896618991, 0.034593907935717885, 0.02754756108942265, 0.07279220765629832, 0.03459390793571805, 0.06890520506606088, 6.456783817959845e-05, 0.009055487717339312, -0.003925983006435854, -0.008266962618423027, -0.010284903992167825, -0.0016733966517447404, -0.15143444948224857, 0.03632262395200247, -0.17260885976947182, -0.0005659321226295791, 0.31603960925552865, -0.2056723507843252, 0.14874286390731534, 0.04401733439753777, -0.048982206732555794, 0.06474621822798576, -0.0007005618862108582, 0.13196830000066723, -0.004207837533017284, 0.04931923220783791, 0.18709743027117975, 0.009210895372800376, 0.19877573171306134, -0.015788902476498744, 0.16105267767178916, -0.3777589525928575, -0.10466976718784315, -0.2033829355270545, 0.2036764219109698, 0.04024416326899353, -0.0926896195082357, 0.136542815093423, 0.1230133884452919, 0.07184959258424606, -0.14129428085312215]], "biases": [0.4186888994758503, -0.4815427609694153, 0.06285386149356434], "feat_mean": [-7.953316125523422e-05, -0.00017743378590865647, 0.000128403220128058, 0.0006725252267892682, -0.0001291640129742339, 0.0006725252267892682, 0.00012614201693088067, 0.0001284032201280567, 0.0006725252267892654, -8.954134034464582e-05, 0.008561615493070092, 0.009244482439945495, 0.009621049477009128, 0.009865908614166701, 0.009885060726202263, 0.014060655232838897, 0.06013881747533222, 0.47900345251872944, 0.03560939498734747, 76019879.62552015, 604191160.700526, 1.078244024440486, 0.03319997002653458, 50.51705552408001, 0.013950227190593942, 0.5100705705091525, 4.7648776183321035e-05, 0.28401657892398036, 0.3018774546449812, 0.12393220011590171, -0.0018508652489508115, 5.6632296239596e-05, -0.07966710845484648, 0.49716096877225735, -0.11208251227908238, 2.837183560724242, 0.4911350312380303, -0.02327965591731712, -0.11999475546640252, 1.1729479439133152, 0.9715099715099712, 0.903133903133903, -0.10416369152954036, -0.1331429715316915, 0.45301732737214256], "feat_var": [1.034972970996247, 1.1134883574066283, 1.1797516492556475, 1.249977874585276, 1.0347732181754798, 1.249977874585276, 1.3628796548161486, 1.1797516492556475, 1.249977874585276, 1.0715456638627983, 1.0088127000565454, 1.0058311172235987, 1.0032519075232698, 1.0017690789084264, 1.0016313830847996, 1.0037972960606367, 1.1976650796381305, 35.763757744965595, 382.935018595271, 6.066522653952105e+19, 2.3638260714396762e+19, 725.4480012035082, 59.377235357887194, 190345.65757798406, 1.0278946969017084, 25.548138258634964, 1.0000392600881325, 15.152136661532762, 15.323719708713702, 60470.080770439425, 977.9748228267322, 1.0112388498505858, 112.23308704780781, 48.22581454926017, 617.2850558132593, 2663.0634963764655, 1.4240623449775098, 19.724360879813172, 24.374145336968567, 40.947122232793674, 668.715099715099, 527.7065527065528, 498.7695243043524, 1168.9962280092268, 34.42941914351713], "count": 351}