{"w1": [[-0.4054642763770359, -0.22876497986218422, 0.26804401622853613, -0.04025121295303792, 0.41716313516207126, -0.5393587300458833], [-0.5881000389202907, -0.10562042076923335, 0.081812700881107, -0.6268588612107255, -0.7307217185323882, 0.6522392175933192], [0.6736283654146437, -0.7507186818099569, 0.2679390177799112, -0.07184894281994433, 0.6898852772242339, -0.49143519914834144], [0.09089901157534437, -0.21184285747255827, -1.1544430639406877, 0.06281326786458126, -0.04467842640487847, 0.1482982263233742], [0.5442523536833672, -0.22230611383693277, -0.006478033774747966, 0.4186074369473625, 0.29987961664243423, -0.18771686289294973], [-0.5014743337454964, 0.7163464315624302, 0.1626079618084381, 0.36999716270776684, 0.2813145997550466, -0.739463579844804], [-0.17195611731281063, -0.45718724126675336, 0.19824681252241513, -0.6808876991745787, -0.4540146118049854, 0.004791686732894854], [0.18167905036621318, 0.9488757373068416, 0.8859601249931539, -0.28741748001409734, -0.21040641288058798, 0.10000097390803032], [0.2683700700769707, -0.18185087343530731, 0.26438047124302605, -0.21584092998037188, -0.04775810931990215, -0.257555958165755], [0.00025895855076974724, -0.2853898613402395, -0.18929944239473998, -0.5551709389538135, 0.295308099886983, 0.061025103630401534], [0.10386768200637171, 0.9142328120116642, -0.07727122453757514, 0.9435205913091267, -0.44160864212071627, -0.5931092722432353], [-0.381103783021287, -0.07852927445465797, -1.3633101636546845, 0.5701073489772867, -0.2586858485461915, 0.8257098481683323]], "b1": [[-0.010351402711169206], [0.09537676892428999], [0.008399191020894817], [0.10228936778156195], [-0.06518850143065547], [0.11583045461997993], [-0.05632917382264687], [0.06257326294970338], [-0.019314052006973042], [0.06450515269364065], [-0.1322833027308343], [0.052252654268118155]], "w2": [[-0.2609575325764468, 0.48895772146935984, -0.11710649243922772, 0.6126994382625401, -0.6496708602036941, 0.34770537884300434, 0.029395971201635552, 0.21339968386562286, 0.22840441492764516, 0.6239459457408528, -0.450206783945537, 0.057440908542368364], [0.15605616805526223, 0.40093106179122917, 0.367787388968455, 0.710365566664175, -0.003823798679678702, 0.37712043414829416, -0.6235759405454837, 0.09749940824199176, -0.7791046081516257, 0.0412849982427305, -0.34744119662218853, 0.7962343592780184], [0.018223133502360985, -0.15885009874380163, -0.005665753404360289, -0.6135377721563231, 0.3036323464420402, -0.396267385391121, 0.6386026559849595, 0.45729938212012294, 0.47611166167733676, -0.6559893392527019, -0.12275739368510379, 0.5024509988752938]], "b2": [[0.1282522223309197], [0.11330906416105745], [-0.019302630203010172]], "epsilon": 0.92274469442792}