{"symbol": "FDUSDUSDT", "timeframe": "15m", "weights": [[0.0002386130994942838, 0.0005677923917523268, 0.0006154339643561125, 0.0004950163926144063, 0.00023857626022466812, 0.0004950163926144063, 0.00042516449097485567, 0.0006154339643561537, 0.0004950163926143054, 0.0005678376564475486, -2.478365030022156e-05, -5.359396350782456e-05, -3.880394106885994e-05, 3.068215394738406e-05, 4.3119158921946686e-05, -9.102447124973313e-05, 0.00038987924194334577, 0.15942366333244637, -0.0397485605807264, 0.14573093985350372, 0.8119383722791689, 0.007321915158338226, -0.09696212845398477, 0.09436006746243324, 0.000251830594078206, 0.16164024147855588, 4.2678311839210264e-05, -0.05213261520916061, 0.013714156158609722, 0.15489573119621147, 1.182554308231219e-05, 0.0001658241079534198, -0.16124432959778753, 0.21652311438634914, 0.05320070793491377, 0.16309569165624946, -0.06502514111509679, 0.42785124542914316, -0.10720605608095655, 0.5398709637358523, 0.10236692197581365, -0.1032193469586798, -0.15307593958848215, -0.15845151699834278, 0.2511485584328696], [-0.00011930654974714181, -0.0002838961958761631, -0.00030771698217805615, -0.000247508196307203, -0.00011928813011233407, -0.000247508196307203, -0.00021258224548742754, -0.00030771698217807686, -0.0002475081963071525, -0.00028391882822377415, 1.2391825150110771e-05, 2.679698175391227e-05, 1.9401970534429952e-05, -1.5341076973692073e-05, -2.1559579460973336e-05, 4.551223562486657e-05, -0.00019493962097167275, -0.07971183166622309, 0.01987428029036327, -0.07286546992675176, -0.40596918613958427, -0.0036609575791690303, 0.04848106422699232, -0.047180033731216556, -0.000125915297039103, -0.08082012073927793, -2.1339155919605176e-05, 0.026066307604580303, -0.006857078079304847, -0.07744786559810565, -5.912771541156086e-06, -8.29120539767098e-05, 0.08062216479889378, -0.10826155719317454, -0.026600353967456854, -0.08154784582812465, 0.03251257055754836, -0.21392562271457152, 0.05360302804047832, -0.2699354818679261, -0.051183460987906756, 0.0516096734793399, 0.07653796979424127, 0.07922575849917149, -0.12557427921643477], [-0.00011930654974714178, -0.0002838961958761631, -0.00030771698217805615, -0.00024750819630720304, -0.00011928813011233405, -0.00024750819630720304, -0.0002125822454874275, -0.0003077169821780769, -0.0002475081963071526, -0.0002839188282237742, 1.2391825150110778e-05, 2.6796981753912272e-05, 1.9401970534429956e-05, -1.5341076973692063e-05, -2.1559579460973336e-05, 4.5512235624866556e-05, -0.0001949396209716728, -0.07971183166622309, 0.019874280290363276, -0.07286546992675175, -0.40596918613958427, -0.0036609575791690624, 0.04848106422699229, -0.04718003373121656, -0.000125915297039103, -0.08082012073927791, -2.1339155919605166e-05, 0.0260663076045803, -0.0068570780793048396, -0.07744786559810568, -5.912771541156089e-06, -8.29120539767098e-05, 0.08062216479889382, -0.10826155719317453, -0.02660035396745686, -0.08154784582812465, 0.03251257055754838, -0.2139256227145715, 0.05360302804047833, -0.26993548186792615, -0.05118346098790678, 0.05160967347933989, 0.07653796979424127, 0.07922575849917154, -0.1255742792164348]], "biases": [1.5545029731430962, -0.7772514865715484, -0.7772514865715484], "feat_mean": [2.431145815994452e-06, 6.277564932775408e-06, 1.0325355559305147e-05, 2.3075922034045636e-05, 2.427135031326024e-06, 2.3075922034045636e-05, 5.01900557390908e-05, 1.0325355559309346e-05, 2.3075922034049444e-05, -4.654154130135939e-06, 8.227183740005068e-05, 8.457159830789723e-05, 8.669757842343377e-05, 7.971691875711255e-05, 7.68373333070935e-05, 0.0001211191694236884, 0.0003896518914864335, 0.502542822350343, -0.010685973485671602, 1448.194441383533, 151.94784744566735, 1.033994659282678, 0.026336187640138748, 46.391602210827166, 0.00012259163611753115, 0.40293891293891587, 6.273998875661611e-06, 0.34857623857623615, 0.18255892255892403, -0.9031339031339267, -2.2057246685917973e-08, -4.297838082837672e-07, -0.05048495639405488, 0.48828373238119493, 0.09670213636521217, 0.6440871141202629, 0.4138501052035742, -0.3231945926718877, 0.054687624586124285, 1.0390283552969188, 0.2868686868686872, 0.25656565656565683, 0.22884587755078187, 0.5201379524854242, 0.29960280346147966], "feat_var": [1.0000039678716122, 1.0000078323214066, 1.000010506866846, 1.0000178481993183, 1.0000039677005872, 1.0000178481993183, 1.0000265976929976, 1.000010506866846, 1.0000178481993183, 1.0000088443624233, 1.0000010817460563, 1.0000006847905996, 1.0000004353513288, 1.0000002927802751, 1.000000261493862, 1.0000005220800523, 1.000032749251698, 39.36513293072956, 599.4984255186599, 637876497273.1564, 8245232.337080668, 133.03071351177832, 22.92198369594795, 108632.40065652493, 1.0000022264195254, 110.52205678096193, 1.0000018958710404, 103.80767005657447, 67.22331425364794, 90070.63474269246, 1.000000023458278, 1.0000010490377123, 78.38063028787212, 60.19162205035698, 176.21964761688153, 1709.6273318252374, 4.492571049899228, 38.18854347999956, 36.36311964801404, 41.29066621983725, 152.2646464646463, 115.4161616161616, 520.5317171020333, 1326.5860004564486, 52.72222338804891], "count": 495}