{"symbol": "FDUSDUSDT", "timeframe": "1d", "weights": [[-0.0009081515729709141, 0.00022572516930353202, -0.0009493011017584708, -0.0029917790689650216, -0.000917881657411522, -0.0029917790689650216, -0.0003268420971406524, -0.0009493011017584891, -0.002991779068964883, -0.0007248724546862239, 0.000607353905206757, 0.00020279982089946026, -0.0006878742323249281, -0.0067743332679495675, -0.008096830081957475, -0.007133080661783443, -0.00017109926986961127, -0.2584105074089746, -0.008894185869195525, 0.2518506467487837, -0.8487671085078534, 0.015203935326428511, -0.10248679806749184, 0.1641715275741253, 0.005882040887243936, 0.04447427186127538, -0.00014812668892252124, -0.044942936256104626, -0.027938680018015437, -0.08945502092193704, -5.086039693285597e-05, 0.0012322849555403204, -0.02416777085888313, -0.21838926566836195, -0.04521358965178002, 0.14073221655124113, -0.17653735085894773, 0.25584512623694305, 0.33318987213801404, 0.49701381319594856, 0.10887759344866234, 0.07152376001258948, 0.052633476579185844, 0.13870130889516585, 0.18400144469625532], [0.00045407578648545697, -0.00011286258465176659, 0.0004746505508792347, 0.00149588953448251, 0.00045894082870576056, 0.00149588953448251, 0.0001634210485703255, 0.0004746505508792444, 0.001495889534482442, 0.0003624362273431119, -0.0003036769526033788, -0.00010139991044972998, 0.0003439371161624643, 0.0033871666339747885, 0.004048415040978737, 0.0035665403308917194, 8.554963493480481e-05, 0.12920525370448732, 0.0044470929345977895, -0.12592532337439183, 0.4243835542539269, -0.007601967663214199, 0.05124339903374597, -0.08208576378706263, -0.002941020443621967, -0.02223713593063764, 7.406334446126055e-05, 0.022471468128052313, 0.013969340009007724, 0.04472751046096848, 2.5430198466427966e-05, -0.0006161424777701604, 0.012083885429441563, 0.10919463283418081, 0.022606794825890057, -0.07036610827562048, 0.08826867542947392, -0.12792256311847158, -0.16659493606900702, -0.2485069065979742, -0.05443879672433119, -0.035761880006294766, -0.026316738289592904, -0.06935065444758284, -0.09200072234812763], [0.00045407578648545767, -0.00011286258465176619, 0.00047465055087923477, 0.00149588953448251, 0.000458940828705761, 0.00149588953448251, 0.00016342104857032557, 0.00047465055087924437, 0.0014958895344824416, 0.0003624362273431123, -0.0003036769526033784, -0.00010139991044973009, 0.00034393711616246387, 0.003387166633974786, 0.0040484150409787365, 0.00356654033089172, 8.554963493480493e-05, 0.12920525370448732, 0.00444709293459779, -0.12592532337439186, 0.4243835542539268, -0.007601967663214206, 0.05124339903374597, -0.08208576378706263, -0.0029410204436219707, -0.022237135930637645, 7.406334446126055e-05, 0.022471468128052313, 0.013969340009007703, 0.04472751046096845, 2.5430198466428003e-05, -0.0006161424777701604, 0.012083885429441565, 0.10919463283418086, 0.02260679482589003, -0.07036610827562047, 0.08826867542947392, -0.12792256311847156, -0.166594936069007, -0.2485069065979742, -0.05443879672433116, -0.035761880006294766, -0.026316738289592904, -0.06935065444758284, -0.09200072234812762]], "biases": [1.4351199366821272, -0.7175599683410638, -0.717559968341064], "feat_mean": [-4.961959747823935e-06, -2.2149504905382404e-05, -3.4560838637280376e-05, -3.0788773215579994e-05, -5.329514749185177e-06, -3.0788773215579994e-05, -5.7376570829381336e-05, -3.4560838637280905e-05, -3.078877321557956e-05, -2.7990762277372764e-06, 0.000553551473181347, 0.0005902540527517363, 0.0006339303897556302, 0.0023512723166095755, 0.002735337856570872, 0.0030009867574382772, 0.0024187356645689346, 0.4922451502552804, -0.08190933770078068, -62444408.89785126, -29977742.95882923, 0.9532780874430458, 0.01176700339070292, 46.94439627517407, 0.0029814916566819434, 0.4817089058176868, 4.411681615162078e-06, 0.4490352414712586, 0.41876561683222246, 0.12484670239552664, 5.126156135541803e-08, -9.704196891194399e-08, -0.041840688160380286, 0.5068806659549795, 0.13603873507875486, 1.9502334330101136, 0.4257068864636877, -0.3009527019235373, -0.06827615969532345, 1.2629212352497055, 0.7474747474747475, 0.9010101010101009, -0.008381918525679004, -0.008367020185072455, 0.05500009931945128], "feat_var": [1.0003630754336368, 1.0005043460635306, 1.0006721595450419, 1.0007378161996199, 1.000364265395899, 1.0007378161996199, 1.0008685110021232, 1.0006721595450419, 1.0007378161996199, 1.0007123322947848, 1.0002693842284092, 1.000224215468215, 1.0001857029468297, 1.0045901554973387, 1.006311212768119, 1.0013457281290212, 1.002280508805716, 39.67125203437222, 512.2514314503165, 8.709125585210528e+20, 1.6268411297114995e+17, 74.12713387644833, 32.324343931112274, 73340.48819534249, 1.0143196483383434, 9.21570093295001, 1.0000019237630582, 7.499761964320718, 7.590105255527842, 50720.492960508775, 1.0000022134836175, 1.0001451406028146, 75.66389558835218, 61.08725904015929, 444.3018434432557, 4249.973355030077, 2.465779600176998, 24.76951244306141, 31.368227597843063, 51.92280372088015, 472.43434343434325, 697.1494949494943, 23.0486410738645, 33.76317110961421, 2.2221000474758483], "count": 495}