{"w1": [[-0.4803828373898813, 0.2213074065796448, -0.0178997685795609, -0.7722258561259873, -0.3793206622671074, -0.6172821486099723], [0.7499151008768101, -0.016698103564417338, -0.9325230791016431, 0.1917473566289937, 0.6357526093050785, -0.04564167645324506], [-0.15776028184920418, -1.6320218398845976, 0.5434401300804139, -1.1019995382064411, 0.11809479474985363, -1.6960341436683846], [-0.17973404427416925, -0.33457216743476603, -0.5003252749751586, 0.4953636443926243, 0.8728889653984895, 0.2548478010506435], [-0.21374842467319174, -0.36919403080544566, -0.17437228480039657, -0.428051518719752, -0.04459542609142747, -0.67119111006718], [0.774538700595591, -0.09613634232463755, 0.3326659234462522, -0.3398020958549681, -1.2218479294132154, 0.894958264658964], [-0.5499621611652972, 0.34810614194441714, 0.9434611836400186, 0.2285120046811496, 1.1376519615462544, -1.1112271025132117], [0.5976915380854786, -0.5072374832697596, 0.6174148269003463, -0.3511148652564944, -0.4645522771463648, 0.3913557953027673], [-1.0262396991528306, -0.01371452208475968, -1.0851037434963229, -0.13528424240004225, 0.5887085113663957, -0.26029267702377207], [-0.44869814862635066, 0.42404754336951955, 0.7907281721336814, -0.09099511300841429, -0.8160809156289478, 0.5773729168936872], [0.24730587486122874, -0.16422444528542035, -0.9641038487387702, -0.4955551313653327, -0.7049966868997767, -0.0924305141922134], [0.34731049430898575, -0.6083051466538074, -0.8711647406288832, -0.7301541310285843, 0.7169752088666121, 1.3055352711882344]], "b1": [[-0.007291006616712851], [-0.008748703633261686], [0.0010642308079692406], [0.01176477620091827], [0.004410126351435332], [0.0007706422038038758], [-0.01909052486920914], [0.016636576646321923], [0.004072484182793211], [0.018606610656429688], [0.02269135108339144], [-0.04065368376769692]], "w2": [[-0.4738634717824375, -0.09552324831323146, 0.29488749784469753, 0.6011306725912502, 0.15197231277273043, 0.39665067371400975, -0.9737563387430335, -0.4894920360460384, -0.1077630101046831, 0.4805590707010327, 0.3630452342573378, -0.26478670920613095], [0.04628778404852713, 0.3762342146018813, 0.2907913129026062, 0.05291974727114788, 0.06309904837590377, -0.3896570321573292, -0.11222432854548588, 0.6225592017710934, 0.6743511149342724, 0.1125665453038787, 0.5797020307128503, -0.17278354378682448], [-0.4113657827502941, -0.27514158945600387, -0.17679868897469458, 0.05375285041399554, 0.2446526782018303, 0.40708451271966445, -0.48341825477949557, -0.12899701628619994, -0.2628725592214785, 0.26062865245097255, 0.61389128547642, -0.5852520144911544]], "b2": [[0.017960501115459153], [0.04627280674618377], [0.05964466770544361]], "epsilon": 0.92274469442792}