{"w1": [[-0.38700462384584666, -0.08206568271189878, 0.7666226299585985, -0.9583250094340845, 1.5142125867434166, -0.3513606039153008], [0.03675073317579494, -0.04380775251965448, -0.33181981634937013, -0.2053007527492883, -0.33811321988708104, 0.3440988657892276], [-0.44992135324414284, -0.06747105580723024, 0.21414099281880916, -0.2254012431834017, -0.8270106435677561, -0.2660642230214727], [0.548432834401969, 0.21125008350707675, -0.022650829513674493, -0.36830882973326945, 0.48532573456042744, -0.1974025206319938], [0.46925620978641164, -0.2723975639253658, 0.4988830055458647, -0.26819129614322984, 0.3336120440967931, 0.39281054240765], [-0.07761804807737191, -1.0064221378757126, 0.3378056744889588, -0.256815782603877, -0.736257195668579, 0.46839532611735163], [-1.602857419680754, -0.804279363073385, 0.3113942066757361, -0.014964388235660875, -0.7717918847014563, -0.8349521154887202], [-0.03801671397069151, 0.25952335668785975, 0.25484074869718204, -1.1075020202367711, -0.3908889710580353, -1.2205021640249236], [0.6354410147995007, -0.8779719261656078, -0.7794527169304025, 0.149609618088013, 0.3208038330333284, 0.6579715605443816], [0.5018023088025562, -0.2692798666599815, 0.4341494334092802, 1.1927386070155899, -0.013919113796688589, -0.10282092318032952], [-0.337461510582064, 0.30653719621880454, -0.030972990152781578, -0.39124564380759, 0.57499473683953, 0.14807283936945387], [0.4939637851698861, 0.46930970086789503, 0.4801625900396227, 0.2525091133420949, 0.2575425878783586, 0.33218630261028476]], "b1": [[0.06790325506713012], [-0.05913233160830614], [-0.060535532046949905], [-0.012547901814809706], [-0.06547367324098749], [-0.02837693870901123], [-0.08875691734381182], [0.026499378506466373], [-0.10825995407500004], [0.03467748832788733], [-0.0033251433572010496], [-0.0099265678594648]], "w2": [[0.3086731492770672, -0.1266479710280241, -0.1703407201448576, 0.3425889345882045, -0.26264975978607663, -0.1253698873446455, -0.125686593336154, -0.1098197957180919, 0.20483197732773156, -0.20864088773052905, -0.1728937270535692, 0.4553625035898037], [0.7252637307926312, -0.20510663911365482, 0.36161100747089625, -0.09082643000448719, -0.4027523340625371, 0.16849971672498315, -0.5252524699133914, -0.3787076002163918, -0.8285668577165225, 0.45065414152314837, 0.16454165886156386, -0.06486408248287036], [0.18656156282336353, -0.18209508512102335, -0.6780732693958648, 0.19553437938481275, -0.41400641061758386, -0.2324269433642889, -0.7261085521272331, 0.7120203209089488, 0.6033470626418347, 0.31411499831685635, 0.6700155490100465, 0.3323867575945107]], "b2": [[0.0643094175927532], [0.1300736567038573], [0.040667807992057374]], "epsilon": 0.92274469442792}