{"symbol": "FDUSDUSDT", "timeframe": "4h", "weights": [[0.00010874374175419143, 7.147750079920482e-05, -0.0003527754028865862, -0.0013016337968105923, 0.0001087476354916346, -0.0013016337968105923, -0.0015818895452671703, -0.00035277540288657496, -0.001301633796810625, 0.0001937135489327187, -0.00012688684156198006, -9.756807220186036e-05, -5.1950955151268044e-05, -0.0001937841941240747, -0.0002012734798140613, -0.00016667302271794365, 0.0004030106035207154, -0.019162133160521552, 0.036859246505095436, -0.26863366709715125, -0.2109972094075134, 0.03239460858756852, -0.2715731173860826, 0.08248050963181655, -0.0001387013214762103, -0.0347761069002424, 5.621242228564551e-05, 0.0759426168364862, -0.030895161285532678, -0.0331731112432888, 4.565723265668246e-06, 3.656945709290333e-07, -0.3523506432525835, -0.22933011960372068, -0.23350201329052583, -0.31733896551444196, -0.10860894967171775, 0.12732765266330032, -0.2887228482440159, 0.6489229508316124, 0.11745947115650567, 0.10221987335015077, -0.019048983425146923, -0.312915826349356, 0.08133041133592776], [-5.43718708770956e-05, -3.573875039960234e-05, 0.0001763877014432933, 0.0006508168984052964, -5.437381774581718e-05, 0.0006508168984052964, 0.0007909447726335858, 0.00017638770144328772, 0.0006508168984053128, -9.685677446635938e-05, 6.344342078099014e-05, 4.8784036100930174e-05, 2.5975477575634043e-05, 9.689209706203736e-05, 0.00010063673990703068, 8.333651135897184e-05, -0.00020150530176035793, 0.009581066580260783, -0.018429623252547756, 0.1343168335485756, 0.10549860470375684, -0.016197304293784322, 0.13578655869304138, -0.041240254815908234, 6.935066073810513e-05, 0.017388053450121253, -2.8106211142822727e-05, -0.03797130841824311, 0.015447580642766323, 0.01658655562164436, -2.2828616328341148e-06, -1.8284728546456443e-07, 0.1761753216262918, 0.11466505980186043, 0.11675100664526282, 0.15866948275722098, 0.054304474835858846, -0.06366382633165021, 0.1443614241220079, -0.32446147541580617, -0.058729735578252784, -0.051109936675075435, 0.009524491712573507, 0.15645791317467803, -0.040665205667963916], [-5.437187087709561e-05, -3.5738750399602376e-05, 0.00017638770144329328, 0.0006508168984052964, -5.437381774581721e-05, 0.0006508168984052964, 0.0007909447726335857, 0.00017638770144328772, 0.0006508168984053126, -9.685677446635931e-05, 6.344342078099011e-05, 4.87840361009302e-05, 2.5975477575634036e-05, 9.689209706203738e-05, 0.00010063673990703068, 8.333651135897187e-05, -0.00020150530176035782, 0.009581066580260788, -0.01842962325254777, 0.1343168335485756, 0.10549860470375678, -0.01619730429378432, 0.13578655869304138, -0.04124025481590823, 6.935066073810518e-05, 0.017388053450121253, -2.8106211142822713e-05, -0.037971308418243095, 0.015447580642766332, 0.01658655562164436, -2.2828616328341156e-06, -1.8284728546456697e-07, 0.1761753216262918, 0.11466505980186043, 0.11675100664526282, 0.15866948275722095, 0.05430447483585886, -0.0636638263316502, 0.1443614241220079, -0.32446147541580617, -0.05872973557825278, -0.05110993667507542, 0.009524491712573503, 0.15645791317467808, -0.0406652056679639]], "biases": [1.2699651591991834, -0.6349825795995918, -0.634982579599592], "feat_mean": [-4.967404131391871e-06, -1.5973935418066378e-05, -2.3112666508124816e-05, -4.161813539728761e-05, -4.987062492453405e-06, -4.161813539728761e-05, -8.7374147673981e-05, -2.311266650812511e-05, -4.161813539728505e-05, 3.794490874780131e-07, 0.0001911852415330001, 0.00019531039169475443, 0.0001979436494204394, 0.0005108912068551355, 0.000589177084509706, 0.0007968098456847485, 0.0009675291128337166, 0.46988162386456606, 0.028817311674387232, -689225.3896480335, -10501.503733552343, 1.07004974365124, 0.029694566022738227, 55.68026562462312, 0.000799613168910607, 0.46860086817647323, 1.1688652508644116e-05, 0.42016410129067466, 0.37971031458661386, -0.0786817609279269, 1.629592966479163e-07, 1.9388678267877893e-07, -0.012191654754485685, 0.5262333802046906, 0.1444972377918226, 0.16752146548812438, 0.44442493710266345, -0.17548046664660905, 0.012742912561605129, 1.343287102653092, 0.7608695652173915, 1.0527950310559004, -0.06905427229468748, -0.1322372328137688, 0.11585622365905433], "feat_var": [1.0000126521110393, 1.0000273210349144, 1.000038822868807, 1.0000606275751247, 1.0000126519404686, 1.0000606275751247, 1.000074940135507, 1.000038822868807, 1.0000606275751247, 1.0000256398003633, 1.0000020532616218, 1.0000011058903784, 1.0000006553739282, 1.000000591892944, 1.0000008339608, 1.0000017127387595, 1.000036995796408, 26.328103574158785, 349.9273700040413, 3.2817521739426336e+16, 1772850758902.871, 788.966202664801, 40.074609555033426, 161287.11806176737, 1.0000311939542599, 14.435899027322243, 1.0000042125716826, 10.454577238365738, 10.979908229705108, 31797.964944955293, 1.0000000741931976, 1.0000015645912745, 41.818914371652326, 38.514707834414665, 104.81552666862414, 393.8977113018317, 2.0952530381802092, 15.573601636047023, 23.64980926470961, 42.77179133142496, 335.5869565217391, 651.1024844720496, 34.795969583459375, 69.17140203896983, 3.9073928965646196], "count": 322}