{"symbol": "FDUSDUSDT", "timeframe": "1h", "weights": [[0.00013683850552755243, 0.00034333507437666667, 0.0006697468145246167, 0.0010609532927441814, 0.0001368261145273959, 0.0010609532927441814, 0.0011395947795192162, 0.0006697468145245916, 0.0010609532927441543, -0.00025286037447939664, -4.500894121875197e-05, -8.852082953212996e-05, -7.381068223812106e-05, -5.693065270623684e-05, -6.455277367815125e-05, -0.0001378273918787398, 0.00030623746130073573, -0.08806797005572255, 0.10948282967602167, -0.008148124433563945, -0.7688385626636142, 0.08016747819934376, -0.28483948300776524, 0.036633541363845376, 2.0679819688927925e-05, 0.03793482708227785, 8.079754689978157e-06, 0.030702030169399104, -0.04078576067283324, 0.004680475062875658, -3.7142263440388163e-06, 1.0054890205910518e-05, -0.02149024903249043, -0.047968965395231426, 0.05243198478637724, 0.2984437366047894, -0.04245486024435793, 0.20787332253614244, 0.01976593133791531, 0.5701725883816773, 0.04766139920862043, -0.06515460552483086, 0.08168768072464351, 0.010153010400837515, 0.1567383294356431], [-6.841925276377613e-05, -0.0001716675371883335, -0.0003348734072623086, -0.0005304766463720907, -6.841305726369789e-05, -0.0005304766463720907, -0.0005697973897596081, -0.000334873407262296, -0.0005304766463720773, 0.00012643018723969843, 2.2504470609375955e-05, 4.4260414766064924e-05, 3.690534111906051e-05, 2.8465326353118394e-05, 3.22763868390756e-05, 6.891369593936988e-05, -0.00015311873065036814, 0.044033985027861336, -0.05474141483801077, 0.0040740622167819455, 0.384419281331807, -0.040083739099671944, 0.14241974150388262, -0.0183167706819227, -1.0339909844463942e-05, -0.018967413541138924, -4.039877344989077e-06, -0.01535101508469955, 0.020392880336416605, -0.00234023753143776, 1.8571131720194143e-06, -5.027445102955237e-06, 0.010745124516245166, 0.023984482697615706, -0.026215992393188593, -0.14922186830239467, 0.021227430122179012, -0.10393666126807115, -0.00988296566895763, -0.2850862941908387, -0.023830699604310175, 0.03257730276241545, -0.04084384036232173, -0.005076505200418767, -0.07836916471782152], [-6.841925276377613e-05, -0.00017166753718833344, -0.0003348734072623085, -0.0005304766463720907, -6.841305726369786e-05, -0.0005304766463720907, -0.0005697973897596082, -0.0003348734072622961, -0.0005304766463720773, 0.00012643018723969846, 2.2504470609375935e-05, 4.426041476606495e-05, 3.6905341119060495e-05, 2.8465326353118394e-05, 3.22763868390756e-05, 6.891369593936988e-05, -0.0001531187306503682, 0.044033985027861336, -0.05474141483801075, 0.004074062216781949, 0.384419281331807, -0.04008373909967193, 0.14241974150388256, -0.018316770681922695, -1.0339909844463953e-05, -0.01896741354113892, -4.0398773449890686e-06, -0.015351015084699554, 0.020392880336416598, -0.002340237531437754, 1.8571131720194152e-06, -5.02744510295523e-06, 0.010745124516245172, 0.023984482697615706, -0.02621599239318858, -0.14922186830239467, 0.021227430122179012, -0.10393666126807119, -0.00988296566895761, -0.2850862941908387, -0.023830699604310168, 0.03257730276241544, -0.04084384036232171, -0.005076505200418783, -0.07836916471782149]], "biases": [1.5756577706209822, -0.7878288853104912, -0.7878288853104912], "feat_mean": [2.0939200606347363e-07, 1.42811443384933e-06, 1.0286325670368085e-06, 4.368776646916927e-07, 2.0213136634404215e-07, 4.368776646916927e-07, 2.8910351093621076e-06, 1.028632567039632e-06, 4.368776646920515e-07, 4.852569110005893e-06, 0.00010938254419983282, 0.00011381700499104845, 0.00011577934270936602, 0.00012634519883290466, 0.00012911328504636312, 0.00017758958667500176, 0.0005511096462905287, 0.5004561988044081, -0.010654696810299768, -4095.1832017141132, -915.4572978997742, 1.077246638471645, -0.03508900664078495, 47.7421356214587, 0.00018225784182658147, 0.4194203944204, 6.273089012609592e-06, 0.3347498797498729, 0.2235962802629532, 0.2976190476190329, 2.0672132244533247e-08, 2.0254418084280635e-06, -0.08582133106916064, 0.5116623408863262, -0.13741561395731297, 1.7388799592446444, 0.443025822019851, -0.2969388724031686, 0.04439121599017174, 1.1384823932559354, 0.3131313131313132, 0.32525252525252474, -0.029897669893527178, -0.20458673248288425, 0.379695524124483], "feat_var": [1.0000071878480692, 1.0000127822755098, 1.0000176766811428, 1.000032354725568, 1.0000071880949972, 1.000032354725568, 1.0000610889614139, 1.0000176766811428, 1.000032354725568, 1.0000155099663124, 1.0000021777852977, 1.0000012214787721, 1.0000006769454246, 1.0000008210539608, 1.0000009906607312, 1.0000018761509306, 1.000038585356995, 51.40285723154463, 659.6276310023371, 30127636365760.25, 378390327.6648992, 587.928016179805, 18.078045629962638, 164284.3945378496, 1.0000083693418789, 94.58387254059883, 1.0000018556021886, 80.72201835245781, 65.927241915248, 69119.12468532144, 1.0000000426983406, 1.0000013766034914, 136.49793205455015, 67.78190469990757, 438.9704466110183, 2619.0017158934, 3.4088140211617666, 26.77405605507095, 51.295450330045504, 47.816433650632945, 165.46464646464642, 171.63434343434366, 492.15624326379225, 1073.0422108060775, 51.76715765350824], "count": 495}