{"w1": [[-0.42407682991557655, -0.009142417154302888, 0.04433737810031595, 0.01957302240596812, -0.7817667446629406, -0.1440912996848581], [0.1521365564905833, 0.3190794325109773, 0.4803723277606059, -0.08313802611258916, 0.04932350938146299, 0.3746987899659813], [-0.04850267822946142, -0.04793118825204174, 0.06373179899260549, -0.4946504545276799, 0.790667890789338, -0.6545174285940045], [-0.9287976335151942, -0.20619221278709823, 0.4660246332995381, -0.7282091084649062, -0.3990627318037004, 0.6436868191088613], [-0.7607027682549864, 0.7540718782433139, 0.013569299020228482, -0.17993367056823562, -0.9428403234857637, 0.08221748171858738], [-0.7764057751114194, 0.8098026647698316, 0.7951223657011157, -0.8937728549824482, 0.33161063071340763, -0.3310440749159825], [0.5546662410604831, -0.21462632784885488, -1.0428083618613082, -1.1932931703396914, -0.15757300438620142, -0.11128573479096122], [-1.0532228767366045, 0.2976063084102095, 0.08010950848206447, -0.08292919532953932, -0.5018820441228534, 0.8400702851095236], [-0.4975107180121569, -0.056445032268041616, 0.3138693443984057, 0.7202504213147314, -0.11275174364448431, -0.34743049243028146], [-0.361474816289621, -0.445583578396817, -0.6094389675966451, 0.3136516231798867, 0.7068713804668711, -0.8527577419338859], [-0.10332413887766013, -0.8698714056298127, -0.21622332504483976, -0.15910092488688085, 0.21149810256238277, -0.4627471001962509], [-0.09666407150351762, -0.11166878954309818, 0.046356975511081276, 0.2087385322228659, -0.09222501913559518, 0.15893732129528393]], "b1": [[-0.03730509031374473], [-0.0022745340444415376], [-0.004092002429902352], [0.026007033127300676], [-0.01946318237142058], [-0.005544576549318539], [0.0039470653482479925], [-0.002022818728571419], [-0.021337364410343323], [-0.0032154250506197866], [0.006394216874714126], [0.029172100554244584]], "w2": [[-0.8049058312529065, -0.10706925026216484, 0.5067097860569553, 0.5374193853719849, -0.1011546677640218, 0.18511192539114837, 0.29969407491551314, -0.18192274372286496, -0.6502051430573783, -0.2029487951617171, 0.04986897161947409, 0.5060744627404317], [-0.10701419739645325, 0.11047953467953822, -0.5742614453555206, 0.028914679595875434, 0.34553891560648087, -1.1199396409327382, 0.6065337996980611, 0.303181285872972, 0.6947898860476343, 0.06535114168450966, 0.45883195885554, -0.36886638487049817], [-0.08978041500047816, 0.049980045037588634, -0.009901358689494448, -0.05970580576084179, -0.8253146520370083, -0.03215838899174552, -0.03964057989133518, 0.3673932059246646, -0.21077931030671618, -0.03791921383095943, 0.3017647880562826, 0.4795186591291882]], "b2": [[0.056824991033981406], [0.02783082519182782], [0.018772979524702405]], "epsilon": 0.92274469442792}