{"symbol": "MSFT", "timeframe": "4h", "weights": [[-0.0067422064188856975, -0.013056391616610107, -0.020431346149156707, -0.01676720484948568, -0.006612229187303798, -0.01676720484948568, -0.06786534524380726, -0.020431346149156794, -0.01676720484948572, -0.019278301758026854, 0.020087618285793384, 0.015270998346073244, 0.00504732287397019, 0.001380191158883801, 0.0016292937536058582, 0.0020407777916535506, 0.015974195056967233, -0.07595700548248054, 0.029047576219973757, 0.08448511074575706, 0.014602658461579432, 0.041193728550126, -0.08694741252217697, 0.03753015852236223, 0.016465776667606093, 0.03297229430797056, -0.006609143833280625, -0.08110105349809266, 0.009825988581017917, 0.07713884142669962, -0.08681746742243662, 0.0022119120383586413, -0.20077683841508437, 0.1351093027613612, 0.019534144452369, -0.03950254155374618, -0.013119374523269098, -0.08549555598072146, 0.03270301559532353, -0.019271343073908355, 0.11237073128051614, 0.06794822344399067, -0.04261822217247099, -0.010402171621951055, -0.09278689565601708], [-0.017494583706493386, -0.03579405584135664, -0.02971131998203428, -0.05459799702323047, -0.017690440572579777, -0.05459799702323047, -0.014255108612584966, -0.02971131998203428, -0.05459799702323044, -0.01347468627922423, -0.0019399649356316765, -0.009325430129763267, -0.0024584995219449324, -0.000548446406878375, -0.0011110501711916014, -0.00029006225572814656, -0.006493456309295899, -0.0012556735988867446, 0.027205720213442995, -0.3368216137799224, -0.20068903298156837, 0.005106308728294432, 0.05882916432414134, -0.033317042153313194, -0.0037259654333450867, -0.07385110067095652, -0.01020790257874613, -0.0016324882331513746, 0.0030246521490292187, -0.10011130661348622, -0.07798085449838302, 0.0063408148859544515, 0.09585499287722772, -0.006950520701695837, 0.10848256619052107, -0.0611035894680165, 0.01471971862394758, 0.024022489457429942, 0.0023307810543276297, 0.03037459796277479, -0.23009705831479513, 0.12153841865087014, -0.07037012546608225, -0.09248370252512883, -0.12358568603821092], [0.02423679012537908, 0.04885044745796674, 0.05014266613119099, 0.07136520187271614, 0.024302669759883568, 0.07136520187271614, 0.08212045385639223, 0.050142666131191053, 0.07136520187271615, 0.032752988037251074, -0.018147653350161705, -0.0059455682163099665, -0.0025888233520252567, -0.0008317447520054261, -0.0005182435824142574, -0.0017507155359254036, -0.00948073874767133, 0.0772126790813672, -0.05625329643341674, 0.25233650303416544, 0.18608637451998908, -0.04630003727842045, 0.028118248198035566, -0.004213116369048997, -0.012739811234261008, 0.040878806362985985, 0.01681704641202676, 0.08273354173124389, -0.012850640730047115, 0.022972465186786663, 0.1647983219208196, -0.00855272692431309, 0.10492184553785648, -0.12815878205966533, -0.1280167106428901, 0.10060613102176268, -0.001600344100678503, 0.0614730665232915, -0.035033796649651165, -0.011103254888866392, 0.11772632703427895, -0.18948664209486077, 0.11298834763855321, 0.10288587414707984, 0.21637258169422788]], "biases": [0.12644728046694248, -0.04444511236775946, -0.08200216809918301], "feat_mean": [4.4365667870188176e-05, 0.0008542343085431197, 0.0011636741434692351, 0.0019569669381120773, -3.249071439026268e-05, 0.0019569669381120773, -0.000349450978214922, 0.0011636741434692373, 0.0019569669381120747, 0.0012461614359616457, 0.010833820550487617, 0.011622998743026762, 0.011752238747672353, 0.009832210173591996, 0.009881786158692849, 0.015686406894045494, 0.08761340219201541, 0.45765935399126895, -0.04320912325512739, -234288.55104084374, -249873.77756112663, 0.9922070425148054, -0.008854335690347347, 50.460393017829226, 0.014633394470103573, 0.5142675239330816, 0.00021098575691769021, 0.2836719833746736, 0.30775742175893583, 0.9312890182973662, 0.005677721486148679, 0.0009423806671674162, -0.34172803958999626, 0.5904008617625099, -0.034679175773590636, 2.649831908836707, 0.5302549442574611, -0.1419441306254567, 0.06959543980354771, 1.0085148509777857, 0.9043478260869563, 1.1217391304347832, -0.15251288484437586, -0.3220308017916175, 0.7710403420292845], "feat_var": [1.0176344866081235, 1.0543334222936873, 1.0948324659882025, 1.2182616475644727, 1.0177016417729774, 1.2182616475644727, 1.5401302007574187, 1.0948324659882025, 1.2182616475644727, 1.0349242353701944, 1.004236442751961, 1.0022436473022023, 1.0014370753517194, 1.000220781999594, 1.000221716052265, 1.0006086312279596, 1.2713188511779612, 13.141587872474249, 115.76975319771401, 3872240457706751.0, 107876634076178.69, 25.35409978995477, 21.294756986319257, 36166.41230081192, 1.0071253712364672, 11.017306597371242, 1.0070434733019031, 6.879115210969424, 6.529964726406656, 12950.597511313166, 16.688035863680895, 1.0095150616021265, 335.2281815660441, 20.028054499176353, 202.74303274968875, 788.7584082477384, 1.32236282284138, 3.222359723831232, 13.576562432315047, 27.66302931155468, 164.9478260869565, 283.2956521739132, 406.4769394568846, 899.8658738971197, 43.370750602069336], "count": 115}