{"w1": [[1.241278715889904, 0.998399661121295, 0.8944786767785483, -0.2891761163311053, 0.05365876203629389, 0.21422094663430571], [-0.4850508256982273, 0.6222018510276495, 0.6546173035626903, 0.129939071302723, 0.6590829689328846, -1.2612587421034718], [-1.1477610687222786, 0.11078682338492912, 0.2972853029491304, -0.7186269763190224, 0.8650175080303575, -0.464241004045014], [0.8222560364392176, 0.2669290578662785, 0.05014953405341986, 0.49204965695841935, -0.5909494457637194, 0.18283341293446337], [0.5210146788351645, -0.24100403415334024, -0.052613396095828054, 0.6581433269135686, 0.3291004611218725, -0.5756425002496828], [0.4613334384092159, -0.6451271292428907, 0.2350149053386606, 1.5386884110916363, 0.07351172860410735, -0.5676237702452271], [0.5445544795637257, 0.8251016033237711, 0.8553764498020119, 0.0966802916300008, -0.7394143966409197, -0.6140857486964122], [-0.1298037265029904, -1.0753149841668563, -0.5717510047421094, -0.326120242690021, 0.6342490673574648, -0.0696602020083309], [-0.3452093681540601, -0.008194114033934288, -0.1452428636541228, -0.7482405765543652, -0.7124856422723985, 0.6513728297131364], [-0.6750448974748511, 0.6155308596070234, 0.18283789140723017, -0.2301185108170798, 0.4626140998300789, 0.1028425780320424], [-0.5164104525035672, 0.5905658290488923, 0.005877162340301997, -0.5308220253301658, 0.5131976958606511, -0.1748558426476124], [0.448007096901065, -0.4408373196838419, -0.39428821319664564, 0.37060697038477664, -0.45748957458994116, -0.2035217890563563]], "b1": [[0.08660102694901806], [0.10294200483414888], [0.03490140065842343], [0.05934746160862649], [-0.17205274998849082], [-0.1285769845002919], [-0.08835480361003234], [-0.0724666001258932], [0.10838214344438944], [-0.04029753323994272], [0.019291330689074033], [-0.041723092965714303]], "w2": [[0.060370175723099995, 0.15687546346386252, -0.27694849382952347, 0.021205593970864033, -0.1292586977163316, -0.008897013005127302, 0.0005881415990607217, -0.051712462945373475, 0.09721316403284216, 0.8102675294943915, 0.6165642657074312, -0.1348842899002737], [0.3121686085654896, 0.4882927085026322, 0.41254414605252415, 0.32845629164535917, 0.40361504787354463, -0.0981821312648872, -0.39982528488374675, 0.42445783450522795, 0.3024858162692954, -0.1978524937335287, 0.03464912149632846, -0.3764651223013299], [0.2404309800405298, 1.036917736345798, 0.07899859923980625, -1.0341391800049926, -0.8111404265955631, -0.24877232851010955, 0.5684249597582153, 0.034615841615662085, 0.2817112364810077, 0.550005716693409, -0.42602388751634046, 0.11973783122870789]], "b2": [[0.1574249008978168], [0.08762585038902944], [0.11949503102943287]], "epsilon": 0.92274469442792}