{"symbol": "MSFT", "timeframe": "15m", "weights": [[0.004588058921725365, 0.008372759078432225, 0.012293789934020775, -0.0048371933065577775, 0.004558235264827705, -0.0048371933065577775, 0.035346319011210124, 0.012293789934020846, -0.00483719330655764, 0.003753587681226457, 0.00929100309893516, 0.006886746397798242, 0.004309559908411086, 0.0033230755866686733, 0.0016982529250766248, 0.0029663885450808593, 0.03607476437520293, 0.15556909966750854, -0.016930575463231887, -0.07929083818485881, 0.903523210515603, 0.07504015858423424, -0.18439040081878566, 0.0293833756568777, 0.008962806356737381, -0.007603030619848465, -0.004370875089051085, -0.06991201332428332, -0.1448174633316827, -0.07861931087683788, 0.05579298703868195, 0.01480739832357342, -0.12681296095416295, 0.11754630140128251, 0.0673725159358406, 0.15465681616581148, 0.122712320013579, 0.13645336726464427, -0.2488111601512908, 0.5191875974880207, 0.05054705295513076, 0.17502902520521013, -0.17360296580829254, -0.13166735024988835, -0.08042760821918045], [-0.004352243349706768, -0.007622936859308501, -0.009757171004367264, -0.001117486904175465, -0.004323208314712378, -0.001117486904175465, -0.031027811527397718, -0.009757171004367291, -0.001117486904175576, -0.005840138113221405, -0.007620480706587647, -0.006743063796035987, -0.004939823595359361, -0.003857501660358982, -0.0028800399746626466, -0.005494891695775786, -0.041172238354480084, -0.1099018627139241, 0.04498228692532998, 0.033898447215493746, -0.5449012193042341, -0.0018160163394876335, 0.157804340482277, -0.0324222400687617, -0.00786685451720132, 0.00679361322903369, 0.0031586967420525174, 0.07013217846709267, 0.10908106761253544, 0.09590873615883616, -0.049271147365279225, -0.010942830333269298, 0.12353793502563902, 0.0034959835392379306, -0.028603271461436604, -0.13679100852109355, -0.09639218856775536, 0.1577354902614342, 0.09735896072274033, -0.1812679382712304, -0.0014970884661447892, -0.12105215773454826, 0.059450491443958225, 0.016608884444450554, -0.012918965014807604], [-0.0002358155720185958, -0.000749822219123729, -0.002536618929653512, 0.005954680210733243, -0.0002350269501153294, 0.005954680210733243, -0.004318507483812329, -0.0025366189296535543, 0.005954680210733197, 0.0020865504319949367, -0.0016705223923475072, -0.00014368260176224955, 0.0006302636869482806, 0.0005344260736903109, 0.001181787049586022, 0.0025285031506949284, 0.005097473979277122, -0.04566723695358431, -0.02805171146209812, 0.045392390969365114, -0.35862199121137034, -0.07322414224474673, 0.02658606033650832, 0.00303886441188402, -0.0010959518395360665, 0.0008094173908147457, 0.0012121783469985668, -0.00022016514280949646, 0.03573639571914716, -0.017289425281998196, -0.006521839673402771, -0.003864567990304127, 0.003275025928523933, -0.12104228494052027, -0.038769244474403816, -0.017865807644717714, -0.026320131445823423, -0.2941888575260784, 0.15145219942855012, -0.33791965921678924, -0.04904996448898602, -0.05397686747066171, 0.11415247436433404, 0.11505846580543821, 0.09334657323398805]], "biases": [1.378218137112058, -0.5772355952855253, -0.8009825418265336], "feat_mean": [0.00010094522548410306, 0.0003201935984261806, 0.0005037613459580499, 0.0010798678262805383, 9.526689488727045e-05, 0.0010798678262805383, 0.0020751805456332498, 0.0005037613459580463, 0.001079867826280533, 8.545139655928815e-05, 0.002746512821533441, 0.002968678335978044, 0.0031889319482237533, 0.002923404134551642, 0.0029585636411103198, 0.004275763604911895, 0.020512633277615253, 0.4776615979974508, 0.035622925202290864, 5912.573100704016, 103396.40709148209, 1.0416103256415699, -0.09149875891056573, 50.51500130011558, 0.004075450232342676, 0.5081224838041074, -1.1947767685364835e-05, 0.26724825376578915, 0.2724221944119804, -0.35920113561885375, -0.0003069247910384118, -0.00011361168975794009, -0.09158957251581454, 0.47672680805837125, -0.0765517130130054, 3.762056822491797, 0.49711217400833996, -0.06644119293952198, 0.0007000620852337672, 1.1571594913841796, 0.9777777777777769, 0.991919191919191, 0.08707742948468665, 0.13968268648266652, 0.5990247559680538], "feat_var": [1.005637979490659, 1.0164456890206162, 1.0256150360951053, 1.0502861753912518, 1.0056065187394954, 1.0502861753912518, 1.0999158244841352, 1.0256150360951055, 1.0502861753912518, 1.0117199128509846, 1.0020304836205707, 1.0013778796644448, 1.000757779827129, 1.0002515119130468, 1.0002189421309136, 1.000814681437726, 1.0786629042376528, 51.28010399489737, 639.9127397799847, 151502634205655.9, 1641118240805.5547, 597.1370368138909, 100.55593620182053, 118697.61412166008, 1.0041063985687568, 49.548544925762904, 1.0022032521125999, 23.521369901674838, 23.89117709910784, 76731.08220857859, 6.433197380573887, 1.0034947957260483, 132.81641780211802, 66.74520262898868, 1230.6371491407347, 8701.537571214936, 2.8517832818174136, 25.8077932358287, 33.82521572148751, 58.45376994047808, 879.7555555555565, 1010.9676767676759, 972.748099394161, 2250.762109844628, 80.67776963544955], "count": 495}