{"w1": [[0.6909367440936128, -0.6363929692287161, -0.008115218414263641, -0.9267385480671247, -0.18111456338370577, 1.596581391848497], [0.9155098734305005, 0.3415159412284347, 1.0244152935520578, -0.003432698456551239, -0.4999554235847796, 0.24755251718172328], [-0.12865803911371693, -0.010661899298785173, 0.0071222704904129845, 0.39987688521814807, 0.4636394568649717, 0.08343442346755021], [0.3627927765574165, -0.5479525234608966, -0.5913246158837281, 0.4894517357408512, 0.35468856753403705, -0.8759058542390807], [0.189088963211558, -0.885554211334577, 0.7356674724709835, 0.395165331334539, 1.0713954265000603, 1.0630705219670222], [0.9908310712880085, -0.8135925775129331, -1.1804489462170427, 0.18252303919846818, 0.1153546172663664, 0.7273032752056614], [-0.8049808221893248, -0.6662601210378938, -0.39961537888038806, -0.4912472147378538, -1.4918450529857405, 0.2904555600195732], [-0.5246324282885085, 0.5404126176401013, 0.12568382010407342, 0.47056232548305155, 0.1413329208489448, 0.3425417309382265], [0.6351132403256399, -1.0988542404761439, 0.025189148067230955, 0.7679151497605652, -0.03901739328758472, -0.04513610893195139], [0.5892878817795019, 0.6571829231411117, 0.6517396900675285, -0.17575052122564436, 0.16925003327850174, -0.9277526997650434], [-0.16449897748796477, -0.19062339509689566, -1.0747731055218679, -0.5826144181858978, -0.8115979071481094, -0.413519653382452], [0.807950924734543, 0.675178265775918, -0.04290351147860286, -0.24969513412018154, 0.4221114245488086, -1.1116803271039515]], "b1": [[-0.1204630897402878], [-0.10866127503500358], [-0.1681799520878135], [0.04233398798480688], [-0.04394161071370451], [0.030770577155003618], [0.05584091088834352], [0.12771397634013806], [-0.07919787955520041], [0.05763775165326037], [-0.0748200728326186], [-0.07445045593264032]], "w2": [[-0.2950454446689835, -0.5814599508487756, -0.19523879014917941, 0.4679703807277569, -0.18918309923760426, 0.11011944719357733, 0.35996598170151617, 0.46326609065565283, -0.2240866037385371, 0.1881760509657617, -0.020673723725392504, -0.2809984208645441], [0.0652873566718537, -0.011687700184047025, -0.13554897244124406, -0.834996099757354, 0.6786182823071727, 0.04545392392478237, -0.3689698287103792, 0.3104834415823815, 0.17141991689040842, -0.11332828365311852, -0.24687307386099028, 0.2230676150075007], [0.3937234406407121, 0.22652744099555472, 0.18047812755797846, 0.05956698886039072, -0.0036120060857115386, 0.28271442607388414, -0.23213453683855556, -0.3241492626736036, -0.11439181521428078, 0.5850064439780935, -0.598543248312717, -0.037630778714726566]], "b2": [[0.22418260230100215], [0.10687872381013515], [-0.029658388880711258]], "epsilon": 0.92274469442792}