{"symbol": "MSFT", "timeframe": "1h", "weights": [[0.023705702428751085, 0.03540456554900041, 0.031103894143857266, -0.005224023499051322, 0.024004524107626903, -0.005224023499051322, 0.07812394635002211, 0.031103894143857592, -0.005224023499051483, 0.0037545369927527426, 0.008562968297080994, 0.013260821760131249, 0.0229869397315824, 0.009755828257628673, 0.011005706012491082, 0.016939985786922403, 0.11324436982833248, 0.1603487705402194, 0.19368364330384114, 0.13674150270367394, 0.14168514202635116, 0.20382162515190108, -0.06829748150401135, 0.05983786328551355, 0.02850235291776494, 0.019004303768282264, 0.020179007979929275, -0.11843154052832133, -0.017991564435844383, -0.05100536710135498, 0.09839984035272017, -0.024856741920181277, -0.0669942746323113, -0.11729954838825092, 0.00986441156760328, 0.14082846830178067, 0.20852247375930769, 0.09522099784648211, -0.14340572661544249, 0.3444611610097073, 0.1505096407189416, -0.08886848109120618, -0.12875289656798433, -0.13592028300545725, -0.26649081077248615], [-0.02989228278966499, -0.04725642499409486, -0.06184666537978825, -0.032405915915764714, -0.030411166962335957, -0.032405915915764714, -0.10074254370175822, -0.061846665379788335, -0.03240591591576471, -0.01188744587492569, 0.008952255946208845, 0.005198412116659643, -0.008746771766940357, -0.0035555391280783677, -0.004791748302600409, -0.006900570031933952, -0.07355157157814009, -0.13699091098415292, -0.159352045845795, -0.14695158928723528, -0.390037270145526, -0.12494381818468091, 0.06534525544953955, -0.18228324160390724, -0.01798814194753532, -0.005597640910781114, -0.03082951309056918, -0.046955687657207916, -0.0029947209863390154, 0.019454341155298854, -0.17307810225083642, 0.020338931786916127, 0.019130739520970223, -0.02940434517383682, -0.1568765318741408, -0.13950257565961938, -0.10215144450030725, -0.1336006816987627, -0.05794223499819746, -0.12567638604737777, -0.1499725599216034, 0.135858072376435, 0.008038969543093225, 0.08110052697277877, 0.007995679553002606], [0.006186580360913907, 0.011851859445094442, 0.030742771235930957, 0.037629939414816065, 0.006406642854709076, 0.037629939414816065, 0.022618597351736006, 0.030742771235930735, 0.03762993941481621, 0.00813290888217295, -0.01751522424328983, -0.01845923387679089, -0.014240167964642026, -0.0062002891295503074, -0.006213957709890682, -0.010039415754988453, -0.039692798250192445, -0.02335785955606678, -0.03433159745804591, 0.01021008658356076, 0.24835212811917448, -0.07887780696722009, 0.002952226054471898, 0.12244537831839364, -0.010514210970229608, -0.013406662857501294, 0.010650505110639941, 0.1653872281855292, 0.020986285422183133, 0.031551025946056216, 0.0746782618981164, 0.004517810133265166, 0.047863535111341275, 0.14670389356208813, 0.14701212030653726, -0.0013258926421615205, -0.10637102925900066, 0.03837968385228048, 0.20134796161364005, -0.21878477496232934, -0.0005370807973383712, -0.04698959128522865, 0.12071392702489106, 0.054819756032678246, 0.2584951312194834]], "biases": [0.9998144862170226, -0.4257585592292806, -0.574055926987742], "feat_mean": [0.00011670000786736983, 0.00025409356703369094, 0.0004020621342100641, 0.0009021362687431691, 9.448059514376106e-05, 0.0009021362687431691, 0.0016187154097133405, 0.00040206213421006126, 0.0009021362687431676, 0.00027288247489687395, 0.00556531207293395, 0.005901169925798361, 0.00615133397603039, 0.005371293204264764, 0.005454043756094138, 0.008040416546741076, 0.042372558704680964, 0.4702930097419815, -0.0007804425750518865, 246974.35797979787, 72434.45677738092, 1.0212795728859518, -0.018266088644496387, 50.524666512082504, 0.007680513892914539, 0.5112415174503872, -8.485625931319494e-05, 0.27382421247961536, 0.279364398956756, 0.7898303059578422, 0.001653387517929157, -4.018897610500523e-05, -0.12229695798187909, 0.4838518879681192, -0.20765437780663437, 3.3471010558112813, 0.49745024074026734, -0.1343494298913488, -0.001446577923942627, 1.1860287094845072, 1.0444444444444443, 0.7818181818181817, 0.017403392299495064, 0.03091915596475261, 0.6863423786158098], "feat_var": [1.0219222565597204, 1.063006580014355, 1.1035721146679947, 1.2091989720761773, 1.0220295860729904, 1.2091989720761773, 1.4336075360031577, 1.1035721146679944, 1.2091989720761775, 1.0420377544402875, 1.0062858000919923, 1.0040896348370671, 1.0025304288910557, 1.0004260218661762, 1.0004228885170414, 1.0009673345339587, 1.2690093916538703, 52.0184002143842, 493.47523323273094, 1078090081285442.2, 65348860716248.47, 218.43208666551595, 104.94456788452683, 179146.17100866992, 1.0128747924204116, 47.005456199213775, 1.0084802023808517, 24.75661047635396, 22.32178510233422, 86944.21668713841, 20.65799608671877, 1.007841505991896, 192.27861328731566, 70.80196404543172, 1029.5045091740867, 7262.942691154627, 1.9502443866871295, 26.09859945996029, 39.28247255530501, 56.70059660549165, 1064.0222222222217, 547.4363636363634, 1379.2773966116858, 3992.6882530453745, 176.89770394032288], "count": 495}