{"w1": [[0.4974866751244533, 0.213653459747976, 0.7745986324936452, -0.18852656721557062, -0.6556067974152896, -0.6879977064587139], [0.1403685243576489, -1.1466118619219257, -0.21650022514912734, -0.21026906678716023, 0.2314615041600029, -1.0476313239955999], [0.5554220288095133, -1.1960094269423809, -0.1887818627299727, 1.1843965669001577, 0.033961330526763846, 0.01873337206513286], [0.4274182504968787, 0.6273216830328925, 0.9799673317758827, 0.40225040141941765, 0.1900444492575101, 0.1907527814140099], [0.32624888965346743, -0.2208228698036567, -0.0947329320698034, -0.04947084156263183, -0.09518904411403353, 0.4510497380710941], [-0.5145355063082365, 0.2963766345914816, -0.09577608432131789, -0.4112795936134999, 0.047142800283947045, 0.8468419507647666], [-0.40458061867663264, -0.5607498572270508, 0.07786885784916554, 0.4957704423056118, 1.0533423288401997, -0.27551825918206296], [0.05618045842424226, -1.0007210747251059, -0.359838825086527, -0.7479513680269568, -0.07350847590191804, 1.3150572382313228], [0.35494299653852096, -0.4818621561340341, -0.6180395764886134, -0.08106976237111635, 0.10621758482961347, 0.21889001332678235], [-1.0811639125969614, 0.5777353226474797, 0.8498611404959056, -0.1932183734460553, -1.0906762234746714, -1.0131099000160482], [0.08593284131334286, 0.5896109428593664, -0.5410206259888374, 0.5601088960053524, 0.8034802129742701, 0.5651751164691574], [0.4408895211932344, -0.6863225069648677, 0.5029431094330857, 0.3869919128116938, -0.06157420678235206, 0.6659160126026845]], "b1": [[-0.02065824407051083], [-0.00717128336761522], [-0.001260102433508562], [-0.02082199870233703], [0.01178046220265435], [-0.010903617732456407], [0.0024547048994805077], [-0.00029350245912624674], [-0.01831204726644177], [-0.003896146820683382], [-0.007152136038775678], [0.014537152217444088]], "w2": [[-0.22739932425430473, -0.40012970628012634, 0.04299496615270756, -0.18032184550493394, 0.3094582721444167, -0.4491973706908214, 0.09211357848568981, -0.010449032030099017, -0.2256451566838235, -0.04606205952993154, -0.09768647829633564, 0.7072728459772147], [-0.10314451712397561, -0.20166157945020324, 0.04349811586310226, -0.5150250714724851, 0.15631906688723504, -0.2564362087749987, 0.3326040380828967, 0.05807288538115952, -0.3274984528648689, 0.33749848248654185, -0.21692987597598457, 0.3282394522862142], [-0.813550608568352, -0.8390668458315788, 0.22803267152886592, -0.21328147326510147, 0.013832163381068878, 0.0897584251673608, 0.28609512239575674, 0.010656283593998011, 0.5273267747111093, -0.43762854196841117, 0.0707421217566625, 0.5360966541279399]], "b2": [[0.02604636752114083], [0.020013350512473237], [0.0037317226308313596]], "epsilon": 0.92274469442792}