{"symbol": "MSFT", "timeframe": "1d", "weights": [[0.07318244465480425, 0.16804358333397498, -0.004327241399035444, -0.1255147977893605, 0.07324005460779602, -0.1255147977893605, -0.10354140678881381, -0.004327241399034738, -0.12551479778936075, 0.05367153676251313, 0.029392994444188296, 0.05634657313404089, 0.030395359399999634, -0.0009947591489869135, -0.004069137648591233, 0.029162074311957716, 0.25471280259588436, -0.044545695226990666, 0.19170982176464657, 0.041994113383923275, 0.20065853859754018, 0.09341607581731168, -0.2700877264399084, -0.022337004874364047, -0.007893701756334671, -0.12970583113375567, 0.10476249672014255, -0.06428265962893931, 0.016878775253789332, -0.033388712354232186, 0.1934899817484564, 0.02620422680017309, -0.06305171069170597, -0.09356024428186696, -0.11130737242825427, 0.06371673153827016, 0.27247160307500334, -0.23930153631896198, -0.015960291319346284, -0.07207542702800078, 0.20559019399917047, -0.1317621567429248, 0.05125673802664172, 0.17146152876682566, 0.10889195237693106], [-0.08824489254138189, -0.14620165104713032, -0.06786369066311004, 0.004773962233545287, -0.09039073026422208, 0.004773962233545287, -0.25819370616390286, -0.06786369066311025, 0.004773962233545099, -0.018887361880587945, -0.07127218030550472, -0.019260199015496814, 0.02525798415626487, 0.03297076420412176, 0.0371443523526586, 0.030323080038603407, 0.20730071358492738, -0.3917846166253486, 0.013028193019417027, -0.3028303450586636, -0.3994830191465415, -0.06623178264348603, -0.08952759735214527, -0.24895204356741132, 0.03452427290011641, -0.018133637747631284, -0.06329080972877113, -0.08980680300032441, 0.10168894304267609, 0.31248216322238653, -0.19940272345270735, -0.08770606750088136, -0.25748285017864925, -0.030213856966435033, 0.488916239244758, -0.10659072963840131, 0.08564196801065374, -0.12409286266819085, 0.0871008431888769, -0.10608763770637748, -0.280103175794137, 0.24046325350710462, -0.1913895603920033, -0.10536558923568648, 0.12670348612318083], [0.015062447886577717, -0.021841932286844643, 0.07219093206214561, 0.12074083555581545, 0.017150675656426088, 0.12074083555581545, 0.36173511295271676, 0.072190932062145, 0.12074083555581569, -0.0347841748819251, 0.04187918586131646, -0.03708637411854408, -0.05565334355626451, -0.0319760050551349, -0.033075214704067366, -0.059485154350561106, -0.46201351618081193, 0.4363303118523386, -0.2047380147840637, 0.2608362316747404, 0.19882448054900118, -0.027184293173825876, 0.35961532379205413, 0.2712890484417749, -0.02663057114378176, 0.14783946888138733, -0.04147168699137136, 0.15408946262926382, -0.11856771829646522, -0.27909345086815385, 0.005912741704250917, 0.06150184070070819, 0.32053456087035503, 0.12377410124830202, -0.37760886681650385, 0.04287399810013109, -0.3581135710856569, 0.36339439898715253, -0.07114055186953024, 0.17816306473437826, 0.07451298179496638, -0.10870109676417962, 0.14013282236536156, -0.06609593953113901, -0.23559543850011225]], "biases": [-0.02463516156438665, -0.2058079478181732, 0.23044310938255969], "feat_mean": [0.00018194297254254738, 0.0005695234095557873, 0.0010398241729273252, 0.002416451185010848, 6.02646926415466e-05, 0.002416451185010848, 0.004335910841280293, 0.0010398241729273226, 0.002416451185010852, -6.967709511383661e-05, 0.0131933892052495, 0.013849030448016855, 0.014268201194608605, 0.011866378981754369, 0.011884932361304302, 0.0203591877768834, 0.1045678718908211, 0.5111473242453379, 0.012857693874681154, 224415.4551576354, -3140193.515344225, 1.0106591827347782, -0.11925991047922055, 51.794331756546036, 0.018420274142147728, 0.5311464263402493, 9.493628180127582e-05, 0.24471145505517142, 0.2897700825957627, -0.22096913944149504, -1.8540750113735336e-05, -0.0004038179061516222, -0.1018286020420511, 0.48987925204821575, -0.13827091184627918, 1.7175380113441614, 0.5148760813344522, -0.06698396753957062, -0.039828524707981386, 1.31578208204717, 1.1393939393939387, 0.8989898989898988, 0.1505237718090091, 0.319227340015101, 0.7442509205766826], "feat_var": [1.120210612215151, 1.373855870384058, 1.6130025448751752, 2.2560851281757963, 1.1206320882232805, 2.2560851281757963, 3.5529075009593303, 1.6130025448751748, 2.2560851281757963, 1.2384518770933166, 1.0332712266511732, 1.0245644146653023, 1.017707866657395, 1.0056381172409576, 1.0050561210605355, 1.0207886449238555, 2.5761206623212582, 53.21009974149566, 505.60247727462456, 5.329892139689471e+16, 2.1175569312420852e+16, 70.96380947784523, 71.21984687168889, 119024.45977497278, 1.042227434067634, 43.1738599889806, 1.0634712235922161, 19.96486567533003, 21.248648656721766, 67034.53602995088, 121.39763601703864, 1.050094115752323, 163.31433901182803, 76.3457373280835, 553.4101372809495, 3503.9753288403463, 2.6714678619992305, 22.729751101903187, 34.56854028086785, 50.41961548693666, 1178.3818181818199, 831.9494949494949, 1246.8176093050201, 4001.447014694327, 163.39701078951958], "count": 495}