{"w1": [[0.48221439686942674, -0.2115113654615516, -0.18701556310803508, -0.1408608099254581, 0.4791909572833469, 0.16155796444871942], [0.46037396090255944, 0.8512054281404198, 0.6288821231685221, -0.24025025669118424, 0.30623001742182687, 0.7095114592734915], [0.5281465615057355, -0.22129797250694586, -0.044043087819800465, -0.6675428175390521, -0.2537679354362675, -0.021430525603404856], [0.1019462913075873, -0.24088870257790995, 0.14687833153050328, 0.11649907825705151, 0.6918896187337762, 0.11476114189304457], [-0.3178569531127769, -0.6120573931307909, -0.09797629913804498, 0.11594921512783539, -0.5208943923497993, -0.032010295770837575], [0.5783091172706687, -0.6439434758812645, -0.06537427168496819, -0.27940970802979764, 0.3968267251160067, 1.1360299768371638], [0.7710441854480411, 0.8077331460603265, -0.4695994994345624, -0.7004208385745743, -1.4780359935045004, 0.35891993521638016], [0.6380407230001786, 0.6563148863487677, -0.587994632039664, 0.7526628000793861, -0.11775572554949318, -1.7814518709023934], [-0.4713833758930881, -0.31095307814935585, -0.2772039864425114, 0.0064847621717596185, -0.6039546787374404, -0.6037002267646658], [-0.5465125235820391, -0.8992941761450819, -0.5782198166642585, 0.809265184503474, -1.247557674416454, -0.32162443856858386], [0.31873806315694153, -0.22777679701216078, 0.43888036127129904, 0.6510189079892476, 0.2891903063570394, -0.25838831640588855], [1.548673299375538, -0.14930125249915624, 1.2432813960045523, 0.30479877238469094, -0.5838184772509332, 0.9168598096181708]], "b1": [[-0.011267449799742441], [-0.02014375270160967], [-0.016541575743374108], [-0.04153584994128102], [0.028895641805489838], [0.0676188723227124], [0.02918641394073889], [-0.0013793951603771675], [0.02098529809102187], [0.008373188103391936], [0.011852265442714435], [0.05917140210826757]], "w2": [[-0.26072041004760466, 0.3393738489723676, 0.2980065548167448, -0.6190473910385095, -0.11324673710797295, 0.02255456734030941, -0.1305873383070624, 0.010925699889389661, -0.2928843308659912, 0.9302129710293368, -0.207738136964303, 0.10971063929751054], [0.12101511099365121, -0.18125438364502938, 0.17708588148203896, 0.704139216969403, 0.8462293150329298, 0.3544562138289262, 0.20446311001985704, -0.047037925723726844, 0.5972902050234886, -0.36598184298185876, -0.16310080790490528, 0.11731731804645518], [0.08882457328115197, -0.10936914611190748, -0.27913843374473946, -0.5067709980325337, 0.017817652282595044, 0.5097296337267451, 0.09594434091993266, 0.6562827150593422, -0.005519668861545507, 0.24351447291121625, 0.5685869875071954, 0.41073530760216326]], "b2": [[0.057680608403409654], [0.12469272008757343], [0.08331343651808806]], "epsilon": 0.92274469442792}