{"w1": [[0.49097679637111874, 0.23039043640759094, 0.36061877504564666, 0.9089396286492452, -0.5418942413626779, 1.1515936125061288], [-0.0809249726653961, 0.09306189433788742, 0.5665334982764467, 0.08466690139765243, 0.30578590034500464, -0.22832002866458356], [-0.6159559053246736, 0.6243245040613022, -0.09137088985183649, 0.020595779808422584, -0.6324716058980461, -0.4938408830741739], [-1.4559937102539817, 0.34124045520632307, 0.08950793343228336, -0.048767241285583955, -0.42986135266694997, 1.362276978929485], [-0.18314989768746676, 0.5116726821191218, 0.18055639581771532, -0.044519438293700545, 0.223740714590297, -1.1414609757651932], [0.24429561682455242, -0.6105125215290802, 0.5234575167355678, 0.34784977005764794, -0.3311818756293371, -0.7227414515438997], [-0.49434866557672014, 0.03856219116048625, 0.6035751999272931, 0.747672944130794, 0.5542446017196543, 0.47803204352807027], [0.41522624550139975, 0.10969051799473911, 0.8575441702490545, -0.08210461261720721, 0.05382114427555811, 0.26308105597097614], [-1.1073284890885515, 0.31633008462224954, 0.6097245413850924, 0.5980620150566702, 0.0795163919867908, -0.20207829165958394], [-0.30407266489428814, 0.4901931121542606, 0.30418420887800046, -0.34365149621594715, 0.17317531323367955, -0.3747019028610371], [0.8111184326385701, 0.9287602888174652, 0.5316332142928455, -0.2760700812146782, -0.2165919844709299, -0.4316877177079108], [0.12465490357509877, 0.23055334893139912, 1.0624534863078432, 0.1589307223624151, 0.2476743948417502, -0.17375491907208546]], "b1": [[-0.06294539897616501], [0.09708025420497388], [-0.021324151331523558], [0.0487237249457158], [-0.03658806195952196], [-0.0586691575464979], [-0.018617934959445616], [0.04650625414077517], [-0.09125499823437845], [-0.012149155742237546], [0.006168415337370497], [-0.007489883385042044]], "w2": [[0.1226443430800476, 0.246168590449844, 0.19278318562840832, 0.02064010655217778, -0.2222804247947023, -0.31404599271333355, 0.11140148966353088, -0.583607153838648, 0.03876891517605931, -0.010519041145014358, 0.1692508509177265, 0.5791859026175663], [0.6067546407005908, -0.051494006325377685, -0.11462199345394712, -0.20408053074243207, 0.025337987277421006, 0.2759988331764116, 0.05086653468577641, -0.23441737604994822, -0.3285056624821364, 0.3847491637226342, 0.2122572085502139, -0.08862275548769794], [-0.5596809329336846, 1.0201756204821453, -0.0732997416993477, 0.5080849334695976, -0.0771821727576031, 0.2917014273903998, -0.062202358396322835, 1.1023089381178288, -0.8006494190397114, -0.01391691892174141, 0.04389400354878134, -0.09146146545575645]], "b2": [[0.1438585893988422], [0.04947286429190132], [0.09655256802948685]], "epsilon": 0.92274469442792}