{"symbol": "NVDA", "timeframe": "1d", "weights": [[-0.01426636436849164, 0.025676882925384302, -0.05068243465647606, -0.11111000932485325, -0.017140466157079683, -0.11111000932485325, 0.011699256000353857, -0.05068243465647604, -0.11111000932485297, -0.006391245071770919, 0.0372794382026415, 0.01156702744273228, 0.014350550585264629, 0.007882286673729345, 0.004211178430015867, 0.013912014222317507, -0.046894947634489516, -0.013342833892635143, -0.04478418231845229, 0.02926682166476106, 0.1881229173815812, 0.03292083928571501, 0.05224290039770473, -0.09006787215114032, 0.006331258088796732, 0.014974726014605774, -0.0401783276493271, 0.10715915916819738, 0.09203786079048548, 0.02221406065047779, -0.07838345138726607, -0.026256120810793097, 0.004466872980297045, -0.14357040650475716, 0.06480980003678342, -0.07367004200094472, -0.04849276098744966, 0.2297022192359173, -0.21954001919953212, -0.18284338614950002, 0.01566261720991457, -0.10816006955231997, 0.04191915974788356, 0.09532114131829338, -0.22624538003581937], [-0.01971363157591059, -0.051125473886461895, -0.09393936065685211, -0.05695064694097419, -0.012379544558929357, -0.05695064694097419, -0.05282267698179736, -0.09393936065685207, -0.05695064694097424, 0.050361101577439164, -0.13908656211366666, -0.039778715097591656, -0.05768686491614849, -0.038434626341999636, -0.028508868220773906, -0.06168972876131529, -0.17211156598606242, -0.13750660922344451, -0.15283994397562897, -0.4718501195571594, -0.46288738414863206, -0.272744141058695, -0.0756380750791095, -0.20070463947706074, -0.08933018967529738, 0.10932925515903259, -0.03181341379577246, -0.2711481940161193, -0.22023137457697434, 0.023897366160683272, 0.045344514705728346, 0.0645423529155017, -0.17305625337689, 0.033477099199580536, 0.13728901640543642, 0.1387999091965416, 0.3768081432624224, -0.21432621842356664, -0.1440405394783624, 0.024739771768315193, 0.43713530439689574, 0.034839053338735174, -0.10800180102510505, -0.18050093596015374, 0.29561660343227053], [0.033979995944402215, 0.02544859096107734, 0.14462179531332803, 0.16806065626582742, 0.029520010716008956, 0.16806065626582742, 0.04112342098144338, 0.14462179531332792, 0.16806065626582725, -0.04396985650566824, 0.10180712391102509, 0.028211687654859437, 0.043336314330883835, 0.03055233966827024, 0.024297689790758054, 0.0477777145389978, 0.21900651362055149, 0.1508494431160794, 0.19762412629408105, 0.4425832978923982, 0.2747644667670508, 0.23982330177297992, 0.023395174681404497, 0.29077251162820106, 0.0829989315865008, -0.12430398117363803, 0.07199174144509954, 0.1639890348479218, 0.12819351378648877, -0.04611142681116108, 0.03303893668153732, -0.03828623210470859, 0.16858938039659305, 0.11009330730517686, -0.20209881644221997, -0.06512986719559719, -0.3283153822749732, -0.015376000812350604, 0.3635805586778947, 0.15810361438118473, -0.4527979216068108, 0.07332101621358486, 0.06608264127722163, 0.08517979464186025, -0.06937122339645065]], "biases": [-0.27788907958092074, 0.20708119710339262, 0.07080788247752835], "feat_mean": [0.0018681426046909648, 0.005807478644005166, 0.009806817534393076, 0.019603822931735505, 0.0014079774502592046, 0.019603822931735505, 0.032271930637365394, 0.009806817534393074, 0.019603822931735508, 0.0004687654147783976, 0.02659646878591128, 0.027869290065300818, 0.028524720765774603, 0.023164875946149324, 0.023002510701632405, 0.03933367397398187, 0.18061018075528476, 0.5598171444846105, -0.07290797181405909, 7211849.088460361, -28267806.370629672, 0.9838809071681852, -0.11164001138949696, 52.81695348505616, 0.03514445096338511, 0.5370714193628796, 0.0019257483796186923, 0.24360411586272218, 0.29436894403793384, -0.6180203532902216, 0.0009650499165897641, -0.0009637741179178981, -0.028585791568861745, 0.4738766442237941, -0.02797075992583984, 0.5973562441528331, 0.48811265408837723, -0.10414560600922122, -0.05837005925361964, 1.3591128166187294, 1.123232323232324, 0.7757575757575752, 0.5216656586771838, 1.1141974424808028, 0.5885138511271291], "feat_var": [1.4538413615302295, 2.29509611254813, 3.015141989977666, 4.5311611476040135, 1.4551350904545997, 4.5311611476040135, 6.281876086164945, 3.0151419899776655, 4.531161147604013, 1.917720677031629, 1.1237282986779173, 1.0880801504350301, 1.0653518876128512, 1.0307579775862463, 1.0280023997105425, 1.0992109994775583, 4.021234377222982, 46.074356595598644, 507.71970980123297, 2.7945683252024627e+18, 1.18665866958425e+18, 44.58195284399716, 42.869442674348086, 86191.44722879768, 1.201787941486154, 45.05964348286847, 1.1870725014415484, 19.29952233722875, 22.751826670534182, 69302.11205536957, 51.17296769563616, 1.094210203426109, 55.478488300164614, 64.04083818862792, 238.97512331498393, 1487.1274144691677, 1.978531606859881, 30.081353834653303, 51.11163060308281, 47.052755227575446, 1226.4828282828285, 567.1090909090906, 958.2429097572092, 2334.9052569005435, 129.2442598085844], "count": 495}