{"w1": [[0.14741060203173864, -0.6077013446217009, -0.3303636620249707, 0.4433188563294609, -0.05701370660861069, 0.19690101146771136], [0.538394880816182, 1.217461121841331, 0.8180246464081544, -0.3160773237210816, -0.005313716905249802, -0.5393416271027175], [-0.5505890500621704, 1.2997212804619813, -0.6027435192673318, -0.5288739299747175, 0.02038169390804439, -0.5220810442156683], [-0.004472842749087514, -1.007030170635177, -0.08913382485684147, -0.10621914626595566, -0.3033045725208209, -0.9946524673205489], [-0.3738450844706204, -0.6478016927312584, -0.1843583277860878, -0.8690457074544597, 0.3842037370040041, -0.6623959306433486], [0.6844146099193708, 0.1900519285504347, -1.0195128821304766, 0.19039038624521412, 0.7083312303721269, -0.5068541625210551], [0.4588064975753993, 0.5205490322112671, 0.4566209216311396, 0.37912134986841833, 0.3474036604591418, 0.3287942978038708], [-0.25666854896171154, 0.8320805812507156, 0.5623583923257564, 0.563090675606138, -0.3678299832687446, 0.21515367563420093], [0.6990386878860071, 0.6215670643801995, 0.3290825901091167, 0.13750312341642562, -0.44882946614375385, -0.19661471041417491], [-0.13653904390757535, -0.1576093211846641, 0.008796525367746052, -1.1518064926227538, -0.34458157490244495, -0.12957486566194756], [0.47274092326908557, -0.7212617770123372, -0.03408650099079671, 0.3119044302340466, -0.2809967087136938, -0.13263164885312703], [0.5161764985299817, -1.0192941665717092, -0.3576132028646416, -0.9893586273207942, 0.014202137984289084, 1.1434497872940477]], "b1": [[-0.057357859707220925], [-0.033079037059376426], [-0.028325501095073157], [-0.16961018273400372], [0.08830138262187044], [-0.02432836403479738], [0.2194114383685139], [-0.2217322839395378], [-0.07017484939417659], [0.0006490154689035942], [0.1376246160162689], [0.05990847178105582]], "w2": [[0.27466697154594116, 0.33137617403675523, -0.5383217239846432, -0.5227495694082922, 0.6147873079407359, -0.2453231055382214, 0.3488349788590991, -0.41615400678342424, 0.06151085828806261, 0.39553564625993426, 0.4696045638407556, 0.0007172561214507721], [0.02989480147181408, -0.42238800498504653, 0.1385407041728154, 0.34590585286350645, 0.49675137378627127, 0.1312853255679016, 0.39993111857932184, -0.727537197820295, -0.03646926872400948, -0.34500300384200333, -0.36326246813416463, 0.11777217893242053], [-0.4500824810157473, -0.35731414697475655, -0.14983509250168223, -0.21498350505205766, 0.11313779985976523, -0.16696332756071916, 0.39682061026543547, -0.1711662677157675, 0.6205720640343114, -0.24169532694031617, 0.15999218602504867, 0.1945307428484075]], "b2": [[0.1686171331133627], [0.10690813795868523], [0.11296401044649867]], "epsilon": 0.92274469442792}