{"w1": [[-0.09987253465448878, 0.8015102331280356, 0.006212580611515951, -0.23536884340923456, 0.23328462872414885, 0.9593253564152395], [-0.5146351235772219, -0.20150153964568535, 0.8081289490605699, 0.3038819953362429, -0.22853878736054317, -0.7001221161735243], [0.840101498496417, -0.20178787178886426, 0.5072284961095229, -0.6446486790242947, -0.040007815793943684, -0.9190867321171613], [0.05067282376723742, -0.2724102099991769, 0.170752919924448, 0.23892420849021478, -0.5126224727146902, -0.5148345204707224], [0.06260321155940053, -0.19820096344980873, -0.40031075444074654, 0.42980626352515866, -0.4766433989453872, -1.135572310136067], [0.22587195361832912, 0.32770004460503777, -0.29236870178931745, 1.239373508342083, -0.6321230615429243, -0.5826290962581385], [-0.1614801368200744, -0.007518329851741024, -0.08161886976131778, 0.4629825662407027, 0.45171727245967125, -0.42523800484628393], [-0.0298514425944377, 0.5549374718632345, 0.5425025274299504, -1.0871145949756742, -0.3084992931883102, -0.18268682042941092], [0.23549186724945903, -0.1998483022131202, 0.2564725368448187, 0.2034593494522512, -0.042252689874114104, -0.22163184377372347], [-0.18783970003170186, 1.7055634147135985, 0.8364587486694132, 0.1378192396614533, 0.833130952937814, 0.3985798969916496], [-1.0547871361142405, 0.2842940885948162, 0.17351851003155627, 0.5833647940664157, 0.24629078003436566, -0.2876193601405979], [0.7522809961843471, -0.19743692510349592, -0.0742479137402221, -0.892107713398872, -1.0794074728015746, 0.01197230674711211]], "b1": [[-0.008743215257268145], [0.0007967560290251661], [-0.004380495313604727], [-0.00928880351168011], [-0.020867725498665023], [0.011855869396432392], [0.005228546385898837], [-0.04353539215068129], [-0.0003566230255836447], [0.016973293198224805], [-0.051066884587160466], [-0.011516403700832886]], "w2": [[0.49054733810468953, 0.35797331268662635, 0.07414964077608488, -0.5022502136622302, -1.1701585960834862, 0.32354051912159176, -0.19019026780670326, -0.4960505848254143, 0.08685861408973991, -0.018649729385667026, -0.5212535261565696, -0.33786034160658773], [-0.5381450265680756, -0.5376275375423816, -0.2051395704523955, 0.1610222944599728, -0.40277726729698854, -0.09492609904512704, 0.41935218325356516, -0.23647329645924423, -0.243767163348091, 0.33072647666307325, -0.3399163914799572, 0.11778458155442145], [0.4161247685708412, -0.29865519539863183, -0.40516202107532506, -0.00990957120580029, -0.31460584286485516, -0.311108806654301, -0.19991095684051174, -0.010913289228533369, 0.11042270166059295, 0.07727748308022722, 0.1661491495592588, -0.3854723971936436]], "b2": [[0.035617887297739494], [0.031048091165006265], [-0.005355563923925667]], "epsilon": 0.92274469442792}