{"w1": [[-0.3834739267643914, -0.9501979544034267, 0.20581863421749844, 0.22189045804120056, -0.1977282842779043, -0.025224205526896595], [0.7779558540593475, 0.8150167683433772, 0.11368175067431162, -1.191528112391696, -0.8877468483989079, 0.20186692619185703], [-0.5252533236545134, -0.5109119550303417, 0.2433854868965509, -0.1423955041937254, -1.2940250717520283, 0.32156804332480193], [0.6276752573869068, 0.19596058702555852, -0.05051235707303268, 0.8510781308431167, 0.24112430279851774, 0.4258950916190669], [0.9501296804667665, -0.3969322662560041, -0.6608133047781392, 0.9892696714569474, -0.4076414563272954, 0.44020029201309313], [-0.6139259002119687, -0.2057243459605096, 0.4861588787511202, 0.12587859445820487, 0.39729357526325393, -0.23081625786383259], [-0.6332299842902949, 0.17083831670709282, 0.06289535916584832, 0.31667069204584547, -0.1722930757116257, -0.2459757828031376], [-0.321677945254388, -0.14540861928472973, -0.9155031621192151, 0.325276615924746, 0.5511688295244, -0.31487615633633803], [0.2041592716275522, -0.36733702922746186, 0.5414378787787424, -0.24089976680936753, 0.0353281618413062, -0.27978014430800785], [0.5940208689581914, 0.3583333332218943, -0.6284418863825397, 0.3467117988897966, 0.7756125951946535, -0.10868735090241867], [0.01020320847997939, 0.3263826272937596, 0.40364933244283535, -0.06143760458020805, 0.015707099143923178, -0.8330277741636172], [-0.8410386128307833, 0.3217867769682507, 0.4959830931948223, 0.15232000950411445, 0.3951531071285426, 0.6861473201810305]], "b1": [[0.1374679696739259], [0.045430722189765495], [0.0016365678202919902], [-0.036014383630913256], [-0.1881196226999818], [-0.09990323577785579], [-0.12061602966355563], [-0.04420673503231971], [-0.12822847235674434], [-0.021671993895312047], [-0.06658436465368611], [-0.03689344168179697]], "w2": [[0.38696911105136533, 0.46605450521997555, -0.10431414215657994, 0.22788842414328705, -0.26676228218300974, -0.6561855394902782, -0.29504921079550955, -0.08512291620946587, -0.10178470335797733, -0.03215015333666173, 0.5366318909211223, 0.2358883017308588], [0.2377374950764783, 0.6326836395305365, 0.34218433275894417, -0.7390508607732708, 0.3669699556767979, 0.4039947668918828, 0.17817231539610845, 0.46388581915815824, 0.20560951871563277, 0.8038895477263591, -0.30450179231283575, 0.2354551905246619], [0.2705664290897251, 0.14499007984380877, 0.24713265402657114, -0.11389379545567833, -0.4836205079779687, 0.040529324219808455, -0.7187693827412283, -0.006668120702856856, -0.5145455731852011, 0.014114989948710015, -0.5063764017425018, -0.10757916502936579]], "b2": [[0.12789813205130066], [-0.018952080045878172], [0.21917359301122286]], "epsilon": 0.92274469442792}