{"symbol": "NVDA", "timeframe": "1h", "weights": [[-0.011786224742678953, -0.024386854762855813, -0.1009397172637504, -0.10481575221952845, -0.013115401704042148, -0.10481575221952845, -0.08985800759224429, -0.10093971726375045, -0.10481575221952884, 0.02226305050959118, 0.03752397719901627, 0.03009634069208174, 0.01797151233337518, 0.005635189264798149, 0.0006747440789056907, 0.002691853880229796, 0.13293860040670966, -0.09348592209542421, 0.27318599746122935, 0.13204491900082804, 0.034136505535720355, 0.3271617827580197, -0.05124988515825675, -0.21897942863254655, 0.07938222989451205, -0.012439545975271755, 0.012142615314156623, 0.004949003927066861, -0.0386525546049015, -0.196897525197192, -0.022245748532890564, 0.03949295130358026, 0.07954780726101714, -0.13558512343537923, -0.4152472189313144, 0.15849452396368754, 0.16198416384960573, -0.30212039141442526, 0.11358845442096605, 0.27314488522582014, 0.008623336814035291, -0.15268664781500027, -0.2286955808371517, -0.1830717980761219, -0.11171977401040317], [-0.01148492844565972, -0.037457191313722805, -0.020651235654649932, 0.005935130927416379, -0.011455299485122809, 0.005935130927416379, -0.08436491601204558, -0.02065123565465, 0.005935130927416801, -0.04573795511143305, -0.0269807719049808, -0.030173037610121183, -0.0193917054997653, -0.009137120748235934, -0.007293019202286948, -0.008013262762919185, -0.1754270577721045, -0.04029258313698661, -0.07545367919536895, -0.067478684689516, -0.3119885974474631, -0.09377753732753397, 0.055468090845890404, 0.16249248952602036, -0.00011258305995371124, -0.024833963248061013, -0.00798037684239018, 0.0341854681270517, 0.07584727063940809, 0.1281015177071209, -0.03678959135857577, -0.02040751193320642, -0.19261599333501558, 0.11332945827392152, 0.4423851122763317, -0.0913424526928822, 0.07050891686381429, 0.1805475193729993, 0.1139399603013892, -0.144469864425607, -0.018614271860848446, 0.08353832966293305, -0.06333015688557606, -0.0993292599620409, 0.20745375603999303], [0.023271153188338667, 0.061844046076578625, 0.12159095291840041, 0.09888062129211192, 0.024570701189165017, 0.09888062129211192, 0.17422292360428995, 0.1215909529184005, 0.09888062129211207, 0.023474904601841793, -0.010543205294035475, 7.669691803943661e-05, 0.0014201931663901147, 0.0035019314834377853, 0.006618275123381261, 0.005321408882689396, 0.04248845736539486, 0.13377850523241092, -0.19773231826586007, -0.06456623431131141, 0.27785209191174265, -0.23338424543048564, -0.004218205687633548, 0.05648693910652621, -0.07926964683455834, 0.03727350922333274, -0.004162238471766468, -0.03913447205411856, -0.037194716034506456, 0.06879600749007135, 0.05903533989146623, -0.01908543937037383, 0.11306818607399809, 0.02225566516145738, -0.02713789334501652, -0.06715207127080543, -0.23249308071342026, 0.12157287204142628, -0.2275284147223555, -0.12867502080021312, 0.009990935046813232, 0.06914831815206689, 0.29202573772272755, 0.2824010580381627, -0.09573398202959034]], "biases": [0.5237060972175553, -0.19970023455360636, -0.3240058626639489], "feat_mean": [0.00031629336809290434, 0.0009067280941209288, 0.0017715351006937295, 0.003906140448108394, 0.0002806637004460402, 0.003906140448108394, 0.006901299604893311, 0.0017715351006937293, 0.0039061404481083887, 9.841946671647364e-05, 0.007351653838300527, 0.007861288931950053, 0.008138192580376976, 0.00692681398539576, 0.006905297480442128, 0.010442958801330213, 0.05831346582833509, 0.5486328854737429, -0.006008162044497567, 744325.2551943685, 1313025.0492185329, 1.0108358845416359, 0.0951018661559305, 52.71412945789607, 0.009872523441735925, 0.5177512594841174, 1.4704347054492871e-05, 0.2732117566411958, 0.26623237806027034, 0.1471737880059017, 0.0005761925529587034, -8.550808954626586e-05, -0.14679316032220818, 0.4765723337529752, 0.10588123127067885, 3.3862925775808144, 0.5127454536347582, -0.06961656817703649, -0.04391378459275435, 1.1861212963820615, 1.028282828282829, 0.8444444444444442, 0.3733492356886744, 0.9295882435400282, 0.8334010055591466], "feat_var": [1.0351872963732838, 1.1045981750986202, 1.170633698880362, 1.3667918787103122, 1.035256726978494, 1.3667918787103122, 1.7634884583705455, 1.1706336988803623, 1.3667918787103117, 1.0693940991844813, 1.0088252422608994, 1.0048512172311321, 1.0027170139412889, 1.0013064045726237, 1.0012879242551638, 1.0023410680590044, 1.3873038300367013, 53.17936476999401, 473.6134066745579, 3.304649544462852e+16, 8134037687151826.0, 210.45500188379896, 91.7303988036964, 185510.67702547417, 1.0207323798402212, 43.40677782000139, 1.0103379907840204, 19.794769116546966, 21.516425735441693, 74002.44423458853, 8.534597111599405, 1.01485503390104, 371.7792479538189, 76.66969437754045, 963.8898938803663, 5190.967201489959, 2.2057744992643813, 19.960283999325895, 29.78246256680614, 48.25213382024646, 886.6040404040405, 644.0222222222218, 1496.3112396069077, 4099.500403153877, 139.53605747349366], "count": 495}