{"symbol": "NVDA", "timeframe": "15m", "weights": [[-0.010059150155047145, -0.027622586367653197, -0.040206269172130465, -0.03908265115209711, -0.010329942463888929, -0.03908265115209711, -0.06687791251635425, -0.040206269172130535, -0.03908265115209719, -0.009194168657166163, 0.006820171303421069, 0.008202907516745971, 0.004108027219692057, 0.0057345846462256165, 0.004462997073756834, 0.011304563082192501, 0.09211721779337373, -0.12496462961712004, -0.07999211512682848, 0.1136505462967038, 0.24331572923680966, -0.12276834530778498, -0.2086343725916163, 0.008600795262228057, 0.008511383042781387, 0.02113424782842419, -0.0033280538688165097, -0.04018015966864334, -0.014645276797372661, -0.06917017712557993, 0.019620702490503617, 0.020507663613981507, -0.03604087052307993, 0.21756339062859598, -0.3200883976211364, 0.20520928188097814, 0.05509134624055798, 0.1703436020777297, -0.2908845302247502, 0.4710865454233564, 0.040413832569656326, -0.03551489796602844, -0.0882451604405029, -0.2979367585783491, -0.42002423903644154], [0.005496105085586693, 0.01851516538760424, 0.024460136225588444, 0.030339862813110866, 0.0057405838177770905, 0.030339862813110866, 0.044829812558071, 0.0244601362255884, 0.030339862813110845, 0.006853063275021843, -0.00498238470303558, -0.005575119507862424, -0.0015601415659269474, -0.0028285276557231936, -0.0022969367338823996, -0.005460455630597766, -0.03706000983043461, 0.061741084083030494, 0.017982016366305906, -0.09737127980327134, -0.15287149624415888, 0.027197529054443007, 0.04683676564676763, -0.03647287052475672, -0.009734780916667926, -0.03972577311254884, 0.007259563677302951, -0.036094477619262294, 0.018800523100424564, 0.010366329560710623, -0.030439685753958726, -0.011747958866590347, 0.038312159735530524, -0.13441324956179493, 0.25217756787882123, -0.06825269922968732, 0.014702547035885609, -0.11090485222324717, 0.11971202398271999, -0.23363705657943734, -0.08413306985248939, 0.06659614716138827, 0.11260734480404466, 0.22715198285067242, 0.29181825119404614], [0.004563045069460433, 0.00910742098004893, 0.015746132946542014, 0.008742788338986267, 0.004589358646111832, 0.008742788338986267, 0.022048099958283312, 0.015746132946542084, 0.008742788338986335, 0.002341105382144317, -0.0018377866003854732, -0.002627788008883526, -0.002547885653765097, -0.0029060569905024368, -0.002166060339874432, -0.005844107451594754, -0.05505720796293929, 0.06322354553408942, 0.06201009876052267, -0.01627926649343215, -0.09044423299265092, 0.09557081625334207, 0.16179760694484874, 0.027872075262528676, 0.0012233978738865345, 0.018591525284124565, -0.003931509808486427, 0.07627463728790561, -0.004155246303051896, 0.0588038475648694, 0.010818983263455192, -0.008759704747391177, -0.0022712892124506874, -0.08315014106680083, 0.06791082974231523, -0.136956582651291, -0.0697938932764436, -0.05943874985448249, 0.17117250624203026, -0.23744948884391903, 0.04371923728283317, -0.031081249195359782, -0.0243621843635418, 0.0707847757276762, 0.12820598784239567]], "biases": [1.156852321489421, -0.5846526846038284, -0.5721996368855921], "feat_mean": [0.0001446586492581565, 0.0003887499837491688, 0.0005943724217076441, 0.001166680312781563, 0.00013242524990714883, 0.001166680312781563, 0.0024755626769938604, 0.0005943724217076374, 0.001166680312781569, 3.0289878355270998e-05, 0.0040128472350672946, 0.0042972289830407445, 0.004622476101925108, 0.004248392200699196, 0.004227858291163119, 0.0062432288101193795, 0.029720651151553132, 0.501813595765466, 0.03676434961885434, -63344.47952249761, 1533899.4098075165, 1.0439855032112577, 0.1041687706752835, 50.726009828814995, 0.006052141803959827, 0.5125985267281266, 0.00013244197358971876, 0.25984664138694114, 0.28256731398346663, 0.12548478293539808, -0.0001700734832254876, -5.9870624165566184e-05, -0.11188110756136012, 0.4776100490501742, 0.1899661964545908, 3.173999572666608, 0.48562776007862846, -0.15510408083984134, -0.08214799707863378, 1.21051119924013, 0.8464646464646461, 0.9595959595959598, 0.14099157417730282, 0.34772108530829743, 0.6867828532337379], "feat_var": [1.0120994876620095, 1.0318392344769125, 1.0518836850268496, 1.1033182476697005, 1.0121038688080053, 1.1033182476697005, 1.1967198191986805, 1.0518836850268498, 1.1033182476697, 1.0232460540864816, 1.0045866553792127, 1.0031918017245998, 1.0017622699995823, 1.0004801964852048, 1.0004295421022549, 1.0015290711322602, 1.139277556556067, 57.5353519600943, 637.7344587201009, 2277880133683527.5, 404510050046757.25, 419.0650020185817, 103.16003042124741, 131277.4214896564, 1.0078405944832944, 46.76214726548846, 1.0026510536449071, 19.932026179397877, 23.822165404471225, 79538.69919479314, 4.264840072258862, 1.0067096618901321, 108.31341056911575, 68.31670334198517, 1206.4996686798843, 9381.030337003807, 1.6586795494103357, 35.51729863816143, 49.223646520820516, 67.10592000694191, 613.3313131313133, 808.191919191919, 1004.3783240809662, 3183.677347552171, 82.16136908379914], "count": 495}