{"symbol": "NVDA", "timeframe": "4h", "weights": [[-0.01719047798524957, -0.04290261494936284, -0.043901142624576665, 0.0011239317582946839, -0.017216293174605928, 0.0011239317582946839, 0.005299839295585331, -0.0439011426245766, 0.0011239317582946535, -0.028782926032576903, 0.002716326814663451, 0.0018098597097229653, -0.003754719140159271, -0.0017247569890425324, -0.0012576604246403514, -0.0003011481595923106, 0.024323350196333235, -0.06582171839774115, 0.009518939203257878, 0.03079014063399647, -0.06023001690081281, 0.0213884401825439, -0.04621698172553222, 0.0949778281110327, 0.0037708322611584586, -0.10041808377335681, 0.005553520021135642, -0.07815444334911562, -0.015149117971338796, -0.019680528510607916, -0.06012118530430847, -0.004404741135547214, 0.05978432448037992, 0.009860219474047114, 0.012743702969200639, -0.12845691568590495, 0.0014248535735923505, 0.04518446563732846, -0.084516449054791, -0.14530263317947592, 0.05480250470507203, 0.23763645238565492, -0.06807687891170468, -0.07153428838040263, 0.13838107532776844], [0.02190577967087901, 0.03255956460167184, 0.029322410851182326, -0.031886352385575335, 0.021788940850742705, -0.031886352385575335, -0.07961279509559106, 0.029322410851182257, -0.03188635238557533, 0.052177309325097294, -0.005806079892057868, 0.0007955577266545596, 0.010735592192320518, 0.002949554697284449, 0.0007280965705232738, 0.0001617685142717007, 0.007556040389297188, 0.014044577529169714, -0.05730576471434053, -0.006012031136960956, -0.0980549873655446, -0.07483417480708161, -0.025985683347644215, -0.20449828588960475, 0.001173436233113109, 0.04658569372976373, 0.006267097945023541, 0.019066107221029454, -0.1072360077017538, 0.07554470797141215, 0.13308628602903283, 0.0060100063946120314, -0.22076065011793333, 0.015603807006954837, -0.09704663306064795, 0.2900773712475333, 0.0644112793447317, 0.09610350236654737, 0.08249889115848526, 0.11302991186542562, 0.06971420628728675, -0.11643134316027325, -0.00841512436179059, -0.00025927255835912896, -0.21646252236884733], [-0.00471530168562944, 0.010343050347691006, 0.01457873177339436, 0.030762420627280695, -0.004572647676136781, 0.030762420627280695, 0.07431295580000573, 0.014578731773394362, 0.030762420627280688, -0.023394383292520398, 0.0030897530773944196, -0.0026054174363775227, -0.00698087305216125, -0.0012247977082419147, 0.0005295638541170761, 0.00013937964532060925, -0.0318793905856304, 0.05177714086857144, 0.04778682551108259, -0.024778109497035412, 0.15828500426635755, 0.05344573462453774, 0.0722026650731764, 0.10952045777857203, -0.004944268494271566, 0.053832390043593026, -0.011820617966159179, 0.05908833612808616, 0.12238512567309263, -0.055864179460804256, -0.07296510072472427, -0.001605265259064821, 0.1609763256375533, -0.025464026481002003, 0.08430293009144717, -0.16162045556162852, -0.06583613291832399, -0.14128796800387575, 0.0020175578963057897, 0.03227272131405025, -0.12451671099235884, -0.12120510922538175, 0.07649200327349547, 0.07179356093876173, 0.07808144704107887]], "biases": [-0.14332388653110611, 0.1805024699221389, -0.03717858339103275], "feat_mean": [0.0014545314781298092, 0.004912775525109192, 0.007224591149291598, 0.01915479050085811, 0.0013367686904199336, 0.01915479050085811, 0.03650451301758962, 0.007224591149291585, 0.019154790500858124, -0.00014062987753667833, 0.013954027368506454, 0.014997729250201649, 0.015391459409832801, 0.012905607783236215, 0.012673867490045924, 0.02064368781787626, 0.11354937197969568, 0.5666050595007861, -0.040028503713163674, 1404964.9368115938, 5835518.446685401, 0.9903723556631183, 0.10747621099577792, 50.33006707691909, 0.01952454527898748, 0.5229529422145538, 0.0005795998373248387, 0.24958574380336013, 0.25796966089722817, -0.14697625368175254, -0.006100680789973812, 0.00044108628812809645, 0.02839828602559626, 0.4178590887649717, 0.6563189685592654, 1.1727031398051657, 0.5447585009701214, -0.07193302162920517, -0.17114982806134169, 1.1113746588013362, 0.9391304347826083, 1.121739130434782, 0.7549253798485316, 1.4472848183684575, 0.7425827116647353], "feat_var": [1.027062224030206, 1.0862785499744434, 1.1647222766478427, 1.2863480156321991, 1.0267743890913685, 1.2863480156321991, 1.5347401702064563, 1.1647222766478422, 1.286348015632199, 1.0452256310775765, 1.0041650530592814, 1.0022887751020446, 1.0012428253884593, 1.0005300470793825, 1.0005797731217165, 1.0015269772986972, 1.2514556457373893, 11.679182919760391, 111.11094263772937, 8.163183083558909e+16, 9599683892043240.0, 24.4911639245485, 8.330063491707854, 41946.59708432067, 1.0126606430866694, 12.240068089441067, 1.008517166577298, 5.903347556812146, 6.161679679498889, 15710.991287977158, 6.751610301231734, 1.0070743328836718, 26.560716264529752, 20.974896550623306, 28.58725638776139, 272.2524774095477, 1.2502028752099177, 4.396041945313114, 9.936902168729752, 31.829934506927753, 211.57391304347826, 275.2956521739131, 310.397937695453, 684.8327593319506, 40.83592012400879], "count": 115}