{"symbol": "SOLUSDT", "timeframe": "4h", "weights": [[-0.00961170691630541, -0.05442352786236816, 0.060699628434845034, 0.04760399545172152, -0.00997837019527309, 0.04760399545172152, -0.0428036526310182, 0.06069962843484521, 0.04760399545172107, 0.06375363840749443, 9.586364283639535e-06, -0.02719140230253358, -0.0021401753457499124, 0.0007522115978533443, 0.002142617964794973, -0.014344067030871849, -0.0994418282509175, -0.12250765265046336, 0.19256513969853856, 0.048821640701219665, 0.12538202296299092, 0.17123266181758887, -0.11290157920099961, 0.13754031722591892, 0.022973477876126146, 0.0007346947764324007, 0.00014788739114747083, 0.16814641693224167, -0.08668785459264086, -0.12185178242798936, -0.046325957913204784, 0.0008612693410527368, -0.11194036156247843, 0.002953325751746984, -0.33348277593962866, -0.02763295292253332, 0.09458524061514899, 0.12205544751631783, 0.05194549944288926, 0.17570979049873822, 0.340721877831839, 0.014047662737351502, 0.023758554957280943, -0.21630095832653248, -0.18616519722868938], [-0.01439048401521652, -0.027289640628887498, -0.1067972125678977, -0.1347615574099976, -0.014431326272443337, -0.1347615574099976, 0.020743773657675522, -0.10679721256789791, -0.1347615574099972, -0.085463631046225, -0.013557133814937953, 0.005335407481443665, -0.0068699565385994515, -0.007230415290390604, -0.0077028685735463, -0.0007772438315059732, -0.014029832638831091, -0.06893197625623171, 0.05665929148357888, -0.318438378894821, -0.6070838353675222, 0.028815687070411142, 0.17873447405011944, -0.0861691976022558, 0.007768532268381985, -0.01574676167014625, 3.89398861359833e-05, 0.03149941219827197, 0.09226937408054763, -0.10131676370984218, 0.035052044595710936, 0.03003583252067403, -0.05609183075054995, -0.043634887449991125, 0.2470326422178967, 0.16221694107485707, -0.0784059104598119, -0.2235456695453741, -0.24201424569898977, 0.04745041586940728, -0.07199623189843286, -0.06300383276645978, -0.2001004537262151, -0.24922905611338525, 0.08925307375650898], [0.024002190931521922, 0.08171316849125553, 0.046097584133052684, 0.08715756195827604, 0.024409696467716444, 0.08715756195827604, 0.022059878973342786, 0.04609758413305258, 0.08715756195827629, 0.02170999263873058, 0.013547547450654309, 0.02185599482108986, 0.009010131884349359, 0.006478203692537264, 0.0055602506087513185, 0.015121310862377836, 0.11347166088974846, 0.19143962890669508, -0.24922443118211754, 0.26961673819360144, 0.481701812404531, -0.20004834888800008, -0.06583289484911978, -0.05137111962366295, -0.030742010144508107, 0.015012066893713857, -0.00018682727728345502, -0.19964582913051354, -0.005581519487906522, 0.22316854613783135, 0.011273913317494055, -0.030897101861726756, 0.16803219231302838, 0.04068156169824416, 0.08645013372173221, -0.13458398815232356, -0.0161793301553371, 0.10149022202905632, 0.1900687462561007, -0.2231602063681455, -0.26872564593340603, 0.04895617002910841, 0.176341898768934, 0.4655300144399173, 0.09691212347218035]], "biases": [0.2351351693081051, -0.14801840056769883, -0.08711676874040593], "feat_mean": [-5.422624324906652e-05, -0.00025132601264010924, 0.00012497672787022132, 0.0004762661286119608, -0.00011081916697958608, 0.0004762661286119608, 0.00015179858930245143, 0.00012497672787022325, 0.0004762661286119612, -0.000890793615545331, 0.009543185046672311, 0.010184821085747113, 0.010513034481328912, 0.01010881211621378, 0.009952922209171856, 0.01480405936051726, 0.06651883220714554, 0.512338692824787, 0.0007908536746522332, 18608362.25005609, 91449684.4367838, 1.0384258429097615, 0.016049498543386345, 54.182121819401274, 0.014646620814879231, 0.49979483798135715, 3.308659541011202e-05, 0.2722907939948317, 0.2836490178993211, 0.412731483725802, -0.0007709677520717903, -0.0001974637480838534, -0.07688754713224291, 0.526431321977591, -0.07784920024496611, 1.6716828131872326, 0.4929419556042621, -0.027232196213680025, -0.10619955123737435, 1.249621346316486, 0.9145299145299141, 0.9629629629629637, -0.058743584393384105, -0.07550175727693371, 0.4826398893827097], "feat_var": [1.0397846931045853, 1.1236782723105472, 1.1884256818039716, 1.2820674000925123, 1.039699629432679, 1.2820674000925123, 1.5162723710097599, 1.188425681803972, 1.282067400092512, 1.0902012403834143, 1.0086650324344102, 1.0055153498990788, 1.0034703979012487, 1.001511010290358, 1.0012118188384322, 1.004037114904549, 1.2397234705827596, 34.90134243947877, 359.72792704001523, 8.059771896352207e+18, 1.1748421859865713e+18, 752.1756115599994, 65.33833730232128, 222184.54647143083, 1.0259939383354775, 30.636270653503253, 1.0000325376598238, 17.64022193360131, 14.683870175439585, 53045.0442998373, 2.692486638415105, 1.008537007920836, 64.15886270431623, 47.44520713947929, 355.80067802691315, 1020.2785265944196, 1.423569988188609, 14.701615094188753, 25.797207692698933, 42.73745724967171, 582.4358974358975, 519.5185185185186, 561.9928017033554, 1216.43821378922, 52.553036618093984], "count": 351}