{"w1": [[1.0899006250294136, 0.09917196124087083, -0.5687128491821957, 0.010968661568978265, -0.5130060174451833, 0.9489213842079083], [-0.5643656158749789, 0.26912384220381713, 0.23955166901480157, 0.03143215435683713, -0.7772117672837041, 0.47957156639858367], [-0.2680747331701794, -0.20077439055598953, -0.11138557804324974, -0.4977012427338456, -1.0646148419801875, 0.15918106931135223], [-0.35652288492368195, 0.04275928738300743, -0.16585552676403856, 0.5232355909256712, -0.6698923200419002, -0.5864326747836635], [0.6512226764906603, -0.16636046442134678, -0.05809671634511415, 1.5431963211243205, 1.339350193458524, -0.0692564826514413], [-0.03889221351882376, 0.6957608730090625, 0.22255538565243477, 0.17771855649962104, 0.4236869354292692, 0.09308209255280964], [0.6119463130543853, 1.0463406560941748, -0.30169632681397907, -0.16292473041322725, 0.018703183160730864, -0.16339300857032457], [-0.49034308962556217, -1.0285508570212927, -0.06414486987296845, 0.052762180323906525, 0.6776517653815146, -0.7987912991305871], [0.038113816212447374, 0.011733852644297159, -0.7241183393993582, -0.6708591764659831, 0.1395071526000533, 0.044348696093450324], [-0.2656705218113525, 0.12456392585486299, -0.2257636332169242, -0.41393703121859615, 0.20695103136282667, 0.2863171381346552], [0.1635800135912446, 0.1612844040289015, -0.07400530708371403, 0.2478232474052388, -0.32764774677630165, 0.34498381605991496], [0.7519200385456769, -0.5428130309171018, -0.053842982659921164, -0.05758768357750024, -0.18731642964979656, -0.43939163268234777]], "b1": [[-0.05719387564234833], [-0.06595314024914009], [0.08552177602320948], [-0.035717649127091355], [-0.09082998023548065], [-0.08477878369957609], [-0.0031283293556248542], [0.03796721365399775], [-0.0037754149565414714], [0.023833630891235476], [-0.056476232979607556], [0.011535562342266886]], "w2": [[0.23279028528587606, 0.19839770549609728, 0.0020532361127317605, 0.6671770354920261, -0.25786887413457404, -0.24709190842584072, -0.28155811088957977, 0.7966160705216009, -0.2455328398673437, -0.24346329428167374, 0.31733953596277203, 0.16931037823774536], [-0.7015459022755802, -0.15826708110574564, 0.4281291359407823, 0.17469351736640815, -0.24464777108041744, -0.2795829877476083, 0.39616911514812814, 0.6623937027642263, -0.35224875676530054, 0.7001903860218153, -0.5894125461831654, -0.35395808676880575], [0.12332801977850484, -0.6431598328615848, 0.9408291874995469, -0.4612091564084857, -0.017229141357565793, 0.4141116796859555, -0.17361573032227462, 0.20544817377924143, -0.12075917803573424, 0.3517209665564575, -0.07343318541821134, 0.7051237426786098]], "b2": [[0.06034081493231903], [0.12309913660165475], [0.06047579061651562]], "epsilon": 0.92274469442792}