{"symbol": "SOLUSDT", "timeframe": "15m", "weights": [[-0.0016123167045914324, 0.002801278962620628, 0.012086376992778557, 0.008277311060967057, -0.0016223410372649069, 0.008277311060967057, 0.008771104877886373, 0.012086376992778517, 0.008277311060966967, 0.005502970814006279, 0.004288015417777399, 0.004213485128201632, 0.003897131124697856, -0.01159214763468026, -0.013627571735202652, 0.0016864366585821338, 0.026790909795695313, -0.2571918857054855, -0.04876314443855628, -0.21685327638913487, -0.30684908721517395, 0.011786230085587211, -0.4653704399556109, 0.08959887040588096, 0.0007629435239683192, 0.08132728131716925, 0.00023472951552795733, -0.02583856847914476, 0.06455031797715932, 0.01960040910056734, -0.021968609570872478, 0.0009503202853123525, 0.016379831484318937, 0.2078042750574152, -0.03828093443127837, 0.3022224360699295, 0.15180491993965894, -0.3997328229087294, 0.26075589870740634, 0.6671327842334775, 0.07774662448660194, 0.05182046685235286, 0.17244407430868203, -0.08907230655135898, 0.04446192321751461], [-0.0004806965280788326, -0.00167447596465376, -0.005565160840713573, -0.004463191284526518, -0.0004714920307881892, -0.004463191284526518, -0.004328593945465712, -0.005565160840713543, -0.0044631912845264805, -0.0038766395917843024, -0.0019166254410823576, -0.0018717063706486744, -0.0018962635945937497, 0.007069735195176656, 0.008257435733848868, -0.0003469040865723311, -0.010176871236026695, 0.15848740592192942, -0.0008553286427777252, 0.11407858818488821, 0.19449280051190987, -0.024049104165385336, 0.2514312293099234, -0.029985617219963505, -0.0015115483648938679, -0.03418831633974279, -0.00010280325591931032, -0.00918869309283922, -0.03740749364587362, -0.027755006286913093, 0.0010876208349566913, -0.0010951455645820639, 0.007779182795339208, -0.13938612700943354, 0.051871703348744816, -0.17039083026219104, -0.03247432146838604, 0.21743745253567043, -0.15351804106868397, -0.34064209349642444, -0.031304445571291396, -0.027333073462130906, -0.07929598650895807, 0.06107847596042205, -0.04703730740457383], [0.0020930132326702658, -0.0011268029979668635, -0.006521216152064977, -0.003814119776440545, 0.0020938330680530955, -0.003814119776440545, -0.004442510932420664, -0.006521216152064962, -0.0038141197764404978, -0.0016263312222219769, -0.002371389976695046, -0.0023417787575529636, -0.0020008675301041064, 0.0045224124395036, 0.005370136001353772, -0.0013395325720098018, -0.01661403855966862, 0.09870447978355619, 0.04961847308133395, 0.10277468820424662, 0.11235628670326434, 0.012262874079798019, 0.21393921064568774, -0.05961325318591757, 0.0007486048409255502, -0.04713896497742636, -0.0001319262596086473, 0.03502726157198407, -0.027142824331285783, 0.008154597186345768, 0.0208809887359158, 0.0001448252792697098, -0.024159014279658185, -0.0684181480479815, -0.013590768917466509, -0.13183160580773753, -0.11933059847127289, 0.18229537037305896, -0.10723785763872275, -0.32649069073705306, -0.046442178915310606, -0.024487393390221917, -0.09314808779972385, 0.027993830590936842, 0.0025753841870595033]], "biases": [1.5295613899982217, -0.8186866854001478, -0.7108747045980732], "feat_mean": [-8.228718606193442e-05, -0.000264377888160066, -0.0004666970972208964, -0.000915668006469088, -8.554337764088477e-05, -0.000915668006469088, -0.0017049192023451908, -0.00046669709722089526, -0.0009156680064690858, -5.441316465647597e-05, 0.00223661657092706, 0.0023461066707676104, 0.0024100162177073284, 0.0033716607256397664, 0.003515477730304319, 0.0037009812276116104, 0.014960222743712068, 0.4770112389883262, 0.00488333118624379, -57.54824765228041, -4.8012246853479885, 1.017653277941377, -0.009441413862381273, 46.38289849157981, 0.0036842696442227177, 0.49224223774538084, 2.4353337586058732e-05, 0.24294369294997242, 0.245190930738338, -0.23356947240190712, 1.3907600593632438e-05, 9.695031839039578e-06, -0.11245074334261453, 0.450664768061051, 0.029016836058772165, 1.2197105837625257, 0.5027486002451818, -0.07846547972119532, -0.03302516725097527, 1.3267255943707739, 0.7898989898989899, 0.9393939393939399, -0.20999986021269273, -0.5543779829307142, 0.51423765541546], "feat_var": [1.0032202614581633, 1.0082232366118373, 1.0130275521601129, 1.0246235776944326, 1.003220042147903, 1.0246235776944326, 1.042593666695207, 1.0130275521601129, 1.0246235776944324, 1.0062468365910313, 1.0008834922649932, 1.0005650066427298, 1.000380709406318, 1.0158884802886081, 1.02248104080978, 1.0032834958592103, 1.0307344319687184, 52.851155766926524, 529.4145395022582, 193980643.550753, 1424867.361397619, 155.19050630534113, 29.098235619991613, 103664.40900451201, 1.0426243460807607, 56.52122973237137, 1.0000467822400783, 26.631574017961277, 26.184586129380865, 63987.10838350579, 1.128708305993076, 1.001168715627897, 177.7572399309058, 67.89363945958033, 430.29693922159856, 2690.3297604732434, 1.8759059403693843, 25.521875935443408, 38.07622078190391, 49.46434346231635, 593.1494949494946, 807.1818181818192, 743.3349430720219, 1668.8932981622247, 69.57690457733833], "count": 495}