{"symbol": "SOLUSDT", "timeframe": "1h", "weights": [[0.0040667462844665575, 0.0019055457605473792, 0.008682123055889765, -0.002653030103447649, 0.0038800712875221985, -0.002653030103447649, -0.04105091383613175, 0.008682123055890001, -0.0026530301034478126, -0.00467809980904586, -0.00471897511360661, -0.00260292747068617, -0.000633790011191895, -0.032378236730222325, -0.039456457110394985, 0.0055621092071611025, -0.05207680999021178, 0.1841247477464026, -0.13670748483383785, -0.492444434366953, -0.2911208046472136, -0.029104792750312712, -0.19758857657432013, 0.008232273315522638, 0.04610156068022516, 0.054754212359858855, -0.0003315916733787229, -0.06511414370267316, -0.06179163877477791, 0.08676708167302231, 0.0014612333878649066, 0.0347793554497275, -0.09650471900734452, 0.017977454494131854, 0.11143939680526561, 0.11880698619208535, -0.08240259551327934, -0.23217823202397742, 0.04982132882581722, 0.44447221802361425, 0.1368315620895825, 0.14104853939896175, -0.02123370580370497, -0.05831378074342283, -0.3177679533635062], [-0.005118257574870639, 0.002275993745367155, -0.003797102649119675, -0.005720843955603929, -0.005081898435677427, -0.005720843955603929, 0.0008652081870012255, -0.0037971026491198053, -0.0057208439556038285, 0.00827110481337062, 0.005789271954101383, 0.009718214554646883, 0.006608706999039917, 0.04664849621479771, 0.05447062677365767, 0.005034046756229369, 0.08291017608902614, -0.08895529930225575, -0.020728724483722965, 0.2596309593951115, 0.12184165474296133, -0.053270505567775274, 0.10590204829950495, -0.022832854688144746, 0.006147688583672265, -0.04475746710198053, 0.0003188656891176001, 0.036822566273355554, -0.01389260672983929, -0.048833952142141854, -0.026864355616878655, -0.019047528476139823, -0.024198880951172137, 0.08457100962377127, -0.1266274594698121, -0.04707805953947928, 0.09283077612836384, 0.1211478719473916, -0.13187693274706844, -0.27775311985227286, -0.09241802503638044, -0.044017869070333566, -0.06467992900353105, -0.011290160476713022, 0.44051694538203584], [0.0010515112904040792, -0.004181539505914545, -0.004885020406770097, 0.00837387405905156, 0.001201827148155236, 0.00837387405905156, 0.04018570564913036, -0.004885020406770237, 0.008373874059051588, -0.003593005004324763, -0.0010702968404947757, -0.007115287083960709, -0.005974916987848014, -0.014270259484575379, -0.0150141696632625, -0.010596155963390464, -0.030833366098814315, -0.09516944844414706, 0.15743620931756078, 0.23281347497184152, 0.16927914990425286, 0.08237529831808804, 0.09168652827481533, 0.014600581372622141, -0.05224924926389745, -0.00999674525787839, 1.2725984261121682e-05, 0.02829157742931758, 0.07568424550461722, -0.03793312953088061, 0.025403122229013732, -0.015731826973587614, 0.1207035999585165, -0.10254846411790286, 0.015188062664546744, -0.07172892665260619, -0.010428180615084633, 0.11103036007658573, 0.08205560392125139, -0.1667190981713423, -0.04441353705320218, -0.09703067032862812, 0.0859136348072361, 0.06960394122013563, -0.12274899201852915]], "biases": [1.0428344226298327, -0.6947486127818405, -0.34808580984799203], "feat_mean": [-0.00015383965090947876, -0.00034811152891121893, -0.00038719444824015104, -0.0009448802716691376, -0.00016770211445329487, -0.0009448802716691376, -0.002112546201655757, -0.0003871944482401515, -0.0009448802716691428, -0.0001260774066887862, 0.004656884016040641, 0.004916621023840687, 0.005118855582662356, 0.011194978976575485, 0.012470555338671693, 0.00966242635351012, 0.03609962491968138, 0.4627289683165861, 9.996521895214376e-05, 503.6504842730332, 926.8951534489443, 1.0151376031519288, -0.030756142335567116, 50.91344596295211, 0.009603612154313823, 0.504880180638983, -1.664815400379081e-07, 0.2620668259907753, 0.28071468276989986, -0.30402993303265585, 0.000136416083827628, -0.00036377007306001417, -0.13888255065324814, 0.49002390805057827, -0.04562374867925037, 1.9133474204606602, 0.5077770451616038, -0.03650651311533443, -0.05890380316546611, 1.2830786681086068, 0.913131313131313, 0.8363636363636362, -0.27248850955196496, -0.5990956958206848, 0.5771032501662385], "feat_var": [1.0137112957562238, 1.0434508142127663, 1.0755778524731636, 1.150044578498275, 1.0137107514730412, 1.150044578498275, 1.300822329192429, 1.0755778524731634, 1.150044578498274, 1.025838032901424, 1.003064179297317, 1.001918603536832, 1.0010892182729971, 1.0585523344783927, 1.084794602524042, 1.012116599872449, 1.1744162734269938, 52.668250358372575, 608.9642857958406, 3791509468.8144817, 60058284.03000804, 163.20718569746182, 53.752068522836694, 116069.646397201, 1.1962681288760073, 44.59791781510391, 1.0000221669032312, 22.520739187299228, 24.219339037179175, 70612.10067839557, 1.593860688189652, 1.0065868893163217, 222.77201782043286, 71.8634422583572, 564.2439071493465, 2426.0517865637003, 2.624747777975944, 25.53380793807741, 31.763827834510845, 48.01220194357676, 688.2646464646459, 636.7454545454542, 755.0052053545633, 2273.5329399231655, 99.48323341763346], "count": 495}