{"w1": [[-0.10642746288973218, -0.6140343081826624, -0.010880620075701453, -0.602238608958065, -0.1868259328180123, 0.06251030024537206], [0.1899650846796881, -0.28432186774416207, -0.214010777372932, -0.3141819101716404, 0.38574064226270655, 0.6071157718328357], [0.4709618924940901, -0.6324948173702507, 1.1098728419996036, 0.9632161394750285, 0.9927434530713184, 0.8446976516122595], [0.7919296919531054, 0.21717433852655474, -0.6209441715349757, -0.41597803883238876, -0.4040589696858793, 0.0790434785895707], [-0.5192764527928807, 0.019970237051826503, -0.3006984412461326, -0.4845028451123778, 0.5177532408648415, -0.9971100862288977], [-0.4083506667045477, -0.028237727251657303, 0.029882570014194622, 0.4452841992876226, -0.05199825634424986, 0.28231530225990475], [-0.7331697117466863, -0.20518545440820293, -0.36136248135232013, -0.25716028381836414, -0.48508421532449564, 0.43556164656969015], [-0.1788501175610329, -0.2888426658250014, -0.08794132620821425, 0.0361998644935709, 0.633537770956794, 0.010255726972985204], [1.1557572632890023, -0.391200532523648, 0.09822151639117324, 0.41631650341797916, 0.7607451721843582, -0.24538509731361144], [-0.31372428129619445, -1.0733687458817858, -0.130017184873954, 1.0466246166148088, 0.27179690939019124, 0.37054311819594127], [-0.30473563210285587, -0.9566767629216243, 0.18349740601011935, -0.09267793623781136, -0.5212555278365818, -0.7364902298590714], [0.17741664725267883, 0.46324732581014944, -0.5311012727809897, 0.33876342124171926, -0.2306794810858914, -0.7215349621459342]], "b1": [[0.04700070346541563], [-0.14372336426939072], [-0.017974247108989278], [-0.02562776980979723], [-0.004193701841339931], [0.17829544831674715], [0.065702233198467], [0.05683195076274591], [0.019361836659991867], [0.03696711071122536], [-0.0441398334493922], [0.03536483018188171]], "w2": [[0.1431506901232332, -0.6535603588238534, 0.16917550814294224, 0.0846301919846769, 0.3300216420304234, 0.16485653598319627, 0.34134981319404417, 0.8016703897889612, 0.1084721226038783, 0.1892475523644374, -0.26520602740660687, 0.23289615635733202], [-0.12038197433767446, -0.232649907188874, -0.047223932338471365, -0.12228236131427868, 0.2685023417218749, 0.5920849503855777, 0.5867549847484453, -0.3404794444732721, 0.54436584242016, 0.7463072518286603, 0.02432247757793831, -0.07463948363151462], [0.23437478723211935, -0.8082016983311044, -0.154823222486022, -0.6447073693220647, -0.31875168620544914, 0.9535387881422601, 0.004512986855102633, 0.13560494121744662, 0.11214964211193443, 0.05421656448687071, 0.2036313802185011, 0.6775434823841057]], "b2": [[0.14664908960634787], [0.018362902799853698], [0.1501876877311519]], "epsilon": 0.92274469442792}