{"w1": [[-0.20403466332189898, 0.19627454321303114, -0.17444508861457259, 0.8855261581470988, -0.2991329629183475, 0.08526371403357916], [-0.5682353209127329, -0.12572696321816992, -0.08065715620810482, 0.3003613962748536, -0.9387667382876024, -0.396937789772891], [0.9933995281271856, 0.25599094351086676, 0.07826392428747038, -0.29178052729017406, -0.9045687010358311, 0.747295513552167], [-0.7410775887222594, -0.9713310671142023, 0.35259481749192223, -0.4630002228141186, 0.6261573443264175, 1.0031606720079753], [0.3446130131513156, 0.6744564783348718, 0.6476122424564927, -0.21677235447903662, -0.09077563549147545, -0.7739681963538914], [0.2195082392642825, -0.198464178852855, 0.07195454998706313, -0.6208712391534816, 0.36625054119200284, 0.5548865738446771], [0.16123158303695923, -0.19726669832621313, -0.32556574227178714, 0.5930697770269971, -0.029395228227537342, 0.3316557696621583], [-0.7620104122294775, -0.4325630835980375, -0.7396615830895104, -0.6554619442224966, -1.2424896295944452, -0.18174759621665465], [0.3304172102378774, -0.29610308489843506, 0.6495272097834822, 0.47681960420581676, -0.13464662563941093, -0.19379149156703085], [0.13695980025378582, -0.5896798313879321, -0.23672191028987227, -0.6675284850684793, -0.13663247968430128, 0.8238498781862006], [-1.1529644701608135, -0.3578260246404649, 0.6041387108071281, 0.24607213118844432, -0.4939169993147968, 0.0860229520796703], [1.0333425966528282, -0.3253729097557294, 0.329014496037914, -0.19341237665882322, 0.6309762339666143, 0.07586040883807084]], "b1": [[0.0015248187688556454], [-0.05761418897841355], [0.003939580582444355], [0.03579842646924789], [0.027071198175634793], [0.021343520854437678], [-0.051018279838833766], [-0.02163153630344808], [0.0026662095389231337], [0.006816775970946091], [0.012119379320970344], [0.008710360640071241]], "w2": [[-0.1839246687072546, 0.1600114943570883, 0.117386272309851, 0.12777335653932076, 1.3079557023217891, -0.3660170862870563, -0.05377673623243712, 0.18228549000019767, 0.7215822154462495, 0.5486600711563993, -0.18986386644164321, -0.13790575992926032], [-0.39095924189532033, 0.17463867411939124, -0.5191941915436278, 0.008583708467219155, 0.030292716497404348, 0.6303500323120008, -1.1540040659634, 0.6889749857656992, 0.0706767737972498, 0.3897502173391802, -0.2526998543879607, 0.38561375450269636], [0.3519870988991195, -0.5980606501248098, 0.34206440639622504, 0.29863346728689094, 0.22572821598462495, 0.44664532287228637, 0.45937145521596195, -0.28370571896046803, -0.0971891323281373, -0.304752451993244, 0.2495700576068179, -0.002955562915735402]], "b2": [[0.07508741538980011], [0.09155488252676719], [0.07528775297190432]], "epsilon": 0.92274469442792}