{"w1": [[-0.47900801157956385, 0.9658051590304657, 0.39882672624478277, 0.8891965084496791, -0.022447434049458537, -0.4544388150580133], [0.4912884803204397, 0.3461836513255536, -0.5035054404055561, -0.0008425825424444786, 0.14786827490067203, -0.18086077707490716], [-0.12901592243068194, 0.6689095028131231, 0.35573302313430133, 0.05001892196600189, -0.9984647452986586, -0.06921522232223296], [-0.17929684764013967, 0.9109022796898338, -0.3264013257018692, -0.5459835997643063, 0.08324853896935715, -0.09977196679477576], [0.7807656637210739, 0.401425977239982, -0.21983998447895298, -0.241739004383211, 0.6222820616823118, 0.781356159009333], [-0.8178974702121968, 0.8391899511414919, 0.8381445256470683, 0.34942430006520986, -0.36648231962544836, 0.5398678412394275], [0.2686045397011514, -0.2333238796028646, 0.16065353876250543, -0.38001187343839193, -0.20052077355874165, 0.4837935924676696], [0.9500342846395543, -0.43728153346009574, -0.9383708139443705, 0.5204575807709235, -0.1665825489203925, 1.676229704479095], [0.5144365593514912, -0.6362027375712273, 0.5913568370772289, -0.39485711189490663, 0.010982936833500647, 0.26531791960854123], [-0.39659731024361955, -0.5141838823342048, 0.987381964784339, -0.35215818183761816, -0.07780167375207098, 0.11904792188911559], [-0.9091648900370071, 0.17140123727532586, -0.40732165508339613, -0.1242650529745542, -0.4309758682322678, -0.5731559429391083], [-0.6636024630972913, 0.03773327153845912, -0.4043472996145539, 0.5097807801415744, -0.5208075636789421, -0.11854792562463048]], "b1": [[-0.10552914783252458], [-0.011591521121423642], [-0.04237514017093404], [0.03237016796198406], [0.14352868837322116], [0.0357887651836668], [-0.05707304692325334], [-0.19657361144405042], [0.13473896497984533], [-0.06710075207689871], [-0.09082100271398443], [0.03151881992780984]], "w2": [[-0.16868467826468206, -0.5438322928042281, -0.6529154431611798, 0.515342858787937, 0.4325859167167791, 0.25787265216594485, -0.5086784279631723, -0.7481404981902435, 0.3341674733031692, -0.23637699118818, -0.275024427745901, 0.1692903985612333], [-0.4081231690967881, 0.44349583675408044, 0.12277816516377921, -0.0651895126324287, 0.6836017654391113, 0.020901240684566003, 0.4762048602210741, -0.21453272382979216, 0.7713595185154216, -0.030656552058893144, -0.9111950326747597, -0.3727653059046254], [0.10117412652406683, -0.7421066731722382, -0.14393978301475543, 0.283245166191103, -0.13385682797454365, 0.5299821842170149, 0.43014283965820943, -0.20829736428381118, 0.15917932768544898, 0.2862505998971008, -0.3786386582110351, 0.24434215951752625]], "b2": [[0.20607136868826362], [0.07627885570913938], [0.09684561693125818]], "epsilon": 0.92274469442792}