{"symbol": "TSLA", "timeframe": "4h", "weights": [[-0.008884688898295997, 0.0019336385937324008, -0.01943961054966762, 0.025578710480740088, -0.008643275089309238, 0.025578710480740088, 0.020933555088387998, -0.019439610549667707, 0.02557871048074006, -0.02058677619092211, 0.014411646228852049, 0.004588158289777814, 0.00232412119001951, -0.0008440266148792456, -0.0012426300461297888, 0.0008767823514718149, 0.00785529764200351, 0.06479062443898091, 0.07777048601984295, 0.028826439803110747, -0.19425422516061838, 0.06548567984519989, -0.008090552795491611, 0.06578151282324368, 0.015748139379399347, 0.03394121106031149, -0.0061565054772318205, -0.07445702267702506, -0.08649110287643913, -0.0678372110019574, -0.04471288066370096, -0.00565444339590755, 0.016419236378873305, 0.0047640304416775615, 0.21780130281993243, -0.032697089353558105, -0.013460088635607362, -0.08323920107136847, 0.03829164111321933, -0.08589640868333148, 0.2471375564145642, -0.16793617976886888, -0.006857808366616283, -0.03382432339632953, -0.09173054797389157], [0.021009913303832048, 0.04743393092248707, 0.032958746685954894, -0.0987138891108133, 0.020547699810379256, -0.0987138891108133, 0.009247457068861343, 0.032958746685954846, -0.09871388911081332, 0.044250328607869927, -0.03055785924791247, -0.014543948354054039, 0.0029462751136906024, 0.005516121157168327, 0.006258954313517931, -0.0001975559058573745, -0.017993410542129145, 0.04482897327084623, -0.02326530207099935, -0.18334896022326835, 0.05558402824728132, 0.006252817977818706, -0.11146921622040595, -0.28676439397256465, 0.004630563892614542, 0.09269566836797782, 0.0043917888711852105, -0.001848618408702916, 0.14515624954743753, -0.01801621908524581, 0.1356218854678544, -0.011984898565170507, -0.013643390567792029, -0.12618315025605703, -0.22810183240954507, 0.22002771228385384, 0.0359405302370079, 0.14704347718504432, 0.1937834365596913, 0.15178406707956943, -0.1913922084954403, 0.13518776909082958, 0.040570360441225965, 0.09735340657552499, -0.1374893779407719], [-0.012125224405536043, -0.04936756951621945, -0.013519136136287266, 0.07313517863007324, -0.011904424721070025, 0.07313517863007324, -0.03018101215724935, -0.013519136136287175, 0.07313517863007328, -0.02366355241694786, 0.01614621301906042, 0.009955790064276224, -0.005270396303710115, -0.004672094542289079, -0.005016324267388143, -0.0006792264456144423, 0.010138112900125612, -0.10961959770982707, -0.05450518394884363, 0.15452252042015746, 0.13867019691333707, -0.07173849782301857, 0.1195597690158976, 0.22098288114932096, -0.0203787032720139, -0.12663687942828936, 0.001764716606046613, 0.07630564108572797, -0.05866514667099841, 0.08585343008720314, -0.09090900480415348, 0.017639341961078046, -0.002775845811081268, 0.12141911981437944, 0.010300529589612691, -0.18733062293029581, -0.022480441601400527, -0.06380427611367578, -0.23207507767291072, -0.06588765839623792, -0.05574534791912379, 0.032748410678039325, -0.033712552074609596, -0.06352908317919549, 0.22921992591466353]], "biases": [-0.10132815085048424, 0.3226171707268699, -0.22128901987638566], "feat_mean": [0.0008040601314481658, 0.0022986342911299404, 0.002569884650644685, 0.006378254804642608, 0.0006440724848230011, 0.006378254804642608, 0.01098233798250483, 0.002569884650644676, 0.006378254804642606, -0.000255594129744881, 0.016095312229698646, 0.017254684138405117, 0.017529566944768198, 0.015759515867898193, 0.01615108182906814, 0.025275977082418383, 0.12732881311531496, 0.49530121787240966, -0.04679386827127953, 729888.7694334645, 611755.231612711, 0.9722491001855348, 0.08462147416651357, 49.16095534678547, 0.023047061181123485, 0.4839775008664272, 0.00035243370277477195, 0.27910406536742893, 0.26840708822905507, -0.279175115056899, -0.002895949414288803, 0.0005764709716437292, 0.009535901975396693, 0.43090502038242534, 0.3173128066622186, 0.5704299284775394, 0.5142678034989719, -0.043261649659607104, -0.2944664297476283, 1.1649873462026978, 1.0000000000000002, 1.1217391304347835, 0.009627101216056633, -0.09196821974392769, 0.5397426468561443], "feat_var": [1.0368878588636639, 1.1272400386573802, 1.237852644033512, 1.4188801569575515, 1.036674375728563, 1.4188801569575515, 1.6340987134258433, 1.2378526440335123, 1.418880156957552, 1.0653604034144257, 1.0046180057855, 1.002263833464146, 1.0013741326068704, 1.000857003245757, 1.0007686831083833, 1.0015053638358533, 1.368148761100214, 11.472480089482337, 105.82174801006893, 1.1043210625775754e+16, 1309540848800354.2, 25.119933340322838, 10.226593163931769, 30537.340715594873, 1.0195023649322645, 11.210509036378935, 1.0120224597009129, 6.254072925069488, 6.0285740571778526, 20536.318945759136, 31.265860459244756, 1.0107277304027356, 39.940884694238775, 18.408308145366583, 32.73003994887044, 268.23183789560056, 1.1002945889713815, 6.19323945605713, 9.745622204890456, 35.69670191230743, 215.00000000000006, 295.2956521739131, 235.1486247807272, 461.6636056705628, 14.336314112787885], "count": 115}