{"symbol": "TSLA", "timeframe": "15m", "weights": [[-0.006870921735778707, -0.004342310824977293, 0.004586291541417033, 0.0064020455598688825, -0.007100597762357693, 0.0064020455598688825, 0.04214763956825725, 0.00458629154141714, 0.006402045559868732, -0.030483811312100238, 0.010350735519601416, 0.011979503355997527, 0.004180732110281229, -0.0022190638397361893, -0.0019086783071347781, -0.0011498231529884165, -0.04132419263426976, 0.22602124762835837, -0.1234463743064828, 0.1905666315380191, 0.6913870855100395, 0.003174606609293652, 0.17511208850091667, 0.24334978105274294, -0.00652673296860482, 0.056519144942429676, -0.006819766046774218, 0.042965885932748527, -0.058347514065582376, -0.10219148217584904, -0.09370180595906952, 0.01887703445243814, 0.05429898024913363, 0.1211408731776496, 0.15661612342526463, 0.2653990909689146, -0.18077641887000984, -0.2555657040070507, 0.027425761502296482, 0.08731780324761962, 0.05973094793569278, -0.06467090269984443, -0.05371813752596807, -0.013736356949447415, -0.07511272857019108], [-0.0007731013719296429, -0.0010265047005291713, -0.005418119108299551, -0.005155842546959783, -0.0007117433662754564, -0.005155842546959783, -0.04981737995581222, -0.005418119108299641, -0.00515584254695966, 0.013481886915567044, -0.004371823888776617, -0.004549659387215428, -1.3623919938807146e-05, 0.0004175638363057586, -5.3304601518752597e-05, 0.001454673477759275, 0.043679807325330125, -0.08493938132441398, 0.08467196607749991, -0.08106446487324599, -0.4052850736404073, -0.011501523072972053, -0.1576056575112354, 0.028986842092329105, 0.0005004936206720706, -0.04775736606631982, 0.002665906854410217, -0.05456663122206553, 0.03559614841187324, 0.11572369627095816, 0.0056119331884666316, -0.0007643278784683933, -0.04175951051699413, -0.08935125527425228, -0.13992143456962028, -0.20725659199162436, 0.0736722121513648, 0.11786489435060653, 0.05070483082100269, -0.055107641866321146, 0.007496675184979426, 0.18084305375403156, 0.010216026415003123, 0.028562430058798, -0.17022599642644454], [0.00764402310770835, 0.005368815525506473, 0.0008318275668825649, -0.0012462030129091009, 0.007812341128633155, -0.0012462030129091009, 0.00766974038755501, 0.0008318275668825035, -0.001246203012909026, 0.017001924396533207, -0.005978911630824803, -0.007429843968782108, -0.004167108190342416, 0.0018015000034304282, 0.001961982908653525, -0.00030485032477087383, -0.0023556146910602904, -0.14108186630394445, 0.038774408228982496, -0.10950216666477312, -0.2861020118696325, 0.00832691646367864, -0.01750643098968152, -0.27233662314507207, 0.006026239347932756, -0.008761778876109792, 0.004153859192364001, 0.011600745289316946, 0.022751365653709027, -0.013532214095109303, 0.0880898727706027, -0.018112706573969732, -0.01253946973213962, -0.031789617903397314, -0.016694688855644145, -0.0581424989772898, 0.1071042067186451, 0.13770080965644405, -0.07813059232329927, -0.032210161381298535, -0.06722762312067239, -0.11617215105418709, 0.04350211111096452, -0.014826073109350349, 0.2453387249966355]], "biases": [1.0567568269381118, -0.4763312606213244, -0.5804255663167872], "feat_mean": [0.00031279760929531545, 0.0009484422398156697, 0.0015207473281312286, 0.0033728474199608035, 0.0002984089348708464, 0.0033728474199608035, 0.006932658894577572, 0.001520747328131228, 0.003372847419960807, 0.00010614605243189659, 0.004406877785521283, 0.004719189932351845, 0.005054449518711904, 0.004464880645626217, 0.004486312990341403, 0.006874175599424174, 0.037263450343394226, 0.568093007303144, -0.017381658822667026, 176618.70682583385, 670273.3853406113, 1.0158619253338537, 0.14748833365516478, 53.96559737800872, 0.006556447095443159, 0.5123013999217859, 7.398255667738729e-05, 0.27463949829325307, 0.27131993088537354, -0.3239057282282696, 0.00020740179349636127, -0.00011424823445598161, -0.10878778522414102, 0.4649574003387149, 0.10579980366223292, 2.9288998319947424, 0.5084886835450746, -0.05516736382686894, -0.05815265847168363, 1.220131290609724, 1.0868686868686865, 0.8464646464646469, 0.4161519407253554, 1.019737194406546, 0.7725548858631474], "feat_var": [1.0141977068776367, 1.0434478139704706, 1.074804829395133, 1.158803521840301, 1.0142009208107423, 1.158803521840301, 1.324433656515954, 1.0748048293951336, 1.1588035218403008, 1.0299310330791742, 1.0044220145112874, 1.0030373960829366, 1.0015445055100374, 1.0003510071643726, 1.0003302548474742, 1.0014851907512332, 1.2396085018312597, 54.11388947416953, 596.3932729582524, 295599195379261.8, 54414684463871.15, 270.0875493581829, 105.8710968348993, 177055.14175287093, 1.0065662692823467, 49.92804930440931, 1.0028601322521598, 23.49789851688568, 25.57819098749657, 69797.87231119892, 14.687793530486672, 1.0098161902418807, 178.6962861073962, 74.43670359257696, 966.2079949945737, 7434.255392189493, 2.7007856950134754, 30.66362527427675, 42.82243034050196, 57.47289192525407, 1046.264646464646, 635.3313131313131, 1166.0204976670225, 3351.979919482173, 113.17838275206813], "count": 495}