{"symbol": "TSLA", "timeframe": "1h", "weights": [[0.029532681806513385, 0.09001789963498928, 0.16179548645771785, 0.06613994866600845, 0.029339157981948322, 0.06613994866600845, -0.013402660672025694, 0.16179548645771835, 0.06613994866600874, 0.08156808028072039, 0.015227922091332181, 0.007680504983190563, 0.009261759423143029, 0.00976351267320272, 0.009890274552470699, 0.016598101327783204, -0.0897304927305737, 0.221534259234931, 0.38323667863172267, 0.252288310253805, -0.07953169529751286, 0.36404471487765405, -0.05064643746337667, 0.07442734777628218, 0.04234432373897666, 0.0762339306313815, 0.0012970616608871295, 0.07980100858878707, -0.04859243742468258, -0.07679223279834786, -0.03538233548842103, 0.016884822973695597, -0.06212848582234081, -0.012616359550302346, -0.10420399170465665, -0.0016347438907616928, 0.05585797691946402, 0.13987289625189847, 0.1478487032495952, 0.1453054278895603, -0.008945762346237021, -0.16809038401837623, 0.10868712091397953, 0.20346282098509674, 0.03420844643664913], [-0.04236562052193659, -0.21484827783037486, -0.21958670204514344, 0.0469164676080067, -0.04262864885153242, 0.0469164676080067, -0.024430638789144775, -0.21958670204514366, 0.04691646760800617, -0.09055217837485612, -0.014014058056756045, 0.005834993154767003, -0.0012572200754694548, 0.004210517234728213, 0.0036341983924421326, 0.005224807743330589, -0.013998850387167628, 0.03322726708680812, -0.23139994057963156, -0.21792471248845058, -0.31647366894344503, -0.2561784026851019, -0.13503358515107658, 0.0884289317990239, 7.760836662560164e-05, 0.0736860659031928, -0.033983678061571, -0.25058304923816044, -0.0016955129024028223, -0.02177398897153202, 0.07312875921922395, -0.05479707109342366, -0.1407360389186225, 0.06112030740833023, 0.22255061582366403, -0.19616092341786662, 0.19081906981614544, -0.4205636752821784, 0.022274067678561014, 0.022395696265286417, -0.19784452309354003, 0.08145109079325222, -0.1211502792072163, -0.21737176322499488, 0.13334865451470884], [0.012832938715423193, 0.12483037819538562, 0.057791215587425476, -0.11305641627401507, 0.013289490869584145, -0.11305641627401507, 0.037833299461170505, 0.05779121558742526, -0.11305641627401498, 0.008984098094135728, -0.0012138640345762044, -0.013515498137957535, -0.008004539347673567, -0.013974029907930929, -0.01352447294491282, -0.021822909071113783, 0.10372934311774148, -0.25476152632173926, -0.15183673805209139, -0.03436359776535417, 0.3960053642409574, -0.10786631219255209, 0.18568002261445343, -0.16285627957530616, -0.04242193210560225, -0.1499199965345739, 0.03268661640068389, 0.17078204064937338, 0.05028795032708541, 0.09856622176987988, -0.03774642373080273, 0.03791224811972808, 0.20286452474096306, -0.04850394785802777, -0.11834662411900722, 0.19779566730862852, -0.24667704673560925, 0.2806907790302802, -0.17012277092815647, -0.16770112415484656, 0.20679028543977704, 0.08663929322512384, 0.012463158293236905, 0.013908942239898157, -0.1675571009513577]], "biases": [0.3528016518576787, 0.05120455178756008, -0.404006203645239], "feat_mean": [0.00013637043479940866, 0.0001879500919404821, 0.000559614818899216, 0.001480998843595401, 8.270204664105337e-05, 0.001480998843595401, 0.0021712231651892797, 0.0005596148188992174, 0.0014809988435954028, 0.0002933887044027377, 0.00901648102537619, 0.009701871177239273, 0.010166514897043065, 0.008042808798170535, 0.007915186506192025, 0.01237132903238123, 0.06815919285639696, 0.518449214765404, -0.018758236456874598, -67162.98480563198, -447312.6423490418, 1.0076645241684958, -0.014630877495482154, 51.99429079037054, 0.01163822116647761, 0.48491540293308094, -6.970640135313329e-05, 0.2846268561809192, 0.2564807061428788, 1.0042051985827105, 0.0003737467023402701, -0.00015987582865308704, -0.22227253043802145, 0.5423498481977603, 0.023852895810250657, 3.7304646913392183, 0.5181132688518967, -0.09701979391120705, -0.07034057041196382, 1.152106014940991, 0.8262626262626266, 0.969696969696969, 0.005105297098084362, -0.07968365004262529, 0.6564181237700168], "feat_var": [1.053107776067321, 1.1553204753516473, 1.246400810987958, 1.4844329140783123, 1.0531428785262098, 1.4844329140783123, 2.060664445375782, 1.2464008109879574, 1.4844329140783123, 1.1059226878923947, 1.014246370083327, 1.0081430790317412, 1.0041149132814664, 1.0010264281083925, 1.0007709535931921, 1.002149007397031, 1.4714752031958287, 52.72454082870627, 484.98307630711724, 4083162013754696.5, 380023642806000.9, 157.7418687504654, 103.3508068871231, 163809.83685200382, 1.0239140580653472, 45.6466974595306, 1.014735356334352, 23.674772163149218, 19.670749126916263, 93116.17166003822, 46.91330415230049, 1.0176668350579259, 423.03709919059577, 72.38339272887478, 1005.169162445095, 4190.901262829571, 2.3111007861962976, 23.77723678713602, 26.13761523728079, 45.30702325647783, 610.0585858585855, 865.5454545454547, 1309.522329453045, 2820.0575759206204, 105.71519703201523], "count": 495}