{"symbol": "TSLA", "timeframe": "1d", "weights": [[-0.05704760812574226, 0.09485334080154749, -0.051141662041472, 0.02955534634744354, -0.05782292165841436, 0.02955534634744354, 0.07608857133658567, -0.05114166204147219, 0.029555346347443757, -0.006803194716419469, 0.14307983811013283, 0.06487189262701579, 0.05582086394940207, 0.04060658047778422, 0.030517791164361985, 0.06358020768308398, 0.12779882818598198, -0.02470245768411919, 0.13424868680960225, 0.02254114768604345, -0.15496383571019812, 0.18790569543817495, -0.16303491116003968, -0.1498859499220514, 0.08096959445850362, -0.051610991004678745, -0.11945596827168009, 0.06567370191792733, -0.05620961961343582, -0.016941961999996678, -0.08105729570127543, -0.018490650861309264, 0.12855552625548047, -0.0810985826723364, -0.031256037562737746, -0.14449860488611105, 0.13798131170272812, 0.0968030380497406, 0.09099885840709902, 0.015279575041881814, -0.011313651324277727, -0.007729772513648217, -0.02751754523871365, 0.0926036548342161, -0.10677552322601849], [-0.030252197090598947, -0.21324307315439597, -0.2103305825042036, -0.06748180198229463, -0.031933438295430855, -0.06748180198229463, -0.03240804686499164, -0.21033058250420342, -0.06748180198229449, -0.011381824904280769, -0.18130157109535594, 0.041449118181087194, 0.030965593730415172, 0.006134949373094898, 0.01220531430570293, 0.003861388985449461, 0.21680645759890088, 0.15892216313868504, -0.1605807030972457, -0.07509670684335867, 0.037507536994204324, -0.18763343201174354, 0.2506328540286752, 0.058743465059913666, -0.04427523979528587, 0.11679303826032997, 0.09463161478367392, -0.04307582669937021, 0.2177777925883079, -0.192105674618682, -0.007381444082171992, 0.18375161161958092, -0.04381788687347792, -0.014457944246925735, 0.28283430128670345, 0.6953016073331669, -0.29446443201620154, 0.4334819526811741, 0.20191134420967238, -0.33969703549786173, 0.056075432587322165, 0.10236508054006534, -0.09565022596769059, -0.23784008860184233, -0.1133359249027275], [0.08729980521634113, 0.11838973235284836, 0.2614722445456753, 0.03792645563485101, 0.08975635995384512, 0.03792645563485101, -0.043680524471594255, 0.2614722445456755, 0.03792645563485077, 0.01818501962070011, 0.03822173298522305, -0.10632101080810316, -0.08678645767981726, -0.04674152985087911, -0.04272310547006493, -0.06744159666853343, -0.3446052857848828, -0.13421970545456566, 0.026332016287643457, 0.05255555915731514, 0.11745629871599404, -0.0002722634264315238, -0.08759794286863501, 0.09114248486213775, -0.036694354663217695, -0.06518204725565133, 0.02482435348800621, -0.022597875218556912, -0.1615681729748721, 0.20904763661867845, 0.08843873978344743, -0.16526096075827185, -0.08473763938200261, 0.09555652691926197, -0.2515782637239656, -0.5508030024470555, 0.1564831203134734, -0.5302849907309144, -0.29291020261677114, 0.32441746045597986, -0.04476178126304457, -0.09463530802641736, 0.12316777120640424, 0.1452364337676265, 0.22011144812874606]], "biases": [-0.19383069400127426, 0.27157795658116024, -0.07774726257988566], "feat_mean": [0.002434938698826654, 0.00712587683538469, 0.01218946521070826, 0.025260491349992954, 0.0017040780999823606, 0.025260491349992954, 0.05126334714957318, 0.01218946521070826, 0.02526049134999296, -0.00041383035818276075, 0.033783489166377655, 0.03536722662172501, 0.03588324163895596, 0.028351488856025748, 0.02825278970703708, 0.04878114465739362, 0.24631884108089694, 0.5549508977955276, -0.027839531348000456, 7502995.0254055755, 131832929.06607948, 1.0013185828660123, 0.09376137671023135, 54.821137579832374, 0.043822383370713536, 0.512937466150661, 0.0016642328617563825, 0.2549640371969587, 0.27467818721903703, 0.38050372432487795, -0.0014590315500803046, 0.0009758730721754328, -0.07180847963306718, 0.5240038669583862, 0.16324328184601877, 0.8545002749527236, 0.4991907990203908, -0.06201219357346082, 0.007952445661963166, 1.355591671822729, 1.0868686868686865, 0.927272727272727, 0.35126414040316795, 0.7315057971675849, 0.6076599265988313], "feat_var": [1.7315684105427989, 3.2146756069956246, 4.600991844774764, 8.094652664877241, 1.7179151947253195, 8.094652664877241, 16.03889511721189, 4.600991844774763, 8.094652664877243, 2.5800600476485096, 1.176584231379503, 1.1157108454078826, 1.091523907781238, 1.0325777419089444, 1.0283768476866928, 1.1102107173376552, 9.179827275607199, 56.448411873637326, 538.0420427226323, 6.318073370675091e+17, 1.6900697009653053e+18, 46.87242473026069, 56.57821256732673, 119298.04090341766, 1.2448713615323685, 46.41365404281083, 1.2444585795691965, 20.62018697557433, 22.269026026382875, 61406.133776045666, 402.1668188687883, 1.2306932024269206, 78.02093809078633, 69.43857401971044, 344.5300580985861, 2293.25538666816, 2.0744144210774973, 29.92301875851507, 38.646453108301074, 49.78157901531713, 1216.2646464646452, 836.3818181818181, 1166.8903512945915, 2512.176532829886, 114.62766391844617], "count": 495}