{"w1": [[-1.2346436675290229, -0.5448096335330511, 0.5227742730659268, 0.3753614544896162, 0.1851645902086164, 0.17187919739531085], [-0.021654390977962297, 0.5734388948388617, -0.8636969422363414, 0.6656764562379157, -1.0510587717787498, 0.8798368198552886], [0.9098763369165108, -0.3370212435863254, -0.43790789451354356, 0.3288980630745572, -0.43822614760300604, -0.08895034813438708], [-0.2061316848030539, -0.5177091176832972, 0.8517729461168815, -0.5132622205100771, -0.23421582675687164, 0.1273540241273093], [0.8068243505878651, -0.16500748543993426, 1.316703860807974, 0.4602789180989409, 0.10455474169757974, 1.0099573309873473], [0.4908870702765894, 0.04206331230445754, -0.21767287381696088, 0.005607307683519743, -0.07690958330842702, -0.52935802690055], [-0.3095847977771653, -0.12964742476899968, 0.41356073610489547, -0.5290850015334974, -0.6049456708389975, -1.0208261781926138], [-0.6972652378946514, 0.32199703665889856, 0.4482501476649736, 0.5381243096395106, -0.6874553974294542, 0.5310790440221728], [0.9609141717507252, -0.45755232565716525, 0.033005236028244914, -0.964030370488918, -1.1767786341320043, -0.9410367895401544], [-0.8024524195728717, 0.17453457657957713, -0.44432668776226963, 0.2819471065908616, -0.4235196210247641, -0.35245124715256293], [0.21781134138141478, 0.32287757194619887, -0.08806673318968093, -0.49268634197971267, -0.5710020106116007, 1.1429585198072478], [-0.25013611200121955, 0.09795829538168363, -0.790704371276064, 0.3202195724998609, 1.126637999454233, -0.6316533703628697]], "b1": [[-0.06898334078030963], [-0.09028556812928601], [-0.030863579169086316], [0.1841396183603351], [0.045276432203464556], [-0.04623214699139582], [-0.040982665410896124], [0.07000261299129212], [-0.1595312110660986], [-0.19554877770220605], [0.04188039614271245], [-0.03376143868345086]], "w2": [[-0.41315810441494855, 0.795887513856173, 0.08672816225402502, 0.33791423925307884, 0.4128337878127394, -0.006920877249816072, -0.24870334764761406, -1.0786524165341271, -0.08199615993430008, 0.019951185458670827, 0.5561723835584321, -0.3571569266689018], [0.3062575974866417, 0.2010054406656307, -0.3431660886897479, -0.0011563686232757755, 0.1742614784063029, 0.7535954224896808, -0.9189122902782203, 0.42795582613821165, 0.7114962963938686, -0.4454186534269234, -0.15529287398365438, 0.5616474553359324], [0.2002341406425982, -0.6194914431970684, -0.3433950017524868, 0.5468184599928543, -0.055167963544625276, -0.20759413947530236, 0.11952105786858967, 0.06316588624797957, -0.0698790174469267, -0.2612770005154382, 0.26389112085108835, -0.5042343501207078]], "b2": [[0.09956692244678463], [0.058395976235575096], [0.2019031517911991]], "epsilon": 0.92274469442792}