{"w1": [[-0.8459227190244051, -0.1449702521120653, -0.08316574459605434, -0.6149480489419761, 1.2781411324368064, -0.4613748605211457], [-0.12138745352744668, -1.1328128456037758, 0.16996288520257877, -1.0292139458546843, 0.42374362743756655, 1.4230092256361129], [-0.4893837730988297, 0.041038438305728425, -0.2204024294767146, 0.9113838168849571, -0.9969044564188391, -0.030676469148746565], [-0.3663503275763179, -0.7377643843567185, 1.4286645416402792, -0.15092060199297627, 0.03425050030059704, -0.17470169238320432], [-0.2800004707101735, 0.6919890605947345, 1.7819443040299914, -0.5437775788730983, 1.1734350371390396, -0.0045453492259726], [-0.9903436425866935, 0.9256422493500348, -0.9060620016587542, 0.6186180235483061, -0.33563738875437826, 0.27869304079840657], [0.1317743912117101, -0.14761286965781228, -1.2887445941823805, -0.8782657587605115, 0.2137634939468106, -0.23081313746867765], [-0.020211181777746286, -0.22308696166592826, 0.8034466386220475, 0.3762878711396283, -0.14416523993837702, -0.3400099710821046], [1.4433732723308246, -0.20255114288087034, 0.5360791018933054, 0.4958965859052085, 0.39273170662296386, 0.7432593236439116], [0.18249395691544043, 1.0534169399573778, -0.6757317353355706, -0.0033137420122873328, -0.07155787481554056, 0.6678986161944687], [-0.27327436212492756, 1.5671037501785445, -0.3318388944139605, 0.025663828064758275, -0.2093887353594111, 0.009343549621841285], [-0.23995694019484798, 0.8380145318102523, -0.6671822453524519, 0.37761059503387895, 0.76310584720404, 0.3909057123092056]], "b1": [[-0.025465107183521088], [-0.048410421003486824], [-0.005668378178425743], [-0.015101362897942797], [-0.0465343633404528], [0.001160267064893477], [-0.028041296345372762], [-0.04177781219124193], [-0.046714812924741896], [-0.001898125353118326], [0.04421573127239192], [-0.004416065260334999]], "w2": [[-0.24609163085425287, -0.13900317002381093, -0.15383106381697703, -0.15913256018234617, -0.2622027625987361, -0.24907318772776882, -0.22781135818639903, -0.8039716868766962, -0.1225583007148017, 0.1459015074511458, 0.12446059707666667, 0.08242344762536866], [-0.057422039310892306, -0.5640072804570853, 0.6298103394809994, 0.023638749168266047, -0.7350570724146009, 0.4110645260157698, -0.19440302023012487, -0.04320773527378769, -0.09173339981970279, -0.19713487852954736, 0.3418981266893796, -0.3619360620522342], [-0.5957976344586564, 0.4997696771038317, 0.004522681752286688, -0.4591914127999364, 0.4876817678455216, 0.2552504709435965, -0.4335124536352392, 0.23688498434192073, -0.00011744023001445089, -0.009209305709374659, 0.6425013574721102, 0.5087807946684644]], "b2": [[0.047396402531351564], [0.04332520514461061], [-0.0076995606028174126]], "epsilon": 0.92274469442792}