{"w1": [[-0.24594148329648594, -0.6484697423494554, -0.9717473785979809, 0.08726333347637495, 0.9430189588389256, -0.06216444967652714], [-0.27710468736629584, 1.2296627174883792, -0.9656208101403612, 0.22388650217597067, -0.15987788177984374, 0.5481190135245446], [0.06721815211689469, -0.8741627668772455, -0.3455855793976981, 0.5036573835726647, 0.356068227878275, -0.8671978326887172], [0.04673702899975894, -0.4080885235447975, 0.07435338371517859, 0.7422783818722982, 0.19579523270952665, -0.7224629706697179], [-0.040738846912733405, -0.009502024598184007, 1.1213146913248146, 0.20239534932962103, 0.15087622285458388, -0.1363086339413427], [0.16575940296388553, -0.43102019044106415, 0.18080367454983268, -0.017695262908842484, -0.5375289694996772, -0.4843760239133016], [-0.20039194492197085, 0.2315017866015022, -0.662013665869089, 0.2628579727425133, 0.49998411113595, -0.2689181727647465], [0.6290033840731124, 0.37947432544246185, -0.5411597469839197, -0.34251651009686934, 0.815345221096699, 0.2441892630379821], [0.6056155539423644, 0.18958407938407582, -0.17839753606656517, 0.25534817846548824, 0.7162055862193242, -0.18163291515254074], [-0.26372727703630144, 0.23060201046560486, -0.029905744696679396, -0.623423594703934, -0.4483217087630117, -1.0699149637379903], [-0.13867895208783798, 0.8648502355771244, 0.31051466395933774, -0.6369367542261958, 0.33214230935001765, 0.24833442611619827], [0.1352257821362808, -0.5573711478424004, -0.7036373128074183, -0.7807586121951937, 0.6351260660624137, -0.815550668785546]], "b1": [[-0.09019258982385808], [0.07078031606556939], [-0.14753139252476033], [0.06626495129085325], [-0.16477364826510985], [-0.05980423194228978], [0.07313598522608945], [-0.09905894694255989], [0.03859664406555608], [-0.10497842771699761], [0.005755558769328284], [-0.0027098695294387972]], "w2": [[0.08230726367145054, 0.9568180665436098, 0.030421861916249165, -0.06381124927872847, -0.053429991701098106, 0.1675549086576657, 0.3611430067289672, -0.3597653557598509, 0.5240939125822467, -0.6864294264628468, -1.0439895262383045, 0.4037918506058961], [0.16845428137177898, 0.2391203691946504, 0.6837099656872673, 0.2016753314423112, 0.4677134782182886, -0.2953902076506008, 0.24793271742029818, -0.3994317125353489, 0.13200623420716415, -0.7998735372683816, 0.14527644333524822, -0.6446612962096058], [-0.04397314490621903, -0.3968714644549934, -0.5914027790585813, 0.5727946584669306, -0.6421945471614133, -0.5475299443628557, -0.5320282492803212, -0.03870572394255035, -0.10601454085210689, -0.04958370445212948, 1.0356610693269044, -0.06669589011888621]], "b2": [[0.09647374858864591], [0.07339401562364627], [0.10875071614366254]], "epsilon": 0.92274469442792}