{"w1": [[0.4710990470712414, -0.40348224036776087, -0.5746028754792257, -0.710407719968287, -0.2529729882324931, -0.4449893021222733], [0.4650710089948023, -0.3449186934924898, 0.2672563913961028, 0.6237159388329516, 0.05098881891998692, 0.4354977588736542], [-0.24521645594162716, -0.29364201874938667, -0.03478462803586911, 0.09199123016339966, 0.5437511718402352, -0.7300153036812564], [-0.028493149062962676, 0.5198071543241086, 0.5884574218763746, -0.6862730280757359, 1.0686115571482662, 0.43293518230816785], [0.8294416435067741, 0.5863964515047484, 0.7835123798614398, 0.07489034887181951, 0.8121032954784918, -0.2435640482734425], [0.2797550846327201, -0.865376423705666, 0.03836819297082221, -0.457173216641792, -0.4134812534277512, -0.30276960476217396], [-0.06010642549626895, 0.7195456626942474, -0.5651693194888744, -0.25636506472015075, -0.5999336653983758, 0.345459675078673], [0.6885269327676945, 0.8008046623386766, 0.4025979290716885, 0.36629115963152675, -0.914281582228658, -0.4066291071557871], [0.42687322577407477, 0.013873169442584609, -0.8663580082237445, 0.3666590711329309, 0.2537187434026264, 0.24986848343798826], [0.2641499637406179, -0.39421155136027036, 0.15929787178986085, -0.4570047633703062, 0.18691007682934685, -0.5701125576333388], [0.943209491434619, 0.25380157025569966, 0.08418571510143252, 0.09331951977561696, -0.6349993014178636, 0.8014300105014898], [-0.8557143459452332, -0.6305622120193577, -0.1278946141353463, -0.7153198838263154, -0.683074216552354, -1.2528738874259175]], "b1": [[-0.004556418935702414], [-0.021669828081804374], [-0.011780154162638534], [-0.05099981264963045], [0.03900240896157573], [0.01909839921111285], [-0.06631151411001489], [0.0007778734364918011], [0.0014373268120674507], [-0.026290135451773406], [-0.017675723854345925], [-0.0012871707988043855]], "w2": [[0.321668525464135, -0.3873704401188212, 0.08120461664166674, -0.7222073051992163, 0.5210204038427861, 0.2273991268575269, 0.0098275929461381, 0.038664017964169003, 0.06712735847224721, -0.5618771384720198, 0.10021543330978828, -0.2679264130314765], [0.005366802812763848, 0.2646840910508188, -0.6483877652879037, 0.07944473504276445, 0.11231026376431834, 0.4386819584725062, -0.49081322549762524, 0.10110817269048489, 0.18210454142287277, -0.34731717981941845, -0.2780924681622211, -0.11275973492611023], [-0.49962649383117, 0.05551090093759337, 0.45385342803345774, 0.6939700306458016, -0.27327847215405937, 0.012287916923608545, -0.6156636367962979, -0.07585040001907659, -0.4166093142430542, 0.7389871817798747, -0.03044908049844195, 0.39670163833682043]], "b2": [[0.08450116178427497], [0.083285492617794], [0.05579900386635777]], "epsilon": 0.92274469442792}