{"symbol": "USDCUSDT", "timeframe": "15m", "weights": [[-4.362790299362813e-05, -0.00010025922128983469, -0.0001656759277727939, -6.241023419230305e-05, -4.364620572961947e-05, -6.241023419230305e-05, -0.0005093639046226602, -0.00016567592777284694, -6.241023419225617e-05, -6.164654155338043e-05, 0.00028472197712350276, 0.00027308157557809815, 0.0003168757841569547, 0.0016586298425496882, 0.0019260476146916621, 0.0009812486594744968, 0.0015054477275946898, -0.2106175275289178, 0.031402712124550244, 0.14309755946221484, 0.4641002639106369, -0.05553829950415272, 0.0195161058200189, 0.022432323304432292, 0.0016812275897494968, -0.004874271097572587, 7.657376409011422e-06, -0.07372067130748224, -0.030653777912259338, -0.053848583818653, -1.2955206554567286e-06, -3.3951478812547154e-05, 0.1278912033899755, -0.13146006278237451, 0.34197282833403, 0.27942579831731024, 0.06342436627377396, 0.22447845341262265, -0.5542958889490985, 0.3793491949615169, 0.15046011822873842, 0.15961674341986157, 0.1319962454438603, 0.16827260353409915, 0.04724715496824909], [2.1813951496814057e-05, 5.012961064491735e-05, 8.283796388639696e-05, 3.1205117096151504e-05, 2.1823102864809736e-05, 3.1205117096151504e-05, 0.0002546819523113303, 8.28379638864235e-05, 3.120511709612808e-05, 3.082327077669022e-05, -0.00014236098856175135, -0.00013654078778904913, -0.00015843789207847732, -0.0008293149212748441, -0.0009630238073458314, -0.0004906243297372483, -0.0007527238637973448, 0.10530876376445888, -0.01570135606227515, -0.07154877973110739, -0.23205013195531854, 0.027769149752076356, -0.009758052910009442, -0.011216161652216266, -0.000840613794874748, 0.002437135548786305, -3.828688204505702e-06, 0.03686033565374116, 0.01532688895612965, 0.026924291909326537, 6.477603277283664e-07, 1.697573940627358e-05, -0.06394560169498772, 0.06573003139118709, -0.170986414167015, -0.13971289915865506, -0.03171218313688688, -0.11223922670631142, 0.2771479444745494, -0.18967459748075857, -0.0752300591143692, -0.07980837170993074, -0.06599812272193016, -0.08413630176704956, -0.023623577484124574], [2.1813951496814044e-05, 5.0129610644917296e-05, 8.283796388639695e-05, 3.1205117096151484e-05, 2.1823102864809733e-05, 3.1205117096151484e-05, 0.00025468195231133015, 8.283796388642348e-05, 3.120511709612807e-05, 3.082327077669019e-05, -0.00014236098856175138, -0.00013654078778904913, -0.00015843789207847735, -0.0008293149212748441, -0.0009630238073458312, -0.0004906243297372483, -0.0007527238637973448, 0.10530876376445893, -0.015701356062275164, -0.07154877973110739, -0.23205013195531848, 0.027769149752076363, -0.009758052910009456, -0.011216161652216259, -0.0008406137948747483, 0.0024371355487863102, -3.828688204505708e-06, 0.03686033565374114, 0.015326888956129653, 0.026924291909326506, 6.477603277283653e-07, 1.6975739406273577e-05, -0.06394560169498774, 0.06573003139118708, -0.170986414167015, -0.13971289915865512, -0.031712183136886875, -0.11223922670631141, 0.2771479444745493, -0.1896745974807586, -0.07523005911436922, -0.07980837170993077, -0.06599812272193013, -0.0841363017670496, -0.023623577484124567]], "biases": [1.7618682607526757, -0.8809341303763378, -0.8809341303763379], "feat_mean": [-5.994260605746991e-08, 1.0244642198694595e-07, -1.5902165786172416e-07, -6.213819220322414e-07, -6.054843867717795e-08, -6.213819220322414e-07, 8.345079649787957e-07, -1.5902165786236713e-07, -6.213819220334294e-07, 4.440141540467394e-07, 2.5388559030736624e-05, 2.694777686276478e-05, 2.843883959323598e-05, 0.00012308102471082695, 0.00014159668910649712, 7.79645730208884e-05, 0.00017227489282388837, 0.5277700806638597, -0.06278176295695342, 9027.544438322631, 39.19152698731899, 0.9862244883087989, 0.039096714220836416, 48.9801723091524, 7.767846456165198e-05, 0.48293686340687403, 1.150395080300616e-06, 0.2737372286369931, 0.27153866351051803, 0.4231801076719881, -3.410919548295977e-09, -1.8952058952828078e-07, -0.18372779866681085, 0.5222979985970191, -0.12104028571595862, 1.284240521782943, 0.5062636849069176, -0.1456239967137225, -0.02545925265498834, 1.2873454629709267, 0.6828282828282829, 0.5393939393939386, -0.13592883469686237, -0.35806415870311814, 0.49520322532717137], "feat_var": [1.0000005997735284, 1.0000015193652576, 1.0000024215482235, 1.0000042717317332, 1.000000599771973, 1.0000042717317332, 1.0000069422041564, 1.0000024215482235, 1.0000042717317332, 1.000001318775361, 1.0000003079506476, 1.0000002581942988, 1.000000211681101, 1.000027169137357, 1.0000379082027708, 1.0000071859603739, 1.000009416159789, 53.81666356637829, 514.3745913392125, 1672220328356.5364, 2554565.9984122543, 156.7878657912841, 19.44998695030449, 148298.54198021282, 1.0000930956552891, 65.00318895164516, 1.0000000457502312, 41.591007947729125, 41.62757174879353, 68378.222371203, 1.0000000034372938, 1.0000002057485091, 224.009101583801, 68.43814885817164, 354.12949466016823, 2756.6548989774583, 2.85800399681262, 33.49047079671559, 46.70334825544184, 54.22292929649894, 652.204040404041, 367.9818181818183, 669.5260091739377, 2108.2079130762413, 103.03002009955812], "count": 495}