{"w1": [[-0.3490461053878425, 0.6482808451165807, -1.107774199751302, -0.08547053186137907, 0.15632928172134844, 0.2527523203117643], [-0.05939797029560089, 0.8370178821095247, 0.20620222366986057, -1.5662838494736957, 0.43360492787859684, -0.11031042966568295], [-1.4409137263727025, 1.350260002764756, 0.059611576797799146, -0.24192839442525654, -0.5334074224680091, 0.8810028377056649], [0.2179233813007024, 0.18846783422961558, -0.08000422254578025, -0.03549613657231502, 0.5690475180338294, -0.48615888200630264], [0.6011821577135744, 0.5254755343293677, -0.059463746434633896, 0.14451468040060284, -0.029799161620225986, -0.22516897670951297], [-0.5029198422710712, -0.1847583111288492, -0.0574617280213327, 0.4292705860688687, 0.895201962947414, 0.4431425678741368], [-0.058090071256758115, 0.1428650709942524, 0.27818438543191015, -0.19196613983461033, 0.14840360058332086, 0.3576140066426815], [-0.02825605731311341, -0.18873232253428432, -0.14380169936526604, -0.6681520892250883, -0.6258835062332099, 1.1679292613968675], [0.47263980608112394, -0.16415888927932634, 0.4660658721611343, 0.08115400313378728, -0.3700322089190993, -0.32237207821417585], [0.3386616102294489, 0.5577700050922503, -1.0721967746282293, -0.46411192547169133, -0.30770499372700816, 0.19579423179256572], [-0.33027417426496636, 0.039096158019943754, -1.7677762288502856, 0.03848003879170056, 0.838821061897768, -0.48842863241036366], [1.0502237052620262, 0.40165375103837464, -0.3524838636186174, 0.3474889322904198, -0.05087819567047109, 0.7114139921970085]], "b1": [[0.0067883382614847285], [-0.0033307414078955016], [-0.004304407578509426], [-0.010467877024110735], [0.0019656405794005074], [-0.001357005575150316], [0.0044400299595631805], [0.007906616260715702], [0.0023520950091857613], [-0.014552692715839949], [0.0012918768753114086], [-0.015978106529692112]], "w2": [[0.24693212280388016, 0.1742589181002618, -0.27026427177295337, -0.34483904328963694, -0.2905604668756859, 0.6995379809297106, 0.2466847201489041, 0.16274290604731045, -0.23114726518388448, -0.15688621888186843, 0.20974953796492957, -0.3815630461380634], [0.25406310683043604, -0.6639153649670746, -0.1877074437508919, -0.11739964331364793, -0.3693068873942553, -0.32157678415932645, 0.28084507443050777, 0.23185590383431612, 0.3872293536930507, -0.44915760722531656, 0.40715625770704084, 0.021433677317525907], [-0.20304919968029556, 0.0802207847260116, 0.5195222499269818, -1.0116025658102756, 0.64338785368381, -0.04029435511296035, -0.25849634102516533, 0.08073604075957015, 0.1765369999801637, -0.24069543907714613, -0.4806804258293524, -0.6201259371715806]], "b2": [[0.01745633628916595], [0.03190226719945728], [0.016372721141927817]], "epsilon": 0.92274469442792}