{"w1": [[0.44453094217695366, 0.398436140616099, 0.0662645093651478, 0.41862051168589615, -0.3359092352409232, 0.8580048280376511], [-0.9357857369010678, 0.44927370840887215, -0.5352798807725618, -0.6038234073275909, -0.002570672590404251, -0.13423615162536193], [-1.2744898794777204, 1.4365190404015293, -0.21809923147041457, 0.16593615084220362, 0.2021291287609473, 0.1524722386847296], [0.10163007355548923, 0.3633770037150259, -0.2243550697323715, -0.3668943079741067, 0.6388054163475345, -0.21676685117236966], [-0.3090672646317991, -0.3620443528106242, 0.2356032772160893, -1.1317450470675645, -0.04458812037241346, -0.27771842877546427], [0.6122672547697933, 0.21017064424155707, -0.7040454711529125, -0.100553230055046, 0.7227847515631153, 0.46423289747435814], [-0.19562703520150737, 0.23462451000426854, 0.6363193998696283, -0.6638320278399973, -0.3019238274748646, -0.4684380924428149], [0.04981143510555038, 0.4448351164237236, -0.17219946406213602, -0.46767784128956413, 0.7301214681903249, 0.2647280891420469], [-0.2844816798009699, 0.2679074024615592, 1.1422464079175811, -0.513552629489414, 0.19114724210463574, -0.39647923334184576], [-0.7706861664658016, 0.782442884771855, -0.038759046230603805, -0.04329404090245424, -0.22007675335681903, -0.5226172192324465], [0.11706555982407253, 0.33287249915866707, 0.49990992004487406, 0.7188911646316717, -0.2630119513289123, -0.5858804738286598], [-0.37501207164570804, -0.8053614842791169, 0.9954251499277121, 0.08120001513825394, 0.17463879856212788, 0.7447629265190137]], "b1": [[-0.0040171313508400065], [0.03840495541449868], [0.0045818131765928746], [-0.05066873128924141], [0.024385539892746312], [-0.017692508262181904], [-0.009768803945613667], [-0.011012810205910413], [-0.007639266188045701], [-0.016918357808598124], [0.022962753044493682], [-0.03605593170979888]], "w2": [[0.308478651276903, 0.5412520414949437, -0.21836187537640148, -0.07353919485237956, 0.6666089342607604, 0.14749102749852816, -0.15129011338521708, -0.23646274985617988, 0.06876185494572953, -0.4265421831660604, 0.10421024100946184, -0.17059377347379076], [-0.38431839572139065, -0.0713897325314638, 0.4874736545300968, -0.012863710182369181, -0.18920851368333075, -0.20987516103523465, -0.2701887943594884, 0.07597876556177673, -0.7340128839682893, 0.01855855502349593, 0.6328469692351674, 0.7279099409025688], [0.05983585095746015, 0.3433493710950008, 0.3483849386836039, -0.6960109435571976, 0.16105669208793713, -0.026617518726117183, 0.14179472955967945, -0.048706995814647554, 0.46346367365609636, 0.46073161215287906, 0.5744297815048002, -0.5949084905508278]], "b2": [[0.05617124329683129], [0.07053994866171266], [0.10335406967133119]], "epsilon": 0.92274469442792}