{"symbol": "USDCUSDT", "timeframe": "1h", "weights": [[-3.293649447086028e-06, -0.00010737145074047909, -1.1359435642446944e-05, -9.262382758287098e-05, -3.2963827917910295e-06, -9.262382758287098e-05, -0.00022213120835637347, -1.1359435642508098e-05, -9.262382758292966e-05, 9.350949224008135e-05, 3.483357883020168e-05, 2.737054574988706e-05, 1.1630889092351942e-05, 0.003335384614479222, 0.0039413965586628736, 0.0016448527665649502, 0.00045333412867461085, -0.13803707677876095, 0.002039328298362418, -0.43753311119197513, 0.9892528936201848, 0.01568981812205172, 0.14456798153157677, -0.07141024310912218, 0.0012813194500022902, -0.02839060466932016, 6.268191407035423e-06, 0.01806979902191024, 0.059638982791249316, 0.09258236356933867, 7.87827668523699e-07, 1.9674674200374208e-05, 0.03412536408643384, 0.0683036663812721, -0.045276584394090234, 0.28051041824089323, 0.12411774938718849, -0.17646370992538868, 0.19452041743352408, 0.5563850320466388, 0.01546300285663683, 0.06093560403115557, 0.09890527179765157, 0.2635793059887067, -0.042308068327602276], [1.6468247235430104e-06, 5.368572537023961e-05, 5.679717821223485e-06, 4.6311913791435475e-05, 1.6481913958955128e-06, 4.6311913791435475e-05, 0.00011106560417818693, 5.679717821254073e-06, 4.63119137914649e-05, -4.675474612004071e-05, -1.7416789415100834e-05, -1.3685272874943526e-05, -5.815444546175969e-06, -0.0016676923072396113, -0.001970698279331439, -0.0008224263832824752, -0.00022666706433730537, 0.06901853838938049, -0.0010196641491812223, 0.21876655559598762, -0.4946264468100925, -0.007844909061025885, -0.07228399076578841, 0.03570512155456107, -0.0006406597250011454, 0.014195302334660036, -3.1340957035177116e-06, -0.009034899510955133, -0.0298194913956247, -0.04629118178466933, -3.9391383426185033e-07, -9.83733710018711e-06, -0.017062682043216898, -0.03415183319063605, 0.02263829219704514, -0.14025520912044664, -0.062058874693594175, 0.0882318549626943, -0.0972602087167621, -0.27819251602331946, -0.007731501428318422, -0.030467802015577743, -0.049452635898825786, -0.13178965299435333, 0.021154034163801173], [1.6468247235430092e-06, 5.3685725370239634e-05, 5.679717821223476e-06, 4.6311913791435475e-05, 1.6481913958955116e-06, 4.6311913791435475e-05, 0.00011106560417818691, 5.6797178212540686e-06, 4.6311913791464837e-05, -4.6754746120040724e-05, -1.7416789415100834e-05, -1.3685272874943524e-05, -5.815444546175969e-06, -0.001667692307239611, -0.00197069827933144, -0.0008224263832824752, -0.00022666706433730534, 0.06901853838938049, -0.0010196641491812325, 0.21876655559598762, -0.49462644681009255, -0.007844909061025878, -0.0722839907657884, 0.03570512155456107, -0.0006406597250011454, 0.014195302334660037, -3.1340957035177107e-06, -0.009034899510955138, -0.029819491395624675, -0.04629118178466935, -3.939138342618502e-07, -9.837337100187104e-06, -0.0170626820432169, -0.034151833190636055, 0.022638292197045128, -0.14025520912044664, -0.062058874693594175, 0.08823185496269428, -0.09726020871676211, -0.2781925160233194, -0.007731501428318426, -0.030467802015577722, -0.04945263589882577, -0.13178965299435333, 0.021154034163801173]], "biases": [1.3391065080401772, -0.669553254020089, -0.669553254020089], "feat_mean": [2.060392879020588e-06, 6.443784268415955e-06, 8.746341540186136e-06, 1.888584878392241e-05, 2.0595962284557016e-06, 1.888584878392241e-05, 4.4412177787095356e-05, 8.74634154018675e-06, 1.888584878392542e-05, -1.4136451901707027e-06, 3.0784383076942294e-05, 3.317204980044151e-05, 3.505878830032126e-05, 0.0006068275756484009, 0.0007117676530277326, 0.00027394881974554926, 0.0002364074783364841, 0.5761842734549137, -0.14282711023888264, 370915.4625895318, 3535.3740300065624, 0.9376505280441652, 0.06700403943796562, 53.332194295242566, 0.00027642030592985636, 0.47302351750945015, 1.151168480150727e-06, 0.2959362283341624, 0.2767160564828984, -0.41134783318195445, 2.4254717963370895e-08, 4.98157148146935e-07, -0.16616123332826627, 0.47278822831710154, 0.2776159998804335, 2.456561934817702, 0.5150493302419236, -0.05400559877221032, -0.027979004416590566, 1.2307491146682008, 0.672727272727273, 0.5595959595959595, 0.1705964031679144, 0.5884708806985506, 0.3423863569749217], "feat_var": [1.0000007866126717, 1.0000022229336987, 1.0000034772448074, 1.000006514602706, 1.0000007865693052, 1.000006514602706, 1.0000118405461054, 1.0000034772448074, 1.000006514602706, 1.0000015399566713, 1.0000003407755393, 1.0000002637124445, 1.0000001871990376, 1.0003518284119628, 1.000489348166565, 1.0000817340804804, 1.0000097467102251, 51.84360009610579, 429.9352754103684, 3227843490938430.5, 2507715233.6539288, 102.01673027403987, 18.416727322438668, 116939.45605326393, 1.0014792378197104, 54.10343571953798, 1.0000000428032694, 34.87920435252981, 32.488085791152734, 78585.95560238224, 1.0000000044367892, 1.000000330234082, 293.3888315380557, 70.47066320234815, 723.5359009681266, 5208.64539788413, 2.3544249125996584, 29.77214078188181, 47.362613689883815, 54.92637484509279, 517.9818181818179, 368.991919191919, 518.2780588699069, 1012.1512234684993, 59.771535756997636], "count": 495}