{"symbol": "USDCUSDT", "timeframe": "4h", "weights": [[0.00012508074846346491, 8.345130388117337e-05, 0.0002539385622345398, 3.857911162215532e-05, 0.00012507585120231682, 3.857911162215532e-05, -0.00012978352089694557, 0.0002539385622345858, 3.8579111622046395e-05, 6.737271868507709e-05, -2.233240992905523e-06, -2.2031916379137214e-05, -2.8446532144224988e-05, -0.000315992115025264, -0.000351962145692827, -0.0003333647189846732, 6.162376747627584e-05, -0.05717454197428576, 0.011595099218728259, 0.02068610226030487, -0.7907708084135256, 0.004584412633793692, -0.18327690189962836, 0.02051248575289835, -0.00024649393895295356, -0.05438702269564702, 6.222551347101563e-05, 0.11855080374236186, -0.1285990627845803, 0.10765778785871526, 9.650624943382214e-06, 2.8879151640276496e-05, -0.2056828782194404, -0.11702404715629004, -0.1425609971280373, 0.011706632661771993, -0.3041907654030085, -0.21675840558959794, 0.30410033136569115, 0.6127525471212346, 0.09777644240803358, 0.030428741022665903, 0.01335790809590516, -0.06860708636528831, -0.017329033633600322], [-6.254037423173238e-05, -4.172565194058667e-05, -0.0001269692811172699, -1.9289555811077692e-05, -6.253792560115845e-05, -1.9289555811077692e-05, 6.489176044847269e-05, -0.00012696928111729304, -1.9289555811023225e-05, -3.368635934253854e-05, 1.1166204964527563e-06, 1.1015958189568585e-05, 1.4223266072112496e-05, 0.00015799605751263193, 0.0001759810728464135, 0.00016668235949233653, -3.081188373813795e-05, 0.02858727098714283, -0.00579754960936416, -0.01034305113015238, 0.39538540420676266, -0.002292206316896861, 0.09163845094981424, -0.010256242876449183, 0.00012324696947647678, 0.0271935113478235, -3.111275673550785e-05, -0.05927540187118091, 0.06429953139229012, -0.05382889392935766, -4.8253124716911105e-06, -1.4439575820138257e-05, 0.10284143910972028, 0.05851202357814503, 0.07128049856401865, -0.005853316330885986, 0.15209538270150416, 0.10837920279479892, -0.15205016568284552, -0.30637627356061736, -0.04888822120401681, -0.015214370511332911, -0.0066789540479526, 0.034303543182644086, 0.008664516816800168], [-6.254037423173238e-05, -4.172565194058666e-05, -0.00012696928111726987, -1.928955581107768e-05, -6.253792560115844e-05, -1.928955581107768e-05, 6.48917604484727e-05, -0.00012696928111729304, -1.928955581102321e-05, -3.368635934253853e-05, 1.1166204964527597e-06, 1.1015958189568582e-05, 1.4223266072112492e-05, 0.00015799605751263193, 0.00017598107284641347, 0.00016668235949233653, -3.081188373813796e-05, 0.02858727098714283, -0.005797549609364163, -0.01034305113015239, 0.39538540420676266, -0.00229220631689686, 0.09163845094981424, -0.010256242876449174, 0.00012324696947647678, 0.0271935113478235, -3.111275673550785e-05, -0.05927540187118093, 0.0642995313922901, -0.053828893929357656, -4.8253124716911105e-06, -1.4439575820138248e-05, 0.10284143910972028, 0.058512023578145, 0.07128049856401865, -0.005853316330885988, 0.15209538270150416, 0.10837920279479893, -0.15205016568284555, -0.30637627356061736, -0.04888822120401682, -0.015214370511332906, -0.006678954047952585, 0.0343035431826441, 0.008664516816800161]], "biases": [1.1292819773503082, -0.5646409886751541, -0.5646409886751542], "feat_mean": [-5.301615301113929e-07, 1.2027741118940127e-07, -2.5623850934671207e-06, -9.44348755998789e-07, -5.349644309031566e-07, -9.44348755998789e-07, -3.115921871392176e-07, -2.562385093468085e-06, -9.443487559949032e-07, 5.073835367212363e-07, 9.690879749253794e-05, 9.688968537343052e-05, 9.745869514335977e-05, 0.0002720966332818322, 0.00031405247590478026, 0.0004349146761761393, 0.00030013518210913093, 0.4912117174295241, 0.054625750559352135, -19532140.26569974, -1961563.1528381293, 1.1255946243987034, -0.07891863172348058, 48.78368681452031, 0.00043415829963235086, 0.501724393785524, -4.812717117979245e-06, 0.40694338474245306, 0.4042742660700574, -0.07877093896967603, -6.353032724952695e-08, -3.7166569641700877e-07, -0.0027745695977694973, 0.5186309440526806, -0.043947851559748806, 0.1426938533208598, 0.36776553805604684, -0.453786752708122, -0.04693474029206638, 1.369716467487674, 0.7236467236467237, 0.7293447293447295, 0.0023349354538918224, 0.0004843179434505375, 0.035181588953659526], "feat_var": [1.0000033715394674, 1.0000035873722724, 1.0000039951959094, 1.0000047125349254, 1.0000033715350427, 1.0000047125349254, 1.0000049497798136, 1.0000039951959094, 1.0000047125349254, 1.0000066401414984, 1.0000006724474508, 1.0000003576982508, 1.0000001792266993, 1.000000831290087, 1.0000010997677184, 1.0000021994291868, 1.0000018073108403, 23.891732914151405, 408.9194224681594, 8.455870633521301e+19, 959265702162370.2, 861.2189972946936, 12.546086479028101, 119810.68409002502, 1.000006322551049, 13.37625087168207, 1.0000021562019514, 11.285129705645161, 9.948022721807975, 18036.08281135082, 1.0000000209480917, 1.000000124309264, 11.504082165339971, 38.008393742470346, 132.46708115652984, 846.1407455076451, 2.615354378085976, 10.181167516735051, 33.88817508724514, 45.35916301005654, 271.19373219373233, 302.2877492877494, 12.609392512156068, 15.565492421072607, 1.268147869188607], "count": 351}